//
// Generated by spiderweak using Python.
//

#ifndef CPP_PARAMETERS_H
#define CPP_PARAMETERS_H

#define HUNIT 6

#endif //CPP_PARAMETERS_H

const int hunit = HUNIT;

static float lstm_cell_input_weights[4 * HUNIT] = {0.22094489634037018, 0.49982568621635437, 0.21287254989147186, -0.4685599207878113, 0.21881766617298126, 0.08261626958847046, -0.3502371609210968, -0.36726588010787964, 0.3853989541530609, 0.2487742006778717, -0.26637059450149536, 0.17103347182273865, -0.18438465893268585, 0.3908485770225525, 0.2520908713340759, 0.2798571288585663, 0.3147302269935608, -0.5714927315711975, -0.15685772895812988, 0.13485325872898102, -0.10402897000312805, 0.36558735370635986, -0.04540976881980896, -0.15222351253032684};

static float lstm_cell_hidden_weights[4 * HUNIT * HUNIT] = {0.129402756690979, 0.058984171599149704, 0.07323110848665237, -0.17709174752235413, -0.31332820653915405, 0.035762637853622437, 0.6118371486663818, 0.119366355240345, 0.21886780858039856, 0.21075934171676636, 0.11722677201032639, -0.27801424264907837, -0.08345338702201843, -0.16656355559825897, -0.28937017917633057, 0.1293453425168991, 0.09519019722938538, -0.04917393624782562, 0.31155648827552795, -0.011053534224629402, -0.03894150257110596, -0.04856916144490242, -0.1393829584121704, 0.06710690259933472, 0.19535665214061737, -0.24891574680805206, 0.18345311284065247, 0.25325265526771545, 0.38449349999427795, 0.0014795046299695969, 0.19194570183753967, -0.23647046089172363, -0.01972237229347229, 0.20685653388500214, -0.1985263079404831, -0.06511896103620529, 0.17946642637252808, -0.04627536982297897, 0.2111869603395462, 0.15624238550662994, -0.008215837180614471, -0.21235291659832, 0.0466315820813179, 0.4667283594608307, 0.007387077435851097, -0.22284168004989624, -0.20136316120624542, 0.12594227492809296, 0.015522963367402554, 0.3066215217113495, -0.13401976227760315, 0.12578745186328888, 0.13439737260341644, 0.11089901626110077, 0.06911114603281021, 0.11141796410083771, 0.3902494013309479, 0.21441550552845, -0.14658348262310028, 0.3977321982383728, 0.05279969051480293, 0.1404459923505783, -0.04861222952604294, 0.22940701246261597, -0.5097591876983643, 0.059458762407302856, 0.1234530583024025, 0.01542233768850565, 0.14795193076133728, 0.2471974492073059, -0.07033340632915497, -0.04632114619016647, -0.007631240412592888, -0.16594505310058594, -0.03433031216263771, 0.033254045993089676, -0.03597816824913025, -0.023306405171751976, 0.034154701977968216, -0.3322286307811737, 0.25878775119781494, -0.3586960434913635, -0.4298776388168335, -0.10897400975227356, -0.01670202799141407, -0.2953895628452301, 0.041186220943927765, -0.16663217544555664, -0.31101301312446594, -0.18614955246448517, 0.18957893550395966, -0.3846728503704071, -0.15899913012981415, -0.05342478305101395, 0.03969009965658188, 0.049340616911649704, -0.01319326926022768, 0.032698146998882294, 0.052597060799598694, 0.13361458480358124, -0.09195526689291, 0.2424265742301941, -0.13276399672031403, 0.04855242371559143, 0.21144001185894012, 0.16153071820735931, -0.24560286104679108, -0.19126944243907928, -0.19078053534030914, 0.029467934742569923, 0.16086247563362122, -0.4473358988761902, 0.14396744966506958, 0.40681561827659607, 0.08838173002004623, 0.21487021446228027, -0.08477402478456497, 0.2700236141681671, -0.09244639426469803, 0.362105131149292, -0.23421968519687653, -0.02068454772233963, 0.009744161739945412, -0.36784228682518005, -0.06242707371711731, -0.08490697294473648, -0.05793154984712601, -0.10774669051170349, -0.3338150382041931, 0.09722316265106201, -0.3576980531215668, -0.1382981538772583, 0.24763572216033936, -0.026804719120264053, -0.13012728095054626, 0.3090897798538208, -0.025488458573818207, -0.03610580042004585, 0.025968007743358612, 0.0381871722638607, 0.19509314000606537, 0.39230260252952576, 0.09352350980043411, 0.3687448799610138};

static float lstm_cell_bias[4 * HUNIT] = {0.347482293844223, 0.24572265148162842, -0.006464124657213688, -0.018080871552228928, -0.029163338243961334, 0.20865052938461304, 1.0, 1.0, 1.0, 1.0, 1.0, 1.0, -0.2745528221130371, 0.21527832746505737, -0.15944144129753113, -0.16852352023124695, -0.15549689531326294, -0.20862649381160736, 0.337917298078537, 0.23603397607803345, -0.007609730586409569, -0.01622297428548336, -0.029103560373187065, 0.20304138958454132};

static float lstm_cell_hidden_layer[HUNIT] = {-0.3100183606147766, 0.412343829870224, 0.16469283401966095, -0.054972320795059204, -0.1309526413679123, -0.42160946130752563};
static float lstm_cell_cell_states[HUNIT] = {-0.6414729356765747, 0.8141508102416992, 0.3554566204547882, -0.11715231835842133, -0.28750622272491455, -1.283249855041504};

static float dense_weights[HUNIT] = {-0.41922926902770996, 0.5564793348312378, -0.34223759174346924, -0.7009760737419128, -0.299324631690979, -1.0361404418945312};
static float dense_bias = 0.17676635086536407;