//
// Generated by spiderweak using Python.
//

#ifndef CPP_PARAMETERS_H
#define CPP_PARAMETERS_H

#define HUNIT 5

#endif //CPP_PARAMETERS_H

const int hunit = HUNIT;

const float lstm_cell_input_weights[4 * HUNIT] = {0.09320200234651566, -0.3212883174419403, -0.12070684880018234, 0.39341625571250916, -0.36271852254867554, 0.2480400800704956, 0.21747589111328125, -0.4208412170410156, 0.2451656460762024, 0.17236781120300293, 0.1434735506772995, -0.4685435891151428, 0.11206141859292984, -0.43356040120124817, 0.2534582316875458, 0.1702083945274353, 0.0887417197227478, -0.14024949073791504, 0.545876681804657, 0.06059114634990692};

const float lstm_cell_hidden_weights[4 * HUNIT * HUNIT] = {0.05174720287322998, -0.2636735439300537, 0.10245558619499207, 0.002139824675396085, 0.40538981556892395, -0.18462666869163513, 0.1927981972694397, -0.22521595656871796, -0.20293110609054565, 0.05855778232216835, -0.22777387499809265, 0.10739505290985107, 0.06568455696105957, -0.35895201563835144, -0.20924027264118195, 0.3637802004814148, -0.034781936556100845, 0.0907692015171051, 0.11149843782186508, 0.4379400312900543, -0.08967693150043488, 0.12748505175113678, 0.046015869826078415, 0.086934395134449, 0.440674364566803, 0.09391160309314728, -0.5065537095069885, -0.1456887274980545, -0.3457406163215637, -0.2662206292152405, -0.011104142293334007, -0.09578995406627655, 0.044389884918928146, -0.10513602197170258, 0.11313159763813019, -0.19424642622470856, -0.42576465010643005, -0.02586371824145317, -0.1634109914302826, -0.11525747925043106, 0.04174839332699776, 0.024949340149760246, -0.2967747151851654, -0.2681768834590912, -0.3199458122253418, -0.13529182970523834, -0.1961274892091751, -0.03284332901239395, -0.13977321982383728, -0.25393587350845337, 0.14434023201465607, -0.21046747267246246, 0.1996038854122162, -0.16235598921775818, 0.35569337010383606, 0.4587606191635132, -0.0016407181974500418, 0.3423306941986084, 0.08708013594150543, 0.017886824905872345, -0.3727628290653229, -0.12817248702049255, -0.0826818197965622, 0.16221950948238373, -0.08158848434686661, -0.10476259142160416, 0.10235331207513809, -0.0902988389134407, 0.1338804066181183, 0.2525630295276642, -0.23196622729301453, -0.3488587439060211, -0.4425945580005646, 0.05877626687288284, 0.1518344283103943, -0.005041800439357758, -0.27124911546707153, 0.3686806857585907, -0.28125253319740295, 0.08339700102806091, 0.1290261149406433, -0.06963739544153214, -0.3196817636489868, -0.6111310124397278, 0.17312870919704437, 0.09588877111673355, 0.2437593787908554, -0.1223045364022255, 0.26426804065704346, -0.28486311435699463, -0.17800557613372803, 0.19784286618232727, -0.24752947688102722, 0.015975646674633026, 0.07923974841833115, -0.16828569769859314, -0.25803256034851074, -0.055037397891283035, 0.020244818180799484, -0.03636760637164116};

const float lstm_cell_bias[4 * HUNIT] = {0.2691471576690674, 0.04626874625682831, 0.11510448902845383, 0.8458742499351501, 0.06727375090122223, 1.0, 1.0, 1.0, 1.0, 1.0, -0.20921632647514343, -0.31305405497550964, 0.24647223949432373, 0.21645526587963104, 0.27417415380477905, 0.276567280292511, 0.07495088130235672, 0.10792454332113266, 0.8543487787246704, 0.10226383060216904};

static float lstm_cell_hidden_layer[HUNIT] = {-0.2836437523365021, -0.4441733658313751, -0.04372550547122955, 0.4839705228805542, 0.34472498297691345};
static float lstm_cell_cell_states[HUNIT] = {-0.5549864768981934, -1.2553174495697021, -0.08039827644824982, 0.7989561557769775, 0.7970399856567383};

const float dense_weights[HUNIT] = {-0.4339127838611603, -0.5981121063232422, 0.8291727900505066, 1.390313982963562, 0.6348527669906616};
const float dense_bias = 0.2113862931728363;
