//
// Generated by spiderweak using Python.
//

#ifndef CPP_PARAMETERS_H
#define CPP_PARAMETERS_H

#define HUNIT 11

#endif //CPP_PARAMETERS_H

const int hunit = HUNIT;

const float lstm_cell_input_weights[4 * HUNIT] = {0.2749181389808655, 0.7837879061698914, 0.853534460067749, -0.38066408038139343, -0.361461877822876, -0.07599015533924103, 0.006877286359667778, -0.23612487316131592, -0.3826006352901459, 0.0731050968170166, 1.1940158605575562, -0.36493125557899475, 0.10282683372497559, -0.09726843237876892, -0.2746756970882416, -0.33340051770210266, 0.1973283886909485, 0.35347819328308105, -0.22304238379001617, 0.22207289934158325, -0.3456709384918213, 0.3576549291610718, 0.02881733700633049, -0.44061872363090515, -0.4986054301261902, 0.02529243752360344, -0.3262527883052826, 0.3143954873085022, -0.3343585729598999, -0.07058192789554596, 0.00463855778798461, -0.06099223718047142, -0.41622957587242126, 0.1948631852865219, 0.5092994570732117, 0.8555618524551392, -0.2947096824645996, -0.23379264771938324, -0.4415796399116516, -0.13033340871334076, 0.05570351332426071, 0.23551534116268158, -0.18477870523929596, 1.0474849939346313};

const float lstm_cell_hidden_weights[4 * HUNIT * HUNIT] = {-0.08788585662841797, -0.03080231323838234, -0.18644821643829346, 0.1911780834197998, 0.06107994168996811, 0.191614031791687, 0.12029653787612915, -0.20371851325035095, 0.11656481772661209, -0.03556589037179947, 0.0375601202249527, -0.03575669229030609, -0.30954933166503906, 0.17492616176605225, -0.22060075402259827, -0.0008161768782883883, 0.15199075639247894, 0.06950024515390396, 0.062443703413009644, 0.26598843932151794, -0.09659046679735184, 0.10197484493255615, -0.1490013748407364, -0.08541682362556458, 0.14336881041526794, -0.26071277260780334, -0.06485766917467117, 0.057126499712467194, 0.0007913716835901141, 0.35097113251686096, -0.03525873273611069, -0.06413774937391281, 0.02860075980424881, 0.3372277021408081, -0.13321533799171448, 0.015023449435830116, 0.23439760506153107, 0.19137664139270782, 0.06464515626430511, 1.8851424101740122e-05, 0.022333059459924698, -0.15934793651103973, 0.021417886018753052, 0.004541115369647741, -0.22511132061481476, 0.15211854875087738, 0.04376562312245369, 0.018350670114159584, -0.10650569200515747, -0.020852744579315186, -0.02011028490960598, 0.243784099817276, 0.02866593562066555, 0.16797524690628052, 0.04471476003527641, -0.19797725975513458, -0.2627355754375458, -0.320455938577652, 0.03159584105014801, 0.011746248230338097, 0.22629225254058838, -0.004925497807562351, 0.05461633950471878, 0.018981419503688812, -0.025564145296812057, -0.24882031977176666, 0.03428609296679497, -0.009801081381738186, 0.06347880512475967, -0.06726828217506409, -0.16588610410690308, 0.07480588555335999, -0.10132983326911926, -0.10092614591121674, -0.3183307647705078, 0.09010373800992966, -0.12097582966089249, -0.2883404493331909, -0.1960829794406891, 0.026536384597420692, 0.08192947506904602, 0.2780180275440216, 0.22047081589698792, -0.13562054932117462, 0.08992638438940048, 0.07509268820285797, -0.056661054491996765, -0.11987663805484772, 0.06264469772577286, 0.20582053065299988, 0.020288977771997452, 0.1838013380765915, -0.24211274087429047, -0.042810309678316116, -0.2725396156311035, -0.05101423338055611, 0.05361303687095642, 0.0171225443482399, 0.19169943034648895, -0.12452225387096405, -0.11041463911533356, -0.04014270752668381, 0.13203935325145721, -0.031068457290530205, -0.340810090303421, 0.2718932032585144, 0.06955064833164215, -0.06618174910545349, 0.008178925141692162, 0.06480693817138672, -0.05544158071279526, -0.024451984092593193, -0.131211057305336, -0.20560167729854584, 0.21660710871219635, 0.12854278087615967, 0.20274530351161957, -0.07586560398340225, 0.031143397092819214, 0.21383152902126312, 0.0587298646569252, 0.0003277100622653961, -0.018871406093239784, -0.014717602171003819, 0.22468021512031555, -0.08064126968383789, -0.21600323915481567, -0.22973765432834625, 0.23688800632953644, -0.11386418342590332, 0.16279128193855286, -0.1217350885272026, 0.11024255305528641, -0.1768028885126114, 0.13064725697040558, 0.25320640206336975, 0.16916322708129883, -0.0873524472117424, 0.1588221788406372, -0.10063082724809647, 0.12486487627029419, -0.02529945783317089, -0.012982262298464775, 0.08868668973445892, 0.0014788098633289337, -0.13041839003562927, -0.11111507564783096, -0.01992007903754711, -0.11224615573883057, 0.029991289600729942, -0.3779434263706207, 0.009823029860854149, 0.2467048615217209, 0.22869063913822174, 0.07264593988656998, -0.1390598565340042, -0.28212133049964905, -0.23370146751403809, -0.10725520551204681, 0.08069254457950592, -0.189993217587471, -0.03944510221481323, -0.019302893429994583, 0.12750205397605896, -0.1216340959072113, -0.2466532438993454, 0.023294493556022644, -0.13559626042842865, 0.2634718716144562, -0.07340960204601288, 0.15868423879146576, -0.025001155212521553, -0.21061478555202484, 0.00398855097591877, -0.08413294702768326, -0.04940160736441612, 0.21627038717269897, 0.0014477195218205452, -0.13579592108726501, 0.03284148871898651, 0.08843269944190979, 0.1022263616323471, 0.07513449341058731, -0.03447369486093521, -0.03483360633254051, 0.2408195286989212, -0.02072363719344139, 0.24127183854579926, -0.018153972923755646, 0.07408001273870468, -0.12102340161800385, -0.1499365121126175, -0.3458367586135864, -0.13747398555278778, 0.15972775220870972, -0.24796369671821594, -0.060797713696956635, -0.2870597541332245, -0.018866343423724174, -0.08152409642934799, 0.01890512742102146, -0.18786482512950897, 0.03512652963399887, 0.2457844614982605, -0.17253462970256805, 0.13529273867607117, 0.07609918713569641, 0.01738143153488636, 0.04008478671312332, -0.16047303378582, -0.06245945021510124, -0.29728108644485474, -0.24893084168434143, 0.25106281042099, 0.046503860503435135, -0.007821988314390182, 0.12625592947006226, -0.0015192851424217224, 0.026476392522454262, 0.11934065818786621, 0.09019295871257782, -0.11191615462303162, -0.037832293659448624, 0.014892280101776123, 0.09750226885080338, -0.0913449376821518, -0.2861243188381195, 0.004340970888733864, 0.08003666251897812, -0.14873908460140228, -0.09380502998828888, 0.03828869014978409, -0.10259462147951126, 0.003603123128414154, -0.13864195346832275, -0.28208038210868835, 0.07219047844409943, -0.14320802688598633, 0.09368696808815002, 0.2097892165184021, -0.03658078610897064, -0.17044799029827118, 0.309354692697525, -0.011301981285214424, -0.0860292911529541, 0.30839449167251587, -0.3537074625492096, 0.28727614879608154, 0.20800583064556122, 0.15291696786880493, -0.0081703569740057, 0.17562879621982574, 0.05439062416553497, -0.07679560780525208, 0.1909758448600769, -0.09381025284528732, 0.14537551999092102, -0.06790024042129517, -0.12898105382919312, 0.0469152107834816, 0.07676663249731064, -0.07027030736207962, 0.05526803806424141, -0.06925823539495468, -0.04022081941366196, 0.11879009008407593, 0.0003197537735104561, -0.04580981284379959, 0.24792346358299255, -0.050979133695364, -0.021386705338954926, -0.016120044514536858, -0.19272078573703766, -0.001144501264207065, -0.10112449526786804, 0.17814196646213531, -0.009160652756690979, -0.16619712114334106, 0.2851545810699463, -0.12513576447963715, -0.07110679894685745, 0.1550585925579071, 0.10593505203723907, -0.04282340034842491, 0.21260444819927216, -0.19876371324062347, 0.002206394448876381, -0.04730174317955971, 0.07005221396684647, -0.09186123311519623, 0.08872159570455551, -0.3032242953777313, 0.1410875767469406, 0.25083082914352417, -0.24586121737957, 0.22258630394935608, -0.302020400762558, 0.2132413387298584, 0.21140854060649872, -0.1255968064069748, 0.11187390983104706, -0.04461491480469704, 0.15196692943572998, 0.18453779816627502, -0.015887947753071785, -0.07438066601753235, 0.020024623721837997, 0.05942218005657196, 0.2379320114850998, 0.14197640120983124, 0.13493412733078003, -0.10428601503372192, 0.0775512233376503, -0.02986265905201435, -0.10855380445718765, -0.049660127609968185, -0.05604865401983261, -0.13611744344234467, 0.01478737872093916, -0.04603590816259384, 0.1399582028388977, -0.04255888611078262, 0.10793420672416687, 0.20832762122154236, 0.11720417439937592, -0.15629447996616364, 0.17971345782279968, 0.033481843769550323, -0.4234570860862732, 0.03704813867807388, -0.07293392717838287, 0.049529917538166046, -0.371728777885437, -0.22480350732803345, 0.00820428878068924, 0.3053929805755615, -0.07028619199991226, 0.012003697454929352, -0.15598993003368378, 0.005087892524898052, -0.14143386483192444, 0.2507973313331604, -0.002704707905650139, -0.07843468338251114, 0.01048550009727478, -0.09758518636226654, 0.16649942100048065, 0.10287529975175858, -0.020327622070908546, 0.20509269833564758, -0.09453488141298294, -0.11217707395553589, 0.09576990455389023, -0.18747270107269287, 0.14405082166194916, -0.019763359799981117, -0.018347565084695816, 0.17099440097808838, -0.058393776416778564, 0.3229658007621765, 0.39469215273857117, 0.2069653421640396, 0.10439083725214005, 0.3528694212436676, -0.1009654700756073, 0.14224186539649963, 0.17951302230358124, 0.01644052006304264, 0.10124499350786209, -0.13087832927703857, 0.16364291310310364, -0.01808134652674198, 0.1087428629398346, 0.1741022914648056, 0.08692249655723572, 0.24900062382221222, 0.07283863425254822, -0.1152239739894867, 0.07910795509815216, -0.060709528625011444, 0.10015235096216202, 0.11535701900720596, -0.05584285780787468, -0.042459409683942795, -0.08561185747385025, 0.009690456092357635, 0.029147496446967125, -0.050698257982730865, -0.01895608752965927, -0.004127461463212967, -0.07987532764673233, -0.10033973306417465, -0.14230310916900635, 0.10430248826742172, 0.07720290869474411, -0.3355214297771454, 0.3167365789413452, 0.10952648520469666, -0.07727934420108795, 0.18368229269981384, -0.21187452971935272, -0.12561045587062836, 0.10860410332679749, 0.02000981569290161, 0.05056660994887352, -0.12753258645534515, -0.11123736202716827, 0.13963548839092255, 0.18519243597984314, -0.08692687749862671, -0.20297060906887054, 0.10810035467147827, -0.024034643545746803, 0.07140059024095535, -0.026388341560959816, 0.03745853155851364, -0.16221392154693604, -0.1570691019296646, -0.13862712681293488, -0.028754722326993942, -0.03281783685088158, 0.23706579208374023, 0.1720992624759674, -0.12445452809333801, 0.2731792628765106, 0.11724013835191727, -0.1724657267332077, -0.12542931735515594, -0.0868108868598938, -0.10035084187984467, 0.07840894162654877, 0.017547357827425003, 0.12867192924022675, 0.3440987765789032, -0.05992615595459938, -0.20339618623256683, -0.3269338607788086, 0.026394199579954147, -0.03383870795369148, -0.043926652520895004, 0.0031695635989308357, 0.1127421036362648, 0.011258210986852646, 0.23817329108715057, -0.24927420914173126, -0.22244994342327118, 0.33495163917541504, -0.037325210869312286, 0.28032851219177246, -0.07442045211791992, 0.13189929723739624, -0.04321955144405365, -0.028223704546689987, 0.1200283020734787, 0.16637465357780457, 0.04691549018025398, -0.08967526257038116, 0.07010310143232346, -0.09418227523565292, -0.05852946266531944, -0.021080393344163895, -0.021162569522857666, -0.09108906239271164, -0.09811653941869736, 0.09149515628814697, 0.14663416147232056, -0.33717790246009827, 0.04480006545782089, -0.16241298615932465, 0.062335480004549026, -0.09815765172243118, 0.1021973192691803, -0.15824125707149506, 0.1600639373064041, 0.24014174938201904, -0.008294536732137203, -0.2635696828365326, -0.008732611313462257, -0.06228955090045929, 0.15395423769950867, 0.1548256278038025, 0.1962902843952179, 0.1986611932516098, -0.09629939496517181};

const float lstm_cell_bias[4 * HUNIT] = {0.1382550597190857, 0.6135889291763306, 0.4635699391365051, 0.24226021766662598, 0.09373848885297775, 0.11202600598335266, 0.08803069591522217, 0.1353854238986969, 0.16045056283473969, 0.1580112725496292, 0.7677971124649048, 1.0, 1.0, 1.0, 1.0, 1.0, 1.0, 1.0, 1.0, 1.0, 1.0, 1.0, 0.15800222754478455, 0.15837351977825165, 0.14962232112884521, 0.270769864320755, -0.22945795953273773, 0.22877663373947144, -0.2107791304588318, -0.1938287317752838, 0.1893816888332367, -0.19265544414520264, 0.14594870805740356, 0.1309693455696106, 0.637448251247406, 0.4658654034137726, 0.2472594529390335, 0.09734521061182022, 0.08578737080097198, 0.07373423874378204, 0.15323537588119507, 0.20101816952228546, 0.13920821249485016, 0.7799387574195862};

static float lstm_cell_hidden_layer[HUNIT] = {0.28620168566703796, 0.022470254451036453, -0.11611966788768768, 0.28273019194602966, -0.34072354435920715, 0.371012419462204, -0.309204638004303, -0.15035782754421234, 0.33237242698669434, -0.205447256565094, 0.07285390794277191};
static float lstm_cell_cell_states[HUNIT] = {0.5792120695114136, 0.032035186886787415, -0.16525205969810486, 0.5424700379371643, -0.9056307077407837, 1.1166534423828125, -0.7203842997550964, -0.2920166850090027, 0.6676049828529358, -0.4160894751548767, 0.09877201914787292};

const float dense_weights[HUNIT] = {0.6617144346237183, 0.5310168862342834, 0.5605138540267944, 0.2729690670967102, -0.7846984267234802, 0.5782064199447632, -0.45178917050361633, -0.5324805378913879, 0.8681505918502808, -0.4511848986148834, 0.9049144983291626};
const float dense_bias = 0.17434096336364746;
