//
// Generated by spiderweak using Python.
//

#ifndef CPP_PARAMETERS_H
#define CPP_PARAMETERS_H

#define HUNIT 20

#endif //CPP_PARAMETERS_H

const int hunit = HUNIT;

const float lstm_cell_input_weights[4 * HUNIT] = {-0.11966320127248764, 0.2100462168455124, 1.2173162698745728, -0.11058923602104187, 1.0853320360183716, -0.3187699019908905, 0.669877290725708, 0.23597405850887299, -0.11551465094089508, -0.026990346610546112, 0.31681403517723083, -0.18152430653572083, 0.15024115145206451, 1.1426950693130493, 0.03107917495071888, 0.13299065828323364, -0.09324505180120468, 0.015803134068846703, 0.009331713430583477, -0.08695145696401596, 0.17502370476722717, -0.08204703032970428, 0.21407318115234375, 0.13024842739105225, 0.014952123165130615, 0.19998550415039062, -0.0023311376571655273, -0.2373577356338501, 0.1283855438232422, 0.05369254946708679, -0.262864887714386, -0.06456805765628815, 0.11561816930770874, -0.08057838678359985, 0.24992156028747559, 0.18866649270057678, 0.03412806987762451, -0.24408617615699768, -0.2624117136001587, -0.21668127179145813, -0.19339294731616974, 0.2352762371301651, -0.3145894408226013, 0.24495801329612732, -0.329006552696228, 0.025382325053215027, -0.26861438155174255, 0.05231183022260666, -0.05810686573386192, 0.19557498395442963, -0.1549215018749237, -0.1039913222193718, 0.07458635419607162, -0.3049360513687134, 0.1264297217130661, 0.1396300345659256, 0.17965711653232574, 0.06455115973949432, 0.10743203014135361, 0.11045882105827332, -0.21880881488323212, 0.47990453243255615, 0.8773188591003418, -0.2961033284664154, 0.9061247110366821, 0.1723850965499878, 0.6039364337921143, 0.2367204874753952, -0.27818140387535095, 0.09288937598466873, 0.2518525719642639, -0.059613119810819626, 0.04509991407394409, 1.0658185482025146, -0.012487851083278656, -0.023079141974449158, -0.1471875160932541, 0.06983024626970291, -0.11057715117931366, -0.31552478671073914};

const float lstm_cell_hidden_weights[4 * HUNIT * HUNIT] = {0.08429253101348877, -0.025936821475625038, -0.03564972057938576, 0.17801274359226227, 0.08302506059408188, 0.09534212201833725, -0.15796729922294617, 0.25504806637763977, -0.23980247974395752, 0.019773878157138824, -0.09609788656234741, 0.2759403884410858, -0.06215755641460419, -0.14309638738632202, -0.010366617701947689, 0.12261193990707397, -0.1716439425945282, 0.09726336598396301, 0.09126681089401245, 0.12007148563861847, 0.011774159036576748, -0.03283682465553284, 0.11911359429359436, -0.20790907740592957, -0.12735876441001892, 0.02357812225818634, -0.13526685535907745, 0.002193758962675929, -0.08166752010583878, -0.06070685759186745, 0.012152549810707569, 0.040140967816114426, 0.1471192091703415, 0.17711356282234192, -0.015959355980157852, -0.00578937865793705, 0.04148256778717041, -0.12649361789226532, -0.00982821173965931, 0.017795734107494354, 0.06491762399673462, -0.08525566011667252, 0.03598681464791298, 0.09025032818317413, 0.21160903573036194, 0.07939457893371582, -0.02457953803241253, -0.014341151341795921, -0.014835205860435963, -0.14361394941806793, 0.011617000214755535, 0.027973707765340805, -0.11186373233795166, -0.15682034194469452, 0.06695813685655594, -0.018391478806734085, -0.13472749292850494, 0.024228854104876518, 0.031040512025356293, 0.010957605205476284, -0.11163350939750671, -0.03415239229798317, -0.04587966948747635, 0.08171973377466202, -0.06300897151231766, 0.2809029519557953, 0.010543569922447205, -0.15929709374904633, -0.04090985283255577, -0.02704053744673729, 0.21703891456127167, -0.044051919132471085, -0.00897061638534069, 0.04486739635467529, -0.2127012014389038, 0.06276185810565948, 0.15434737503528595, -0.08976307511329651, -0.08107737451791763, 0.05754081532359123, -0.15241007506847382, 0.16684192419052124, -0.23739062249660492, 0.11671251058578491, -0.2650119960308075, -0.09182523190975189, 0.049186911433935165, 0.07721787691116333, -0.11509175598621368, -0.23147407174110413, -0.103596530854702, -0.02784092351794243, 0.08449146151542664, -0.026254385709762573, -0.07610861957073212, -0.1269271969795227, -0.05117740482091904, -0.0781005248427391, 0.06797219067811966, 0.10349825024604797, 0.0631011426448822, 0.017533397302031517, -0.18757674098014832, 0.05826038122177124, 0.024343647062778473, 0.005531454924494028, 0.14403963088989258, 0.013835841789841652, 0.07334857434034348, 0.05936572328209877, -0.004487412050366402, 0.05143214762210846, 0.06197462975978851, 0.022710617631673813, 0.0026197952684015036, -0.07784075289964676, 0.027155878022313118, -0.054664433002471924, -0.028450096026062965, 0.14250905811786652, 0.15361352264881134, 0.07686753571033478, 0.007746509276330471, 0.0063972510397434235, -0.062010787427425385, -0.054631806910037994, 0.03134376183152199, -0.09190408140420914, -0.0885002538561821, -0.16735677421092987, 0.08851749449968338, -0.004297635983675718, 0.1352120041847229, -0.0619802251458168, -0.12057667970657349, 0.18090659379959106, -0.13153821229934692, 0.06359288096427917, 0.2808476686477661, -0.23029537498950958, -0.0442681722342968, -0.12779676914215088, 0.03117520920932293, 0.24918480217456818, 0.01902545988559723, 0.05657697468996048, 0.021119849756360054, -0.1078805923461914, 0.2089509218931198, -0.07958509773015976, -0.17568135261535645, 0.009101713076233864, 0.03929324448108673, -0.05796874314546585, 0.04552260413765907, 0.11563269793987274, -0.10954982042312622, 0.07919575273990631, -0.13766168057918549, -0.02841353602707386, 0.1458079069852829, 0.06911861896514893, -0.03700082004070282, 0.07930321991443634, -0.143764927983284, -0.2142048329114914, -0.06816031038761139, -0.16108755767345428, -0.1371033489704132, 0.05201628431677818, -0.1290707141160965, -0.08492471277713776, -0.08657117933034897, -0.05128780007362366, 0.12186512351036072, -0.12032853811979294, 0.12861192226409912, -0.13683868944644928, 0.08466041833162308, -0.03780141845345497, -0.2851296067237854, -0.03946109861135483, -0.11785773932933807, -0.03114554099738598, 0.07115606963634491, -0.04842124134302139, 0.1761694699525833, -0.06381281465291977, -0.10290893912315369, 0.0042962199077010155, 0.20395681262016296, -0.044058799743652344, 0.09288211166858673, 0.02027920074760914, 0.07038423418998718, -0.12115838378667831, 0.06919363141059875, 0.10661845654249191, -0.18813607096672058, -0.014712883159518242, 0.06634963303804398, 0.0669705718755722, 0.04363151639699936, -0.05510455742478371, -0.19910955429077148, -0.03608469292521477, 0.12837398052215576, 0.1355925351381302, 0.1971668154001236, -0.008686122484505177, -0.18925665318965912, 0.055861946195364, -0.01956956461071968, 0.17676478624343872, -0.05853225290775299, -0.06927686184644699, -0.09969434142112732, -0.09471540153026581, -0.1934337615966797, 0.008870507590472698, 0.02003585174679756, 0.1429881900548935, -0.00901511125266552, 0.07682348787784576, -0.06879189610481262, 0.15738695859909058, 0.019451750442385674, -0.025077471509575844, 0.07848121970891953, 0.07784628868103027, 0.25326141715049744, 0.06330208480358124, -0.07687827944755554, 0.09604699909687042, -0.12305763363838196, 0.11980491876602173, 0.015326212160289288, -0.06662818044424057, -0.04997045919299126, 0.11112194508314133, -0.10965153574943542, -0.06772296130657196, -0.02192719839513302, -0.24162571132183075, -0.004029460251331329, 0.0813424214720726, -0.09013115614652634, 0.10288070142269135, -0.0039045214653015137, 0.0404718741774559, -0.0012840116396546364, 0.1326790302991867, -0.12361674755811691, 0.1966020166873932, 0.2309582233428955, -0.03425827994942665, 0.04998983070254326, -0.04164518415927887, -0.0786195769906044, 0.12229307740926743, -0.09799754619598389, 0.1086580753326416, 0.03705613315105438, -0.03128506988286972, 0.08832284808158875, -0.13063903152942657, -0.05007012560963631, -0.18885229527950287, 0.10251771658658981, 0.14973539113998413, 0.07764522731304169, 0.07341348379850388, -0.054140906780958176, 0.12350798398256302, 0.15312722325325012, -0.05335579439997673, -0.06264673918485641, 0.09503567963838577, 0.099593885242939, -0.07340667396783829, -0.16680178046226501, 0.0770564079284668, -0.06029469892382622, -0.11644415557384491, -0.03787516430020332, -0.0207636971026659, 0.08662927150726318, 0.19404467940330505, 0.030699608847498894, -0.2153043895959854, 0.12992137670516968, 0.03285509720444679, 0.1024388000369072, -0.15945781767368317, 0.08855760842561722, 0.013475225307047367, 0.10769566148519516, -0.15671226382255554, 0.13557246327400208, -0.0864952802658081, 0.07862234115600586, -0.2535765767097473, -0.08445844799280167, 0.12106908857822418, -0.175624281167984, -0.18114376068115234, -0.014668877236545086, -0.010339932516217232, 0.00900748185813427, 0.06977734714746475, 0.23077979683876038, -0.028935754671692848, -0.04045148938894272, -0.013785713352262974, -0.06800396740436554, 0.12248551100492477, 0.0012056799605488777, 0.1663511097431183, 0.09218400716781616, -0.009461576119065285, 0.04673606902360916, 0.09137919545173645, -0.0882224291563034, 0.08192269504070282, -0.05441507324576378, 0.1873050183057785, -0.29891782999038696, 0.05363943427801132, 0.01461253222078085, 0.1283922642469406, 0.015313547104597092, 0.09562288969755173, -0.03347940742969513, -0.07840708643198013, 0.00044552181498147547, -0.11299574375152588, -0.14226922392845154, 0.09313943237066269, -0.03409835323691368, 0.09075965732336044, 0.07063022255897522, 0.1795717179775238, 0.05953549966216087, 0.2742731273174286, 0.25944653153419495, -0.035151563584804535, -0.06354338675737381, -0.07740518450737, -0.0009932613465934992, 0.03062126412987709, 0.05584671348333359, -0.05145798251032829, -0.008283444680273533, -0.09002562612295151, 0.011832769960165024, 0.0763361006975174, -0.1335247904062271, 0.03699922934174538, 0.1715102195739746, -0.12394803017377853, -0.014195064082741737, 0.11894245445728302, 0.03362433239817619, 0.06112684682011604, -0.0641452744603157, 0.029189949855208397, -0.016625771299004555, -0.17284303903579712, 0.08256319165229797, 0.11777608841657639, -0.011904114857316017, 0.09046074748039246, 0.024698304012417793, 0.18136288225650787, -0.2230917513370514, -0.20006109774112701, 0.09591223299503326, 0.15969428420066833, -0.010759693570435047, 0.01657179929316044, -0.13814276456832886, -0.04347805306315422, 0.11686079949140549, 0.21128596365451813, -0.027408814057707787, -0.07949226349592209, 0.05961080640554428, 0.06976726651191711, -0.09935217350721359, 0.038820721209049225, -0.013207931071519852, -0.06091110408306122, 0.054439906030893326, -0.03199402242898941, -0.04938065633177757, 0.03663509711623192, -0.0785255953669548, -0.12374475598335266, -0.12827695906162262, 0.28879374265670776, -0.2634640634059906, 0.14242525398731232, -0.021996889263391495, 0.06645476073026657, 0.07739623636007309, 0.031874991953372955, -0.037288494408130646, -0.005451161414384842, 0.09403117001056671, -0.02443229965865612, -0.118830606341362, 0.1049746498465538, -0.07017678022384644, -0.1520615965127945, 0.05024873837828636, -0.0620868057012558, 0.08325350284576416, 0.2140662968158722, 0.014485051855444908, -0.03340296447277069, -0.17949187755584717, 0.21564354002475739, 0.04538517817854881, -0.012802913784980774, -0.01359754428267479, 0.10703407227993011, -0.05719470605254173, -0.03721822798252106, -0.0989755243062973, -0.09668036550283432, -0.06223894655704498, 0.11664234101772308, -0.027866914868354797, 0.022325221449136734, -0.1471962183713913, -0.1117827296257019, -0.04810639098286629, 0.05805199593305588, -0.11961779743432999, 0.04555511102080345, -0.0353221669793129, -0.03224378824234009, 0.027809176594018936, -0.023427702486515045, -0.029571495950222015, 0.22779221832752228, -0.14587776362895966, 0.09980121999979019, -0.059166088700294495, 0.07783837616443634, -0.05594591796398163, 0.06333113461732864, 0.25912168622016907, 0.08586928993463516, -0.11516551673412323, 0.18157126009464264, -0.14065535366535187, -0.04667843133211136, -0.006059165112674236, 0.006780385971069336, 0.20297645032405853, 0.05090676248073578, -0.16247951984405518, -0.046889543533325195, -0.0366903692483902, -0.14490529894828796, 0.1233488991856575, 0.006497718393802643, -0.1443672776222229, -0.24893152713775635, -0.009704776108264923, -0.04611312225461006, 0.19353345036506653, 0.21715080738067627, -0.10818800330162048, 0.06258419156074524, -0.12363817542791367, -0.10683567076921463, 0.10057836025953293, -0.05782968923449516, 0.053965985774993896, 0.14336524903774261, 0.00837770476937294, 0.06839977204799652, -0.04425841197371483, 0.18846747279167175, -0.0676589161157608, 0.05070442706346512, 0.13947859406471252, 0.004464779980480671, -0.08523380011320114, -0.06687230616807938, -0.000840980326756835, 0.007496616803109646, -0.2154628187417984, 0.04838727414608002, 0.09311166405677795, 0.0010909652337431908, 0.050223056226968765, 0.11353077739477158, 0.26501041650772095, -0.11290021985769272, -0.22951841354370117, -0.23224496841430664, -0.03995127230882645, -0.22574718296527863, -0.017285645008087158, -0.22062334418296814, -0.29957208037376404, 0.03761374577879906, 0.030005905777215958, -0.00839995313435793, -0.015429472550749779, 0.008810617960989475, 0.03880362957715988, -0.1495487242937088, -0.13745015859603882, 0.07581279426813126, -0.10121660679578781, -0.02072618156671524, -0.10825876891613007, 0.18098211288452148, 0.01620306447148323, 0.05623406544327736, -0.027523789554834366, -0.04722847789525986, 0.010590717196464539, 0.004357821773737669, 0.02765551768243313, -0.07895071059465408, -0.07260702550411224, -0.006391116417944431, -0.10693396627902985, -0.028101373463869095, 0.08135037124156952, 0.0994342491030693, 0.22243835031986237, -0.054285723716020584, -0.07812327891588211, -0.07507474720478058, -0.08072318136692047, 0.09251341968774796, 0.11391930282115936, 0.08026725798845291, 0.12478899210691452, -0.018798941746354103, 0.003084934316575527, -0.11341641843318939, -0.13636158406734467, 0.005854906514286995, 0.006234094500541687, -0.07453715056180954, 0.11571978032588959, 0.08901888132095337, -0.06933805346488953, -0.10651259124279022, -0.2335941344499588, -0.022967349737882614, 0.1713637113571167, -0.1209074929356575, -0.015357687138020992, -0.05994412302970886, -0.18467341363430023, 0.0993712916970253, 0.12941031157970428, 0.1743071973323822, 0.0629379153251648, -0.03608047589659691, -0.10406727343797684, 0.07880990952253342, 0.05963480472564697, 0.049843668937683105, 0.008669314906001091, 0.1110568642616272, 0.07090707123279572, -0.12733973562717438, 0.12170851975679398, 0.023742230609059334, 0.22458161413669586, 0.06415127217769623, -0.018924333155155182, -0.060555942356586456, 0.15695157647132874, 0.12993642687797546, -0.021085225045681, -0.060599587857723236, 0.0015497198328375816, 0.15058839321136475, -0.011657077819108963, 0.1315685659646988, 0.040448565036058426, -0.07209362834692001, 0.08670324832201004, 0.17753851413726807, 0.27912381291389465, -0.06500892341136932, 0.05789577588438988, -0.05439339205622673, -0.048855993896722794, 0.07981741428375244, 0.08804284036159515, -0.11682816594839096, -0.047668710350990295, -0.09005896002054214, 0.15694749355316162, 0.036749422550201416, 0.07837168127298355, 0.11843641102313995, -0.034794799983501434, 0.0975571721792221, 0.13417641818523407, 0.09529239684343338, 0.04692472144961357, 0.06533751636743546, 0.12654158473014832, -0.13674111664295197, 0.012264568358659744, -0.1868503838777542, -0.11838334053754807, -0.2533738613128662, 0.07953575998544693, 0.1123943105340004, -0.023898528888821602, 0.13517999649047852, 0.14048776030540466, -0.0024607833474874496, 0.1718224138021469, 0.07322941720485687, 0.03555581718683243, 0.1274566352367401, -0.229349747300148, -0.060241810977458954, 0.15072207152843475, -0.054161638021469116, 0.03258468583226204, -0.1305505484342575, -0.08002380281686783, -0.2111550271511078, 0.09473959356546402, -0.01330537162721157, 0.024074969813227654, -0.00901867263019085, -0.054771121591329575, -0.045368023216724396, 0.0015491684898734093, 0.004661611281335354, -0.12894709408283234, 0.16811203956604004, 0.19995535910129547, -0.2746637165546417, -0.08565245568752289, -0.08681152015924454, -0.08077013492584229, -0.1275722086429596, 0.03770364820957184, 0.13992513716220856, -0.1910729855298996, 0.0649811401963234, 0.22943763434886932, -0.0876198410987854, 0.012262892909348011, -0.06025676801800728, 0.1240154281258583, 0.0775725468993187, 0.009548136964440346, 0.020044798031449318, 0.051708873361349106, -0.09816695004701614, 0.07042684406042099, 0.27152204513549805, -0.02151487208902836, 0.014154837466776371, 0.13055436313152313, 0.029031118378043175, -0.12224464863538742, 0.05488169193267822, 0.055780958384275436, 0.023121003061532974, 0.031815897673368454, 0.0784531831741333, 0.0039589316584169865, -0.022599076852202415, -0.16629233956336975, 0.03800176456570625, 0.09848037362098694, -0.028497707098722458, 0.11552201211452484, 0.11312059313058853, 0.2878730893135071, -0.1089857965707779, -0.20044459402561188, -0.23424257338047028, 0.03311613202095032, 0.013931117951869965, -0.06560609489679337, -0.02446274273097515, -0.07546594738960266, 0.024292901158332825, 0.04306657612323761, 0.011205079033970833, -0.12508243322372437, 0.01196338701993227, -0.10919098556041718, -0.05080355331301689, 0.09048955887556076, -0.12308505177497864, 0.017649583518505096, 0.10116586089134216, 0.07070494443178177, 0.15933379530906677, -0.033383794128894806, 0.19112420082092285, 0.06476879119873047, 0.16152332723140717, 0.11007462441921234, -0.03789928928017616, -0.006011500023305416, -0.04600720480084419, 0.23985464870929718, 0.06308817118406296, 0.017913280054926872, -0.12043170630931854, 0.05603132024407387, 0.14623315632343292, 0.21245962381362915, 0.10114606469869614, -0.043647512793540955, 0.04552474990487099, -0.13188989460468292, 0.0854291170835495, -0.013194523751735687, -0.05268634110689163, -0.13168272376060486, 0.006776989437639713, 0.0283382348716259, -0.19409796595573425, -0.19342398643493652, -0.1227932944893837, 0.0907263234257698, -0.0551324337720871, -0.007259450852870941, -0.07612348347902298, -0.2611604630947113, 0.1639644354581833, 0.023801535367965698, -0.2238190770149231, -0.09299971908330917, 0.08652005344629288, 0.021841904148459435, -0.05595779791474342, 0.0355583131313324, -0.19167889654636383, -0.15354348719120026, 0.008208558894693851, -0.047832686454057693, 0.09101039916276932, -0.04260793700814247, 0.08938916027545929, 0.04745572805404663, -0.028039680793881416, 0.12299838662147522, 0.003743933979421854, -0.10216405987739563, -0.10721737891435623, -0.085282102227211, -0.068555548787117, 0.04288500174880028, -0.06961427628993988, -0.06895127147436142, -0.1646224856376648, -0.048371873795986176, 0.08618147671222687, -0.01847280003130436, 0.09358001500368118, 0.15339146554470062, 0.16450436413288116, -0.15435592830181122, 0.027595199644565582, 0.3166937828063965, 0.11602779477834702, 0.030355744063854218, 0.21116133034229279, -0.13697315752506256, -0.10957873612642288, 0.06694692373275757, -0.23692665994167328, -0.08976677805185318, -0.0828540250658989, 0.027462460100650787, 0.023540671914815903, 0.03596208989620209, -0.07687599956989288, 0.04618984833359718, 0.12444189190864563, -0.08324908465147018, -0.07263664901256561, 0.08657708764076233, -0.06598568707704544, 0.007110158447176218, -0.013643248938024044, 0.08341538161039352, -0.11907205730676651, 0.009024728089571, 0.040497273206710815, -0.10028624534606934, -0.06115978583693504, 0.004964214749634266, 0.19338415563106537, -0.09728958457708359, 0.21941916644573212, 0.13516806066036224, -0.049739088863134384, 0.000668092630803585, -0.0413663312792778, 0.0755300521850586, -0.0030697286128997803, -0.06031215190887451, -0.021933697164058685, -0.06071820855140686, 0.21338295936584473, -0.04404865577816963, -0.0027303844690322876, 0.002875794656574726, -0.011598286218941212, 0.03038613125681877, -0.12178321927785873, 0.11545538157224655, -0.09906367212533951, -0.13997602462768555, 0.21679362654685974, -0.1547745317220688, 0.11570171266794205, -0.16165655851364136, 0.01786648854613304, -0.009425416588783264, 0.09013688564300537, -0.05919177830219269, -0.024349665269255638, -0.15445032715797424, 0.3073497712612152, -0.15906329452991486, -0.15125808119773865, -0.13751578330993652, 0.02590487338602543, -0.05249166116118431, 0.08939512073993683, 0.051588382571935654, -0.14027875661849976, -0.10531783849000931, -0.11125646531581879, -0.15813994407653809, 0.14377336204051971, 0.09863695502281189, -0.0503830686211586, -0.04328085109591484, -0.18002943694591522, 0.028880175203084946, -0.03539096191525459, -0.020758017897605896, 0.04725334420800209, -0.04005127400159836, 0.13936839997768402, -0.14292803406715393, -0.031057024374604225, 0.1716756820678711, -0.0015160534530878067, 0.08511675894260406, 0.11890940368175507, -0.08306591212749481, -0.22112655639648438, 0.0275864414870739, 0.1411401480436325, -0.09672236442565918, -0.05700531229376793, 0.20995290577411652, 0.11001774668693542, -0.05535674840211868, 0.02115454524755478, -0.11880767345428467, -0.08559823781251907, -0.14875292778015137, -0.012309666723012924, 0.150085911154747, -0.03096865862607956, -0.11234475672245026, 0.3599459230899811, -0.14784494042396545, -0.1620682328939438, 0.148573637008667, -0.05937160924077034, 0.04074863716959953, -0.08589136600494385, -0.06629306077957153, -0.2045806497335434, -0.028077900409698486, -0.29677528142929077, 0.010853962041437626, -0.031650811433792114, -0.044202350080013275, -0.05570117384195328, -0.1521771252155304, -0.07980146259069443, 0.09531573206186295, -0.0002884063869714737, -0.1783224642276764, 0.08920226246118546, 0.12585215270519257, -0.08219859004020691, -0.07454381883144379, 0.07712885737419128, -0.04518534243106842, 0.04109201580286026, -0.14216580986976624, 0.1176585778594017, -0.04363526031374931, 0.15578292310237885, 0.0008610757067799568, -0.1828746497631073, -0.06586876511573792, 0.05857273191213608, 0.07396992295980453, 0.06157076731324196, 0.09815007448196411, 0.07946780323982239, 0.05127907916903496, -0.10677918791770935, -0.06705229729413986, -0.015453685075044632, 0.127574622631073, -0.047890014946460724, 0.044526875019073486, -0.06462451070547104, -0.11220000684261322, 0.046465568244457245, 0.04232038930058479, 0.0123282540589571, 0.0610925629734993, -0.16931603848934174, -0.06799441576004028, -0.13044658303260803, -0.06993597000837326, -0.10355407744646072, -0.017626795917749405, 0.008836201392114162, 0.07376550883054733, -0.1501920074224472, -0.03094903565943241, -0.020103398710489273, 0.15171746909618378, -0.13241522014141083, 0.10734033584594727, -0.06570684909820557, -0.08676644414663315, -0.033919427543878555, -0.018793346360325813, -0.07546735554933548, 0.17945918440818787, -0.0900578424334526, -0.2540000081062317, -0.0980553850531578, 0.057330790907144547, -0.1485176682472229, 0.018025841563940048, -0.18200471997261047, -0.08108041435480118, -0.010866338387131691, -0.008990391157567501, 0.14394325017929077, -0.01733715832233429, -0.006625198759138584, -0.02661138027906418, -0.0016098627820611, -0.02991603873670101, 0.04563644528388977, 0.10802491754293442, 0.09459587186574936, -0.01500574592500925, 0.018261851742863655, -0.05990426614880562, 0.0014586891047656536, 0.1053726077079773, 0.11656301468610764, -0.3191642761230469, 0.05505583435297012, -0.045493222773075104, 0.1464080959558487, 0.09397862106561661, 0.10299233347177505, -0.09970187395811081, -0.10368777811527252, -0.11252191662788391, 0.006657257676124573, 0.23586253821849823, -0.004803629592061043, -0.09703044593334198, -0.1006796583533287, -0.030098076909780502, -0.15940742194652557, 0.0023415060713887215, -0.06260524690151215, -0.00937020406126976, -0.05651205778121948, -0.08873657137155533, 0.0461895726621151, -0.19886115193367004, -0.02003127709031105, -0.12269587814807892, -0.15595994889736176, -0.1048034131526947, -0.06542345881462097, -0.03250071033835411, -0.06810835748910904, -0.06557869911193848, 0.004061441868543625, -0.04061725735664368, -0.15719281136989594, 0.0049070557579398155, -0.020863033831119537, -0.13658666610717773, -0.2658194601535797, 0.13138122856616974, -0.05242220684885979, -0.2519998550415039, 0.07571480423212051, 0.014784956350922585, -0.11801911890506744, 0.120479054749012, 0.12717165052890778, 0.01089177094399929, 0.20239704847335815, 0.04256955161690712, -0.11807417869567871, -0.05580216646194458, 0.2239157259464264, -0.11033762246370316, -0.2559731602668762, 0.06631603091955185, -0.015437621623277664, -0.11039092391729355, -0.02869579941034317, 0.005984385032206774, 0.0797489657998085, 0.08705776184797287, -0.0979664996266365, 0.012823193334043026, 0.006101992912590504, 0.00019978097407147288, -0.07367249578237534, -0.227208212018013, -0.08389014005661011, -0.06756404042243958, -0.2378326952457428, -0.2815319001674652, -0.12171079218387604, -0.021001193672418594, 0.038208842277526855, -0.025632943958044052, 0.08953823894262314, -0.11363713443279266, -0.14935500919818878, -0.052900396287441254, -0.0592917762696743, -0.2242915779352188, 0.003441425273194909, -0.23208515346050262, -0.06949642300605774, -0.09184560924768448, -0.03892241418361664, -0.00590327475219965, -0.16361193358898163, -0.0008689676178619266, 0.19566068053245544, -0.10096929222345352, -0.0911337286233902, 0.02745227701961994, 0.04780673608183861, 0.16152314841747284, -0.1403515636920929, -0.06289792060852051, 0.022720571607351303, -0.04471813887357712, -0.06009655073285103, -0.12435123324394226, -0.048170700669288635, 0.10858317464590073, -0.11820480227470398, 0.0994105264544487, -0.004909083712846041, -0.10153069347143173, -0.002188317943364382, 0.12297012656927109, 0.039032675325870514, 0.10981892794370651, -0.03199392184615135, -0.10640614479780197, -0.2355004847049713, 0.17643798887729645, 0.05175957456231117, 0.0486893355846405, 0.09125049412250519, -0.11024848371744156, -0.02435130998492241, 0.03126315027475357, 0.11136073619127274, -0.07690048217773438, -0.0376441664993763, 0.20953653752803802, 0.07855544239282608, 0.07229770720005035, 0.02402922324836254, -0.0017447983846068382, 0.001910060178488493, 0.23338356614112854, -0.13384146988391876, -0.07384049147367477, 0.1204768568277359, 0.025536177679896355, -0.0992661863565445, 0.20498338341712952, 0.06604347378015518, -0.21985553205013275, -0.09932927787303925, 0.03047003597021103, -0.06229211390018463, 0.07851628959178925, 0.020685425028204918, -0.12619639933109283, -0.06478818506002426, -0.046292271465063095, 0.09513167291879654, -0.1021539717912674, 0.07360632717609406, -0.09540338814258575, 0.011232515797019005, 0.0008485561702400446, 0.17004023492336273, -0.1168232336640358, -0.04484988749027252, 0.03765219449996948, -0.13653208315372467, -0.011975092813372612, -0.12708957493305206, 0.10572639107704163, -0.2035907655954361, -0.14693722128868103, 0.03445596992969513, -0.03166615590453148, 0.07726508378982544, -0.09598689526319504, 0.06547880172729492, 0.046559009701013565, -0.13617300987243652, 0.08339954167604446, -0.2072022408246994, 0.194069504737854, -0.0034043556079268456, 0.035165414214134216, -0.024894654750823975, -0.05413153022527695, -0.07273039221763611, 0.3206976652145386, -0.028202835470438004, -0.1007760539650917, 0.10150174796581268, -0.15266549587249756, 0.07861776649951935, -0.13391929864883423, -0.013320608995854855, -0.06998614966869354, -0.11998717486858368, -0.12097474932670593, 0.11612747609615326, -0.05696898698806763, 0.09571295976638794, -0.17465391755104065, -0.10742910951375961, 0.03452092781662941, -0.07637881487607956, -0.02858632430434227, -0.006329553667455912, 0.09773844480514526, -0.05688609927892685, 0.04749664291739464, 0.195315420627594, 0.07104349136352539, -0.13860557973384857, -0.19294403493404388, -0.06422435492277145, -0.024957258254289627, -0.08470232784748077, -0.037315238267183304, -0.10709747672080994, 0.009720578789710999, 0.001589316874742508, 0.30414101481437683, 0.1382843405008316, -0.047627583146095276, 0.18099947273731232, 0.0857371985912323, 0.06186967343091965, -0.15619327127933502, -0.054630134254693985, 0.13231606781482697, -0.11219188570976257, -0.15137317776679993, -0.1589983105659485, -0.01312747411429882, -0.10180220007896423, 0.1974020004272461, 0.06739050149917603, 0.021396063268184662, -0.0056429579854011536, 0.00558322062715888, 0.018488075584173203, 0.015901051461696625, -0.04058538377285004, -0.14292272925376892, 0.07024045288562775, 0.09198936820030212, 0.17166242003440857, 0.04654869809746742, 0.03826531767845154, -0.010914779268205166, -0.15761323273181915, 0.04097289592027664, 0.034921884536743164, -0.12032054364681244, -0.037357114255428314, 0.31770339608192444, -0.13282707333564758, 0.1153959408402443, -0.023739123716950417, -0.14869853854179382, -0.043230146169662476, 0.060765571892261505, 0.01895240880548954, -0.07848583161830902, -0.08562175929546356, -0.024972863495349884, 0.07315339148044586, 0.07751736789941788, -0.06103380024433136, -0.08146388083696365, 0.10934899002313614, 0.18640798330307007, -0.060023024678230286, 0.1897537261247635, -0.013264674693346024, -0.033515654504299164, 0.10200842469930649, -0.11877486109733582, 0.1803033947944641, -0.07207660377025604, 0.32591426372528076, 0.08412553369998932, -0.008698828518390656, 0.05242759734392166, 0.08784656971693039, 0.013713435269892216, -0.22616969048976898, -0.1716172844171524, 0.04787755385041237, -0.2597125768661499, 0.05784451961517334, -0.0074038878083229065, 0.14814259111881256, 0.02983909659087658, -0.030036183074116707, 0.005448909010738134, -0.0677715390920639, 0.005917418748140335, -0.07111980020999908, -0.05444909259676933, 0.08131024241447449, -0.14681315422058105, -0.03125665709376335, -0.044082194566726685, 0.11829298734664917, 0.13512414693832397, -0.0563846193253994, -0.0021155786234885454, -0.10407816618680954, -0.039893005043268204, 0.04886975884437561, -0.008576319552958012, 0.07556112110614777, -0.05100347474217415, 0.09377554059028625, 0.04784385859966278, -0.05174444988369942, -0.08624517172574997, -0.17656180262565613, 0.08133382350206375, -0.044029418379068375, -0.37735792994499207, 0.1106383353471756, 0.012942719273269176, 0.05315018072724342, -0.02526084892451763, 0.07243838906288147, 0.06245436891913414, 0.17871221899986267, 0.06758663803339005, -0.046283189207315445, -0.04278188943862915, 0.2042306363582611, -0.08832720667123795, 0.0918843150138855, -0.057920582592487335, 0.07251958549022675, 0.13067227602005005, -0.0784267783164978, -0.2494633048772812, 0.29106661677360535, -0.08553098887205124, -0.040551211684942245, 0.15194450318813324, 0.03145725280046463, -0.0517277754843235, -0.05219027027487755, -0.14598694443702698, 0.0018762149848043919, -0.010536232963204384, -0.042264096438884735, -0.21020326018333435, -0.023944025859236717, 0.17317292094230652, 0.03358015790581703, -0.1743634194135666, -0.1038350909948349, 0.11531411111354828, 0.03151920065283775, 0.10201485455036163, 0.25247183442115784, -0.00569746270775795, 0.07760419696569443, -0.029911762103438377, -0.09512420743703842, -0.08571673929691315, 0.04779534414410591, 0.06235641986131668, 0.031009918078780174, -0.0861847996711731, 0.035831015557050705, 0.040551796555519104, 0.04444784298539162, 0.026028325781226158, -0.01140368077903986, -0.014239151030778885, 0.1738426387310028, 0.05357200279831886, -0.03828496113419533, 0.01816774718463421, -0.09247349947690964, 0.12845608592033386, 0.0416092686355114, 0.18364247679710388, 0.1317376047372818, -0.00024369123275391757, 0.21796660125255585, -0.1928577423095703, -0.05676588788628578, 0.08402644097805023, 0.08237297832965851, -0.02661457657814026, -0.06829250603914261, -0.011730281636118889, -0.1093001589179039, 0.016625307500362396, 0.04547226056456566, -0.04193229228258133, 0.131835475564003, -0.021463114768266678, -0.04737183451652527, 0.10537152737379074, -0.001291852444410324, 0.13099293410778046, 0.03703657165169716, -0.05076292157173157, 0.10865336656570435, -0.026846354827284813, 0.24895553290843964, -0.023672306910157204, -0.14688360691070557, 0.01807248406112194, 0.14862442016601562, 0.005739351734519005, -0.05734044685959816, -0.11550523340702057, 0.1453065723180771, 0.08958639949560165, -0.018233681097626686, -0.022029438987374306, 0.10360200703144073, 0.024588568136096, -0.14552591741085052, -0.0511016845703125, 0.030364105477929115, 0.09148082882165909, 0.00915808230638504, 0.011641250923275948, 0.02516357973217964, -0.12572482228279114, -0.049573905766010284, -0.06822431087493896, -0.0878872200846672, 0.1288301944732666, -0.24390140175819397, 0.04604350030422211, 0.11632579565048218, -0.03299768269062042, -0.09993697702884674, -0.22400547564029694, -0.16343888640403748, -0.08020484447479248, -0.17112456262111664, -0.05083543807268143, -0.013909079134464264, 0.08083543181419373, 0.15188539028167725, -0.05125751346349716, 0.2232428342103958, -0.04512737691402435, 0.07080759108066559, -0.14219340682029724, -0.12338761985301971, -0.05440046638250351, -0.2366277426481247, 0.0895061269402504, 0.05143898352980614, -0.26906341314315796, 0.17208243906497955, 0.13439448177814484, -0.12374094873666763, -0.048726391047239304, -0.07216120511293411, 0.21623843908309937, -0.03653871268033981, 0.07372196018695831, -0.14639241993427277, 0.11392790079116821, 0.02383226901292801, -0.04308728501200676, -0.09574667364358902, -0.00517255999147892, 0.17990927398204803, 0.11111308634281158, -0.0359688475728035, -0.16166111826896667, 0.08956966549158096, 0.10635538399219513, 0.007392929866909981, -0.17414559423923492, -0.0206042118370533, 0.012458061799407005, 0.13677477836608887, 0.0345788300037384, 0.09634728729724884, 0.16337160766124725, 0.031572990119457245, -0.05919699743390083, -0.09485749900341034, -0.05266386643052101, -0.007225207984447479, 0.09448936581611633, 0.10347110033035278, 0.18665891885757446, 0.11269170790910721, -0.12554438412189484, -0.09600424021482468, 0.339836061000824, 0.14422006905078888, 0.004320801235735416, 0.09471287578344345, -0.07573564350605011, -0.12804880738258362, -0.08440158516168594, 0.006398309953510761, 0.1613921821117401, 0.05257323756814003, 0.0939573347568512, 0.24038664996623993, -0.1362069547176361, 0.0662732943892479, 0.06054781377315521, 0.052907902747392654, 0.03691640496253967, -0.019129827618598938, 0.04518841207027435, 0.13447168469429016, -0.060200683772563934, -0.045796144753694534, -0.006202468648552895, 0.029479170218110085, 0.02120235562324524, 0.024942602962255478, -0.023474710062146187, -0.03543601185083389, 0.124118372797966, -0.10209567099809647, -0.12733948230743408, -0.06644348055124283, 0.03979703411459923, -0.2911887764930725, -0.013066126964986324, -0.07871703058481216, 0.2522256374359131, -0.034805361181497574, -0.09815102815628052, -0.12952622771263123, -0.049700602889060974, -0.1035044938325882, -0.013025699183344841, 0.01302960142493248, 0.15976998209953308, 0.050327420234680176, 0.08668515831232071, 0.2703704237937927, -0.0463704839348793, 0.05525405332446098, 0.021876990795135498, 0.10182991623878479, -0.08154387772083282, -0.13996119797229767, 0.14021986722946167, 0.08649062365293503, 0.23448967933654785, 0.0551704466342926, 0.22694769501686096, 0.12160646915435791, -0.07543148100376129, 0.08626195788383484, 0.042915888130664825, -0.00949530303478241, -0.08329067379236221, -0.06563592702150345, -0.017716797068715096, 0.032398521900177, -0.009605791419744492, 0.07975273579359055, 0.07639584690332413, -0.12444572150707245, -0.09506983309984207, 0.020362602546811104, -0.03676014393568039, 0.2553742229938507, 0.18256467580795288, 0.044105831533670425, -0.18075594305992126, -0.005833358969539404, -0.09190015494823456, -0.0434526652097702, -0.09560444951057434, 0.06541269272565842, 0.008794242516160011, 0.108305923640728, -0.05465204268693924, -0.012510191649198532, -0.005267109256237745, -0.13410384953022003, 0.23120257258415222, 0.02776247449219227, -0.023292792961001396, -0.33017703890800476, 0.13554537296295166, -0.1439233422279358, -0.014345786534249783, -0.006912464741617441, 0.07625588774681091, 0.04521733894944191, -0.030310824513435364, 0.14683499932289124, 0.10693015158176422, -0.1912943720817566, -0.08079447597265244, -0.052115920931100845, 0.09409600496292114, -0.011960458941757679, 0.02019205130636692, 0.00971237849444151, -0.10855493694543839, 0.12405174970626831, -0.2623111605644226, 0.010764879174530506, -0.15069206058979034, 0.08752769231796265, -0.1570127010345459, 0.054820332676172256, 0.03468086197972298, 0.051884882152080536, 0.07632513344287872, 0.06205696612596512, 0.01899992674589157, 0.050789300352334976, -0.0044875480234622955, 0.1864607185125351, -0.1389736831188202, 0.0004029293777421117, -0.039502959698438644, 0.1695639193058014};

const float lstm_cell_bias[4 * HUNIT] = {0.08590500056743622, 0.23688477277755737, 0.17917898297309875, 0.0844486802816391, 0.20205837488174438, 0.11233910918235779, 0.2545572817325592, 0.14399224519729614, 0.13189849257469177, 0.06620458513498306, 0.16978341341018677, 0.09609852731227875, 0.14829961955547333, 0.20943187177181244, 0.08568497002124786, 0.16317489743232727, 0.0838005468249321, 0.09509990364313126, 0.1555897742509842, 0.11667240411043167, 1.0, 1.0, 1.0, 1.0, 1.0, 1.0, 1.0, 1.0, 1.0, 1.0, 1.0, 1.0, 1.0, 1.0, 1.0, 1.0, 1.0, 1.0, 1.0, 1.0, -0.17107999324798584, -0.15194904804229736, 0.1459532231092453, 0.17702163755893707, 0.14636953175067902, 0.15856540203094482, 0.1481986790895462, -0.13479624688625336, -0.1757139414548874, 0.15666502714157104, 0.13726146519184113, -0.1642419546842575, -0.14478304982185364, 0.140323206782341, 0.15547023713588715, -0.15588782727718353, 0.16709885001182556, 0.1489425003528595, -0.15840475261211395, 0.17631474137306213, 0.07891132682561874, 0.22337108850479126, 0.28606274724006653, 0.07261543720960617, 0.2589189112186432, 0.13525046408176422, 0.2613661289215088, 0.1436835378408432, 0.12371307611465454, 0.07055476307868958, 0.1686367392539978, 0.10111120343208313, 0.1438581347465515, 0.2337583750486374, 0.08159376680850983, 0.15953953564167023, 0.07903829216957092, 0.0969797670841217, 0.15210330486297607, 0.10459111630916595};

float lstm_cell_hidden_layer[HUNIT] = {-0.20747783780097961, -0.0922318696975708, -0.03420334309339523, 0.10648564994335175, -0.22373251616954803, 0.16348348557949066, 0.020160632207989693, -0.12246261537075043, -0.2864665985107422, 0.18706750869750977, 0.09600182622671127, -0.06292179226875305, -0.03634584695100784, 0.006431260146200657, 0.21586763858795166, -0.02554910257458687, 0.23842233419418335, 0.09729806333780289, -0.06662265211343765, 0.24815917015075684};
float lstm_cell_cell_states[HUNIT] = {-0.41356295347213745, -0.14702171087265015, -0.05384010821580887, 0.22677837312221527, -0.3592073321342468, 0.31951960921287537, 0.033680785447359085, -0.22560527920722961, -0.6699215173721313, 0.3816624879837036, 0.16793766617774963, -0.12341034412384033, -0.06678665429353714, 0.009648515842854977, 0.42321497201919556, -0.045457176864147186, 0.5170977711677551, 0.1749744564294815, -0.12535570561885834, 0.562324047088623};

const float dense_weights[HUNIT] = {-0.49890953302383423, -0.5164918303489685, 0.6053060293197632, 0.5567178130149841, 0.9564985632896423, 0.531735360622406, 0.7344966530799866, -0.3655678331851959, -0.16621342301368713, 0.3097924292087555, 0.5850146412849426, -0.27780452370643616, -0.5948924422264099, 0.8438771963119507, 0.22450436651706696, -0.2351759672164917, 0.34248632192611694, 0.40248823165893555, -0.5908967852592468, 0.15926125645637512};
const float dense_bias[HUNIT] = 0.1526842564344406};
