//
// Generated by spiderweak using Python.
//

#ifndef CPP_PARAMETERS_H
#define CPP_PARAMETERS_H

#define HUNIT 7

#endif //CPP_PARAMETERS_H

const int hunit = HUNIT;

const float lstm_cell_input_weights[4 * HUNIT] = {-0.4215332865715027, -0.2571982443332672, -0.31584081053733826, -0.26813194155693054, 0.07990358769893646, 0.04093111306428909, -0.2725081741809845, -0.09296298027038574, -0.16671612858772278, -0.34242457151412964, -0.16987693309783936, -0.1336970031261444, 0.10749161243438721, -0.2987430691719055, -0.18172302842140198, -0.20417732000350952, -0.22876232862472534, 0.04590388387441635, -0.26221516728401184, 0.3657965362071991, -0.06960301846265793, -0.5371764898300171, 0.09515828639268875, -0.7184442281723022, 0.06460414081811905, -0.1465398520231247, -0.763643205165863, 0.23088949918746948};

const float lstm_cell_hidden_weights[4 * HUNIT * HUNIT] = {-0.011015534400939941, 0.3837755024433136, -0.12898819148540497, -0.2998421788215637, 0.2105334997177124, -0.1251763254404068, -0.06150629743933678, -0.1292785108089447, -0.064022958278656, 0.13615348935127258, -0.07457822561264038, -0.18280692398548126, 0.07894845306873322, -0.23217742145061493, 0.09767813980579376, 0.22562530636787415, 0.17394018173217773, 0.044560179114341736, -0.14525206387043, 0.26087892055511475, 0.36136212944984436, -0.10028776526451111, 0.14453600347042084, 0.051843006163835526, 0.26236027479171753, 0.24505166709423065, -0.19808441400527954, -0.1721116602420807, -0.09519919008016586, -0.048183735460042953, 0.005622929893434048, 0.16781765222549438, -0.1663391888141632, -0.3595768213272095, -0.33218914270401, 0.07681635022163391, 0.19113433361053467, 0.2792666256427765, -0.1462583690881729, 0.18525920808315277, -0.05459122732281685, 0.11413509398698807, -0.06914585083723068, 0.21939776837825775, -0.27079132199287415, 0.06823767721652985, -0.05281268060207367, -0.08834196627140045, 0.20585747063159943, 0.14635717868804932, 0.32511231303215027, -0.21956902742385864, -0.15988855063915253, 0.3106081485748291, 0.10983603447675705, 0.0875123143196106, -0.22107461094856262, -0.17169129848480225, 0.23713095486164093, 0.129048690199852, 0.10632074624300003, 0.11744184792041779, -0.3979337215423584, -0.42760658264160156, -0.17106463015079498, 0.009200943633913994, -0.2751010060310364, -0.21109363436698914, -0.015873463824391365, -0.12524570524692535, 0.014031701721251011, -0.18244673311710358, 0.08691545575857162, 0.04686552658677101, 0.20361393690109253, -0.1725461483001709, 0.21664020419120789, 0.09741413593292236, 0.20048639178276062, 0.12956982851028442, -0.014237187802791595, -0.2751598060131073, 0.04108839109539986, -0.10707955062389374, -0.2495334893465042, 0.09035805612802505, 0.21424002945423126, -0.06746473908424377, -0.29824647307395935, -0.21294377744197845, -0.27588844299316406, -0.23480035364627838, -0.2159501612186432, -0.07488679140806198, 0.14251390099525452, 0.024389103055000305, 0.03572973608970642, 0.06502094864845276, 0.16649971902370453, -0.1278652846813202, 0.13881345093250275, -0.07519891858100891, -0.39277249574661255, 0.038359999656677246, -0.3074767589569092, 0.08576121926307678, -0.29820147156715393, -0.06759542226791382, 0.0789879709482193, 0.22921200096607208, 0.1645594835281372, -0.1701166033744812, 0.018737228587269783, -0.07789517194032669, -0.08906146138906479, 0.04004574194550514, -0.2243044376373291, -0.06194207817316055, 0.3979537785053253, -0.21586072444915771, -0.12095323950052261, 0.022373739629983902, 0.032283321022987366, 0.19910749793052673, -0.06872141361236572, 0.0355226956307888, 0.06232404708862305, -0.1323806196451187, 0.02034628950059414, -0.4157823920249939, -0.13306176662445068, -0.17632770538330078, 0.5345280766487122, 0.18151378631591797, -0.09119101613759995, -0.17271094024181366, -0.07557903230190277, -0.07427908480167389, -0.14856913685798645, -0.17182262241840363, -0.1310427337884903, -0.13065648078918457, 0.16893839836120605, 0.0818367749452591, -0.06139494478702545, 0.38450750708580017, -0.0760524719953537, 0.04410505294799805, 0.09069674462080002, -0.2970196604728699, 0.12492064386606216, 0.23365160822868347, -0.13991010189056396, -0.14652059972286224, 0.07517378032207489, 0.4408799409866333, 0.13356459140777588, 0.11742395162582397, 0.033100858330726624, -0.012809764593839645, 0.3543778359889984, -0.03364119678735733, -0.2347099334001541, 0.004771473351866007, 0.17044541239738464, 0.15597154200077057, 0.2910730838775635, 0.10316905379295349, 0.14947892725467682, -0.01119011640548706, 0.1330745369195938, 0.05892082303762436, 0.19156914949417114, 0.06702149659395218, 0.1679450124502182, -0.1375238597393036, -0.26775923371315, 0.3790467381477356, 0.2186443954706192, 0.0743878111243248, 0.4495874047279358, 0.19968418776988983, 0.2438739389181137, 0.18780912458896637, -0.08100412786006927, 0.3113798201084137, 0.16551870107650757, -0.1123521625995636, 0.02273574098944664, 0.017931321635842323, -0.10247419029474258, -0.1076488196849823, -0.11283174902200699, 0.015564285218715668, 0.18756935000419617, -0.21899700164794922};

const float lstm_cell_bias[4 * HUNIT] = {0.3304932713508606, 0.03215493634343147, 0.1370297223329544, 0.12770338356494904, 0.37974444031715393, 0.11531674116849899, 0.12252671271562576, 1.0, 1.0, 1.0, 1.0, 1.0, 1.0, 1.0, 0.2812666893005371, -0.238298237323761, -0.33529040217399597, -0.21241213381290436, 0.23420768976211548, 0.32841694355010986, 0.19536270201206207, 0.3193812668323517, 0.06166847422719002, 0.09230856597423553, 0.16137942671775818, 0.3529793918132782, 0.023589881137013435, 0.17593054473400116};

static float lstm_cell_hidden_layer[HUNIT] = {0.2980492413043976, 0.0006184772937558591, -0.24893982708454132, -0.1027546226978302, 0.16854101419448853, 0.36140698194503784, 0.3685588836669922};
static float lstm_cell_cell_states[HUNIT] = {0.6619996428489685, 0.0012419905979186296, -0.6631631851196289, -0.18363848328590393, 0.28304338455200195, 1.1533302068710327, 0.8152347803115845};

const float dense_weights[HUNIT] = {0.9174368381500244, -0.3289785087108612, -0.3767634928226471, -0.4253699779510498, 0.4219478666782379, 0.7672379016876221, 0.5299575328826904};
const float dense_bias = 0.19246806204319;
