//
// Generated by spiderweak using Python.
//

#ifndef CPP_PARAMETERS_H
#define CPP_PARAMETERS_H

#define HUNIT 8

#endif //CPP_PARAMETERS_H

const int hunit = HUNIT;

const float lstm_cell_input_weights[4 * HUNIT] = {0.9276224374771118, 0.4430496096611023, 0.11705081164836884, 0.10998766869306564, -0.3589339852333069, -0.2672836482524872, 0.0845426693558693, 0.06283915042877197, -0.04088360071182251, -0.4070979654788971, 0.008936077356338501, 0.019346803426742554, -0.09831702709197998, 0.2396782636642456, 0.18452388048171997, 0.27679598331451416, 0.5591950416564941, -0.13271430134773254, -0.3187654912471771, -0.02844974771142006, -0.054037906229496, 0.047090474516153336, 0.1045827642083168, 0.03818073496222496, 0.6876173615455627, 0.41494303941726685, 0.39274927973747253, 0.40711843967437744, -0.31375136971473694, -0.1883959323167801, 0.27111712098121643, 0.1815539300441742};

const float lstm_cell_hidden_weights[4 * HUNIT * HUNIT] = {-0.32425153255462646, -0.15214644372463226, 0.14864636957645416, -0.23297792673110962, -0.023250624537467957, -0.2760971188545227, -0.11538857966661453, -0.037566639482975006, 0.11475024372339249, -0.20215831696987152, 0.053730614483356476, -0.08364614099264145, 0.2216436117887497, 0.17415829002857208, -0.12240894138813019, 0.04659506678581238, -0.05368805676698685, 0.020343011245131493, -0.2439238280057907, -0.22927813231945038, 0.0240042544901371, -0.17108163237571716, -0.22998780012130737, -0.004595008213073015, 0.12817494571208954, 0.23093034327030182, -0.12979985773563385, -0.38288286328315735, 0.023268932476639748, 0.009248673915863037, -0.21512024104595184, -0.2551037073135376, 0.0060675316490232944, -0.08696331828832626, 0.05783993378281593, 0.14289601147174835, -0.215995192527771, -0.04982506111264229, 0.23197558522224426, 0.17994281649589539, -0.080865278840065, -0.18753212690353394, 0.2389252483844757, -0.06005091220140457, 0.252839595079422, -0.0004594899364747107, 0.13313625752925873, -0.04322284832596779, 0.43742209672927856, -0.11817041784524918, -0.014538059011101723, -0.057313136756420135, -0.3539329767227173, -0.19664718210697174, 0.14706404507160187, 0.052508026361465454, -0.17472520470619202, 0.023968957364559174, 0.08312202244997025, -0.02371375635266304, 0.0491361990571022, -0.3083612620830536, 0.2891104221343994, -0.1749400496482849, 0.16538552939891815, 0.19014133512973785, 0.03411058336496353, -0.40088897943496704, -0.1596873551607132, 0.25209924578666687, -0.14837411046028137, -0.11829961836338043, -0.09388486295938492, -0.14158624410629272, -0.08214004337787628, 0.13160233199596405, 0.09961431473493576, 0.06488582491874695, 0.29582899808883667, 0.30750858783721924, 0.13665951788425446, 0.06946808844804764, 0.11634232848882675, -0.3639678955078125, 0.12495255470275879, 0.1660630851984024, -0.1835630089044571, 0.04610903561115265, -0.15644590556621552, -0.14789840579032898, 0.24413996934890747, 0.012497417628765106, 0.11515630036592484, -0.13752400875091553, -0.0926533117890358, -0.07091119885444641, 0.031444087624549866, 0.11505039781332016, -0.24542565643787384, -0.008391250856220722, -0.002152631990611553, -0.24248696863651276, -0.30229833722114563, 0.04225887358188629, -0.25629091262817383, -0.17752419412136078, 0.03573295474052429, -0.05191571265459061, 0.21388837695121765, -0.12637722492218018, -0.09247639030218124, 0.2560703754425049, 0.1443491131067276, -0.19020570814609528, 0.18393968045711517, 0.14026452600955963, 0.05885851010680199, 0.12432534247636795, 0.2141125351190567, -0.03164288401603699, -0.1696186065673828, 0.11863573640584946, -0.3466893434524536, 0.001524273306131363, 0.3555119037628174, 0.25680890679359436, -0.04771877080202103, 0.05033857747912407, -0.15489336848258972, 0.1089637279510498, 0.056685686111450195, -0.1297142654657364, 0.20319947600364685, 0.03945671766996384, 0.1148686558008194, -0.07711660116910934, -0.2390090674161911, -0.09775087982416153, -0.2806171774864197, 0.02459818869829178, -0.10515176504850388, -0.2615308165550232, -0.0807986930012703, -0.08754996955394745, 0.2078523188829422, 0.03789373114705086, -0.06727103888988495, -0.004409661516547203, -0.0893637165427208, 0.13226395845413208, 0.007460813969373703, -0.6410385370254517, 0.175745889544487, 0.07776413857936859, 0.1635279506444931, -0.10125347971916199, 0.07707907259464264, 0.062137946486473083, 0.21109963953495026, -0.16877520084381104, 0.03612259030342102, 0.06392137706279755, 0.21007700264453888, -0.017848026007413864, 0.12321675568819046, -0.01614338718354702, -0.012459351681172848, 0.11494208872318268, -0.0521513856947422, 0.48082396388053894, -0.13224872946739197, -0.08275274187326431, 0.3404003381729126, 0.040898628532886505, 0.0498117096722126, 0.17398375272750854, -0.04824741929769516, 0.2607826590538025, -0.019778897985816002, 0.05139698088169098, 0.15230917930603027, 0.1264238804578781, 0.35743141174316406, 0.05079029127955437, -0.10478220134973526, 0.21882875263690948, 0.009337282739579678, 0.054217785596847534, -0.1764107346534729, -0.021280331537127495, 0.05350480228662491, -0.41663870215415955, 0.006331602111458778, 0.11621040105819702, -0.03973345458507538, -0.10593873262405396, 0.13076061010360718, 0.01310874056071043, 0.45282402634620667, 0.003324176650494337, -0.020486770197749138, 0.31009411811828613, 0.004060246981680393, -0.171354278922081, 0.20187529921531677, 0.02143646590411663, -0.4274897575378418, -0.004610792268067598, 0.07060769200325012, -0.008281608112156391, -0.010900145396590233, -0.08746848255395889, -0.04896087571978569, 0.15704266726970673, -0.06510792672634125, 0.15264427661895752, -0.017742477357387543, -0.2975296378135681, 0.05879008397459984, -0.21897348761558533, 0.3874795734882355, -0.062296122312545776, -0.13405756652355194, 0.14739175140857697, 0.03134772926568985, -0.21774813532829285, -0.13972075283527374, 0.019914407283067703, 0.1442648321390152, 0.02409924753010273, -0.12642045319080353, -0.015505693852901459, -0.07989538460969925, 0.013775674626231194, 0.0856587141752243, -0.0867101177573204, -0.0418635830283165, -0.3970320224761963, -0.23841413855552673, 0.41815274953842163, -0.014036871492862701, 0.1788514256477356, 0.14278170466423035, -0.19040566682815552, -0.14683152735233307, -0.3473767340183258, 0.08519963175058365, -0.04794381931424141, 0.046231746673583984, -0.3504209518432617, -0.012633057311177254, -0.05431403964757919, -0.3082660138607025, -0.06147671490907669, -0.10080644488334656, -0.06273212283849716};

const float lstm_cell_bias[4 * HUNIT] = {0.5887837409973145, 0.3067857325077057, 0.3720448911190033, 0.2630232572555542, 0.316658079624176, 0.2886248230934143, 0.28419673442840576, 0.31700533628463745, 1.0, 1.0, 1.0, 1.0, 1.0, 1.0, 1.0, 1.0, -0.17573198676109314, 0.22425322234630585, 0.20211297273635864, -0.2417261302471161, 0.32977521419525146, -0.2647078335285187, -0.230073019862175, -0.3084658980369568, 0.6080684661865234, 0.3035210967063904, 0.38640016317367554, 0.28618091344833374, 0.3201044201850891, 0.2941291034221649, 0.2992510497570038, 0.3256414830684662};

static float lstm_cell_hidden_layer[HUNIT] = {0.13768871128559113, 0.05976798012852669, -0.14079555869102478, -0.24055823683738708, 0.2089584320783615, -0.31540438532829285, -0.45607325434684753, -0.4078880250453949};
static float lstm_cell_cell_states[HUNIT] = {0.1891089230775833, 0.08862616121768951, -0.22198571264743805, -0.41069769859313965, 0.41907501220703125, -0.6420860290527344, -0.9043427109718323, -0.8289334774017334};

const float dense_weights[HUNIT] = {-0.6620091795921326, 0.40654635429382324, 0.678078830242157, -0.4246201813220978, 0.4114053547382355, -0.9453700184822083, -0.5946877598762512, -0.32056552171707153};
const float dense_bias = 0.21641744673252106;
