//
// Generated by spiderweak using Python.
//

#ifndef CPP_PARAMETERS_H
#define CPP_PARAMETERS_H

#define HUNIT 20

#endif //CPP_PARAMETERS_H

const int hunit = HUNIT;

const float lstm_cell_input_weights[4 * HUNIT] = {0.4263168275356293, 0.14344210922718048, -0.26830384135246277, 0.15612590312957764, 0.10344669222831726, 0.12369520217180252, 0.2006624937057495, -0.27203357219696045, 0.24359768629074097, 0.057963497936725616, -0.2012055516242981, -0.05532211810350418, 0.18995589017868042, -0.14993537962436676, -0.09499935805797577, -0.011389023624360561, -0.07353479415178299, -0.11025254428386688, 0.32218220829963684, 0.07801342010498047, -0.2284245491027832, -0.10526883602142334, 0.07062840461730957, -0.10984185338020325, -0.11475320160388947, 0.24446427822113037, -0.1798904538154602, -0.19823810458183289, 0.015217393636703491, 0.10349559783935547, -0.1688888669013977, -0.07016177475452423, -0.038891807198524475, -0.15389883518218994, -0.19666311144828796, 0.24213439226150513, 0.2456642985343933, 0.1575929820537567, -0.24226850271224976, -0.22698336839675903, 0.2336283028125763, -0.235824316740036, -0.026298442855477333, -0.1196843683719635, 0.030840473249554634, -0.10159514099359512, -0.17787478864192963, -0.11188001185655594, 0.029258903115987778, -0.09389454126358032, -0.021186452358961105, -0.1991034895181656, -0.1781611293554306, -0.04283928498625755, -0.2647235691547394, 0.15259867906570435, -0.10079971700906754, -0.019827425479888916, 0.30462366342544556, 0.1998552829027176, -0.035949960350990295, 0.07269275933504105, -0.21628333628177643, -0.1046130433678627, 0.12154792994260788, 0.18394793570041656, -0.209239661693573, 0.1626587063074112, -0.26981663703918457, -0.10138845443725586, -0.1411428153514862, -0.06780409067869186, -0.09732502698898315, 0.22780121862888336, -0.32269924879074097, 0.03633519262075424, 0.1451633721590042, -0.15534724295139313, 0.2182132452726364, 0.1326393485069275};

const float lstm_cell_hidden_weights[4 * HUNIT * HUNIT] = {0.04046976566314697, -0.21207550168037415, -0.011520748026669025, 0.10616154223680496, 0.05818821117281914, -0.07098160684108734, -0.19409823417663574, -0.030997026711702347, 0.018965182825922966, -0.11574481427669525, 0.11861106008291245, 0.047336071729660034, -0.010913422331213951, 0.07998910546302795, -0.016310466453433037, 0.03720880672335625, -0.13479073345661163, 0.1907987892627716, 0.09858138859272003, -0.09580528736114502, 0.10324759781360626, 0.005880898796021938, -0.06059127300977707, -0.035254668444395065, -0.08502344787120819, 0.06478504091501236, -0.07231476157903671, -0.0028426158241927624, 0.002747391117736697, -0.07588563859462738, -0.02582097239792347, -0.026369910687208176, 0.0900503396987915, 0.04799438267946243, 0.11734623461961746, 0.03015509620308876, -0.06491291522979736, 0.13888315856456757, 0.010278649628162384, 0.0120133301243186, -0.21750693023204803, -0.11234463006258011, 0.0984119325876236, 0.028545739129185677, -0.1042608693242073, -0.1907881200313568, 0.15067246556282043, 0.1527353823184967, 0.14193399250507355, 0.11906885355710983, -0.11300911754369736, 0.018387779593467712, 0.024036303162574768, 0.13107027113437653, 0.13546887040138245, 0.32319962978363037, 0.012810938991606236, -0.06519005447626114, 0.13749878108501434, 0.00550887081772089, 0.17976467311382294, -0.13705745339393616, -0.14027270674705505, 0.05285924673080444, -0.0023887930437922478, 0.08506059646606445, 0.016423743218183517, -0.07289725542068481, -0.16840553283691406, -0.07523893564939499, 0.26644665002822876, -0.060431767255067825, 0.09158586710691452, 0.1169620007276535, 0.05478765442967415, -0.0650499016046524, 0.029951514676213264, 0.1546037793159485, 0.18628084659576416, -0.18982096016407013, 0.1318759024143219, 0.07829053699970245, -0.04233754426240921, -0.042998358607292175, 0.09941011667251587, -0.09482748061418533, -0.01571916602551937, -0.0510014146566391, -0.24186106026172638, -0.0691864863038063, -0.03305283933877945, -0.14590856432914734, 0.06451057642698288, 0.1023249477148056, 0.004772503860294819, 0.2039053589105606, -0.0914548709988594, -0.24129559099674225, 0.07584919035434723, 0.009911644272506237, -0.1382923722267151, -0.130446657538414, 0.08376072347164154, -0.08578765392303467, -0.08573469519615173, 0.05369625240564346, 0.17650364339351654, -0.23565834760665894, 0.14729896187782288, -0.024222705513238907, -0.02191103622317314, 0.10995393991470337, 0.04207019880414009, -0.014034628868103027, 0.12966014444828033, -0.12373090535402298, -0.05038075894117355, 0.19214196503162384, -0.1956607699394226, 0.023550480604171753, 0.17792299389839172, -0.1163259968161583, -0.031459130346775055, -0.007702430710196495, 0.04986441135406494, -0.11265493929386139, 0.0268000029027462, 0.15843401849269867, 0.07855776697397232, -0.09971768409013748, 0.00958020705729723, -0.02096479944884777, -0.044057149440050125, -0.05683901906013489, -0.06789148598909378, -0.0020437091588974, 0.13189563155174255, 0.016988471150398254, 0.17482756078243256, 0.2180257886648178, -0.038941122591495514, -0.22790580987930298, -0.1534348726272583, -0.04488382861018181, -0.11762463301420212, 0.11507131159305573, -0.058467064052820206, 0.0735594630241394, 0.08086072653532028, -0.07657358050346375, 0.08694154024124146, -0.0390632227063179, -0.015567068010568619, -0.02809460088610649, -0.05685599893331528, 0.009733738377690315, 0.07456617802381516, -0.1286441534757614, -0.10973890125751495, 0.2402801513671875, 0.07014402747154236, 0.12466191500425339, 0.04286510497331619, -0.06474477052688599, 0.08041097223758698, -0.0032925130799412727, -0.05241149663925171, -0.021273184567689896, 0.024357231333851814, -0.00674698781222105, 0.026628009974956512, -0.010961076244711876, -0.03434334322810173, 0.005036561284214258, 0.09126655012369156, -0.11440709978342056, 0.13159240782260895, -0.06588443368673325, 0.010108446702361107, -0.20120234787464142, 0.04569675773382187, 0.08064562827348709, 0.05524718016386032, 0.36482951045036316, 0.0425264835357666, 0.06099523976445198, 0.09378598630428314, -3.628496779128909e-05, 0.09480676800012589, -0.19526953995227814, -0.019220132380723953, 0.015550467185676098, 0.04600515961647034, 0.09673747420310974, 0.12562531232833862, -0.013702252879738808, 0.027627475559711456, 0.10470841825008392, -0.06730034947395325, 0.0036529386416077614, -0.10390577465295792, 0.045657090842723846, 0.17659224569797516, 0.04891134425997734, -0.04148125275969505, -0.06587885320186615, -0.044934168457984924, 0.13974608480930328, 0.36969783902168274, -0.08872084319591522, 0.06767065823078156, -0.041339270770549774, 0.06961032003164291, -0.12789686024188995, -0.2201823890209198, -0.09104777127504349, 0.012263205833733082, 0.03954877704381943, 0.06177210062742233, -0.10035986453294754, -0.1607765257358551, 0.0399831160902977, 0.04255308583378792, -0.002772749401628971, 0.12908414006233215, 0.0473591610789299, 0.12947195768356323, -0.12910252809524536, -0.014570405706763268, 0.1521792858839035, -0.13464592397212982, 0.10780876874923706, -0.06380787491798401, 0.04614687338471413, -0.05859864875674248, 0.17549586296081543, 0.2799164354801178, -0.026683639734983444, 0.024090783670544624, -0.23174192011356354, 0.03177795931696892, -0.09512029588222504, 0.035555705428123474, -0.10110276192426682, 0.12685909867286682, 0.015931736677885056, 0.0891105979681015, 0.0051314951851964, -0.033227529376745224, 0.0870036780834198, -0.10746879130601883, 0.12086544185876846, -0.2627013921737671, -0.045989640057086945, 0.03744293004274368, 0.028171084821224213, 0.044007573276758194, -0.05032194033265114, -0.1733025461435318, 0.18852579593658447, -0.05074985325336456, 0.22293426096439362, -0.09353232383728027, -0.10016800463199615, -0.02525533363223076, 0.0967584177851677, -0.1095190942287445, -0.10706694424152374, -0.07932526618242264, -0.12194903939962387, 0.06782824546098709, -0.0677444338798523, 0.21241921186447144, -0.20096401870250702, 0.017573801800608635, -0.04153504595160484, 0.26744183897972107, 0.1377655565738678, 0.10286000370979309, -0.2080632746219635, 0.12142810970544815, -0.0831928551197052, -0.08676866441965103, -0.07648498564958572, -0.02391822449862957, 0.02643943391740322, 0.025734782218933105, 0.15024062991142273, 0.042052507400512695, 0.19769220054149628, -0.012145645916461945, 0.13930267095565796, -0.10321011394262314, -0.034697275608778, 0.023070773109793663, 0.08757948130369186, -0.025331884622573853, -0.17100125551223755, -0.10305643081665039, 0.013286118395626545, 0.017042966559529305, -0.0513882115483284, 0.07676107436418533, -0.07612355053424835, -0.209928959608078, -0.055283498018980026, -0.06038733944296837, -0.16443504393100739, 0.026594899594783783, -0.002962281461805105, 0.017483534291386604, 0.08941713720560074, -0.06656831502914429, 0.04233243316411972, -0.0016612097388133407, 0.0479324646294117, 0.14234232902526855, -0.24007150530815125, -0.091236412525177, -0.17964716255664825, -0.10933275520801544, 0.04304582625627518, 0.20163415372371674, 0.17147524654865265, 0.030010290443897247, -0.18229390680789948, -0.08764314651489258, 0.05269688740372658, 0.13861429691314697, -0.11631297320127487, -0.08868532627820969, 0.041219957172870636, 0.034369468688964844, -0.14337091147899628, -0.05609249323606491, -0.0005000783130526543, 0.20025977492332458, -0.08457852900028229, 0.08789344877004623, -0.07839252799749374, -0.06590123474597931, 0.14678369462490082, 0.04274459555745125, -0.05341954156756401, -0.07276669889688492, 0.20041853189468384, -0.03529612720012665, 0.09089313447475433, 0.03823598846793175, 0.009646979160606861, -0.0009972411207854748, 0.05699579045176506, 0.008864019997417927, 0.04463688284158707, 0.13304342329502106, -0.16026711463928223, 0.008761245757341385, 0.056159891188144684, -0.04857051745057106, 0.14850662648677826, 0.2938663065433502, 0.04413272812962532, 0.1303810179233551, 0.1449086219072342, 0.05947617068886757, 0.22929058969020844, 0.07490584999322891, -0.21033495664596558, 0.006537997163832188, -0.04065407067537308, 0.049661241471767426, 0.08991750329732895, -0.01010084617882967, -0.1449270248413086, 0.10474240779876709, -0.014427891001105309, 0.12317051738500595, -0.05918412655591965, -0.09666583687067032, -0.12411859631538391, 0.10575059801340103, -0.19671981036663055, 0.010935003869235516, -0.056347206234931946, -0.24585756659507751, -0.0011675041168928146, 0.08962449431419373, 0.05849306657910347, -0.1509358435869217, 0.14722637832164764, 0.01498621515929699, 0.06386353820562363, 0.08960092812776566, -0.06528317928314209, 0.006698589771986008, -0.11441340297460556, 0.04434732347726822, 0.04012675583362579, 0.2379223108291626, 0.010572191327810287, 0.12888051569461823, 0.1005733460187912, 0.07215876132249832, 0.1472945362329483, -0.03447486460208893, -0.12367585301399231, -0.06689007580280304, 0.007861275225877762, -0.05612866207957268, 0.10065411776304245, -0.04839891195297241, -0.07337743788957596, -0.12564200162887573, -0.2348030060529709, -0.12410934269428253, -0.016975974664092064, 0.03589552640914917, 0.15035635232925415, 0.0421123243868351, -0.18071779608726501, 0.021832847967743874, -0.1532536894083023, 0.004704990424215794, -0.034000132232904434, -0.039070844650268555, -0.11394425481557846, -0.04304276034235954, -0.10874992609024048, -0.1481371372938156, -0.11230271309614182, -0.044792309403419495, -0.10911758244037628, 0.2040828913450241, 0.12894085049629211, -0.009438677690923214, 0.009038006886839867, -0.022488459944725037, -0.18089745938777924, -0.1422071009874344, -0.041699208319187164, 0.010299937799572945, -0.18257518112659454, -0.11292178183794022, -0.05152524635195732, -0.07554574310779572, -0.023662950843572617, -0.11481642723083496, -0.05974067002534866, 0.15708300471305847, 0.05312449485063553, -0.2938106060028076, -0.09689784049987793, -0.07011739164590836, 0.04132344573736191, -0.07525359839200974, -0.11447712779045105, -0.2318459451198578, -0.20155447721481323, -0.12528587877750397, -0.08384928107261658, 0.039832793176174164, 0.015364209190011024, -0.12931688129901886, 0.019230660051107407, -0.005131101235747337, 0.050610996782779694, -0.16589921712875366, -0.03831719234585762, -0.07001398503780365, 0.021033279597759247, -0.14394038915634155, 0.014445770531892776, 0.04436677694320679, -0.029860440641641617, -0.0383588969707489, 0.007728946395218372, 0.07564830780029297, -0.13347424566745758, 0.1771213710308075, 0.26519668102264404, -0.012962193228304386, -0.08618520200252533, -0.0351032055914402, -0.21411709487438202, -0.22778311371803284, 0.10315844416618347, 0.06661530584096909, 0.06615786254405975, 0.0039924136362969875, 0.10495585948228836, -0.0026303082704544067, 0.045756977051496506, -0.008313963189721107, -0.08234652131795883, -0.05646107345819473, 0.021338902413845062, -0.019007612019777298, -0.055228039622306824, 0.1436956375837326, -0.025821084156632423, -0.1738363802433014, -0.024807892739772797, -0.25795263051986694, 0.11954228579998016, 0.10210602730512619, 0.15470607578754425, -0.05922500416636467, 0.012285895645618439, -0.30674272775650024, -0.1264299601316452, -0.14569143950939178, 0.11419986933469772, 0.11535023152828217, -0.03889056295156479, 0.03384291008114815, -0.10448206961154938, -0.09758372604846954, 0.02766447886824608, -0.018091537058353424, -0.04423642158508301, -0.060122083872556686, -0.1507854461669922, -0.05307205021381378, 0.03859894350171089, 0.12182265520095825, 0.017161600291728973, 0.04076968878507614, 0.0007718728156760335, 0.04940732568502426, -0.1696900874376297, 0.21294382214546204, 0.13784795999526978, 0.1343964785337448, -0.0033538348507136106, -0.024568023160099983, 0.062194593250751495, -0.004204703960567713, 0.15323948860168457, -0.19775861501693726, 0.05540250614285469, 0.0115160271525383, 0.09722999483346939, -0.1834656149148941, 0.30009883642196655, -0.0664980486035347, 0.012039901688694954, -0.0502212829887867, 0.19221918284893036, 0.026677334681153297, 0.041886620223522186, 0.0568433552980423, 0.06280525028705597, 0.03902003541588783, 0.22458606958389282, -0.02961593307554722, -0.07727010548114777, 0.08132734149694443, 0.0007756195263937116, 0.06295596808195114, 0.06723631173372269, -0.019298119470477104, -0.12073682993650436, 0.04745209589600563, 0.023925000801682472, 0.07653214037418365, -0.31676992774009705, 0.20731940865516663, 0.0611148364841938, 0.007874313741922379, 0.14577868580818176, 0.11675553768873215, -0.07428741455078125, 0.17671704292297363, -0.022494526579976082, 0.19822488725185394, 0.016744550317525864, 0.3565996587276459, -0.03417786955833435, 0.05558641999959946, 0.07459006458520889, 0.13103029131889343, -0.12562328577041626, -0.060926735401153564, 0.01158618088811636, -0.008755985647439957, -0.18089613318443298, 0.026847612112760544, 0.04947609826922417, 0.07742799073457718, -0.03661273419857025, -0.036432813853025436, 0.10558627545833588, 0.03470896556973457, -0.03709449619054794, 0.027240196242928505, -0.20271892845630646, 0.1723187118768692, 0.12987428903579712, 0.03797776997089386, -0.19435909390449524, 0.03482984006404877, 0.1447587013244629, -0.040915023535490036, 0.10762996226549149, -0.07703695446252823, -0.19048471748828888, 0.07999487221240997, -0.06859415769577026, -0.08129075914621353, -0.07051458954811096, -0.10849280655384064, 0.03206564858555794, -0.07679593563079834, 0.07551783323287964, -0.08856870234012604, 0.0617852546274662, -0.22681716084480286, -0.028862301260232925, 0.03506184369325638, -0.044178590178489685, -0.06745689362287521, 0.04558539018034935, -0.08641499280929565, 0.06752309948205948, 0.005791561212390661, -0.07498490810394287, -0.09099823236465454, 0.1130095049738884, 0.10127080231904984, 0.22577758133411407, 0.10104646533727646, -0.12262151390314102, 0.08541302382946014, 0.07247451692819595, 0.024081073701381683, -0.059385284781455994, 0.0054046460427343845, 0.1140574961900711, -0.05768302455544472, -0.032646507024765015, -0.17570830881595612, 0.29421934485435486, 0.04691595211625099, -0.08030498027801514, -0.1518150418996811, 0.006923803128302097, -0.28492334485054016, -0.033657535910606384, -0.28628140687942505, 0.13243180513381958, 0.05149322748184204, 0.13058067858219147, -0.048818714916706085, 0.00033412128686904907, -0.025579247623682022, -0.17029376327991486, -0.016030285507440567, -0.0029047951102256775, 0.012965366244316101, 0.1618674099445343, 0.012691440060734749, -0.23546746373176575, -0.17957699298858643, 0.1299794465303421, -0.06303732842206955, -0.0030753472819924355, -0.06227259337902069, 0.20199380815029144, 0.037706851959228516, 0.10986825823783875, 0.04001441225409508, 0.04847828298807144, -0.0354488268494606, -0.03926429897546768, 0.12753894925117493, 0.133600652217865, 0.21249832212924957, 0.031324684619903564, -0.16365621984004974, -0.013389227911829948, 0.0028420276939868927, 0.15987113118171692, 0.04190482199192047, -0.043660979717969894, 0.027709027752280235, -0.01860402524471283, -0.06067601218819618, 0.11283061653375626, 0.12668876349925995, 0.029109373688697815, -0.00032065436244010925, -0.02140149660408497, 0.07270900160074234, 0.0541207492351532, 0.010136134922504425, 0.08771602809429169, -0.021455679088830948, -0.06152452155947685, 0.026189042255282402, -0.09032059460878372, 0.17516976594924927, -0.12989428639411926, 0.16883301734924316, 0.17340987920761108, -0.1651601493358612, 0.016264189034700394, -0.016194596886634827, 0.04143006354570389, 0.010522151365876198, 0.10708461701869965, 0.0026344656944274902, -0.12074145674705505, 0.11160346120595932, -0.07966112345457077, 0.08056416362524033, -0.010422981344163418, -0.08045694977045059, -0.07531102746725082, -0.12022890150547028, 0.05227988585829735, 0.08102036267518997, 0.002737026661634445, -0.2098744660615921, -0.018623854964971542, -0.1623029112815857, 0.030862946063280106, -0.11325723677873611, -0.05535000562667847, -0.04829025641083717, -0.04940353333950043, -0.0727192610502243, 0.040398720651865005, -0.01901116967201233, 0.014710810035467148, 0.037077970802783966, 0.023839639499783516, 0.09838235378265381, -0.06519529968500137, 0.01180526427924633, -0.09106417000293732, 0.15507730841636658, 0.03778298571705818, 0.08566037565469742, -0.0755457878112793, 0.0695294663310051, -0.01191137358546257, 0.002207780722528696, -0.035888414829969406, -0.12434589117765427, 0.001689322292804718, -0.13356877863407135, 0.011528069153428078, 0.21935060620307922, 0.008859421126544476, -0.07254236936569214, 0.056871891021728516, -0.01889154128730297, 0.12766055762767792, 0.07265130430459976, 0.14614365994930267, 0.009683588519692421, -0.08797471225261688, -0.18939565122127533, 0.15018050372600555, 0.12889404594898224, -0.015105023048818111, 0.04235581308603287, -0.007780900225043297, 0.2088824212551117, 0.07588733732700348, -0.04736727103590965, 0.20860768854618073, 0.14566092193126678, -0.05659928917884827, 0.15794847905635834, -0.1279144436120987, 0.020937521010637283, -0.0906512439250946, 0.06631120294332504, -0.20197845995426178, 0.04141642153263092, 0.04902239888906479, 0.12869633734226227, -0.12575095891952515, 0.1231372058391571, -0.06084078177809715, 0.0708744153380394, 0.02684779092669487, 0.24486355483531952, 0.17588123679161072, 0.1805402785539627, -0.1995321363210678, -0.2162570357322693, -0.19134798645973206, 0.06468865275382996, -0.2051490694284439, 0.038236647844314575, 0.11472556740045547, -0.12805207073688507, 0.07938934862613678, -0.2565826177597046, 0.001504313200712204, -0.04376756772398949, 0.11543957889080048, 0.01824265345931053, 0.11000607162714005, -0.05974910035729408, 0.037164345383644104, -0.16824747622013092, 0.13610605895519257, -0.06385251134634018, -0.08817586302757263, 0.07531138509511948, -0.08092740178108215, -0.023524537682533264, 0.26292625069618225, -0.13505510985851288, 0.13918496668338776, -0.09022719413042068, 0.014882458373904228, 0.16810891032218933, 0.04356619715690613, 0.060633085668087006, 0.11036475747823715, 0.06205274909734726, -0.08552442491054535, -0.01986626908183098, -0.06787871569395065, 0.00013189757009968162, -0.11984705179929733, 0.032448556274175644, 0.1287689208984375, 0.11600834131240845, 0.0368339866399765, -0.06233062595129013, 0.05514082312583923, -0.07259339094161987, 0.14086654782295227, 0.3248743414878845, -0.08184584975242615, 0.1477145403623581, 0.16539734601974487, 0.027063297107815742, 0.016957761719822884, 0.014981851913034916, -0.013096235692501068, 0.032944172620773315, -0.0910346731543541, 0.06171974539756775, 0.09025252610445023, 0.11536632478237152, -0.07665863633155823, 0.009596867486834526, 0.13263143599033356, -0.10613569617271423, -0.12226007878780365, -0.03307587280869484, 0.07771193236112595, 0.08414241671562195, -0.11572041362524033, -0.07911749184131622, -0.2856582999229431, 0.09062045812606812, 0.1742250919342041, -0.10485018044710159, -0.13084784150123596, -0.016195276752114296, 0.005294151604175568, -0.04559193551540375, -0.16005845367908478, -0.08528613299131393, -0.026715202257037163, -0.16146841645240784, 0.14729882776737213, -0.0733494684100151, -0.03561512380838394, 0.09930016100406647, 0.09954752773046494, 0.13861998915672302, 0.12317360937595367, -0.13509532809257507, 0.06118158996105194, -0.1850164383649826, 0.09051782637834549, 0.052660856395959854, 0.0765886977314949, -0.10672552138566971, -0.046298399567604065, -0.024526383727788925, 0.03680039569735527, -0.09184301644563675, -0.08117558062076569, 0.08907783776521683, 0.08127395808696747, 0.1656350940465927, -0.1309431493282318, 0.09846783429384232, -0.16637684404850006, 0.18267551064491272, 0.05209367349743843, 0.0001506209373474121, -0.16601692140102386, 0.11459802091121674, -0.16451279819011688, -0.18110494315624237, 0.08184338361024857, -0.1409466564655304, -0.040159858763217926, 0.08058767020702362, 0.07464835047721863, 0.050214625895023346, -0.06314408779144287, 0.11508044600486755, -0.18033021688461304, -0.00881575234234333, 0.12716852128505707, 0.08042605221271515, -0.15923090279102325, 0.058418773114681244, -0.08842562139034271, 0.0899871215224266, 0.08781183511018753, 0.16524337232112885, 0.08480626344680786, 0.005233047530055046, 0.2647867202758789, -0.012321911752223969, 0.08507860451936722, 0.1731811761856079, 0.013969247229397297, -0.14786194264888763, 0.0840739980340004, 0.048048313707113266, 0.0422370582818985, 0.1674906313419342, 0.11421538889408112, -0.09531544148921967, 0.11416976898908615, -0.12737806141376495, 0.02972228452563286, -0.1611798256635666, 0.06574177742004395, -0.15390348434448242, 0.06575915217399597, 0.14234870672225952, 0.03025616705417633, -0.12062715739011765, 0.06932205706834793, 0.08412910252809525, -0.1746857911348343, 0.005455128848552704, 0.17707742750644684, -0.061126600950956345, 0.03940795361995697, -0.1337488442659378, 0.03649191930890083, 0.15146075189113617, 0.13903573155403137, 0.06718239188194275, -0.031228460371494293, -0.09827455878257751, 0.01614481769502163, -0.011131595820188522, 0.09471985697746277, -0.09063589572906494, 0.2048308402299881, 0.1755453497171402, 0.03749227151274681, -0.19454532861709595, -0.10999389737844467, 0.0254225991666317, -0.0599050410091877, 0.08611609041690826, -0.00029907142743468285, 0.03212445601820946, -0.24665717780590057, 0.04545453190803528, -0.062495872378349304, -0.08495216071605682, -0.1107761561870575, 0.14344105124473572, 0.03248673677444458, -0.014912350103259087, -0.020061183720827103, 0.1563747376203537, 0.008468287996947765, 0.13513131439685822, -0.1303011029958725, -0.018824689090251923, -0.08442960679531097, 0.11295442283153534, -0.06263624131679535, 0.017055220901966095, 0.14265935122966766, -0.20829817652702332, -0.03821214288473129, 0.09374264627695084, -0.03420388698577881, -0.02430206537246704, 0.01120998989790678, -0.07394454628229141, 0.03471658378839493, 0.21262910962104797, 0.12542524933815002, -0.0677936002612114, -0.17457136511802673, -0.09506789594888687, -0.038527872413396835, 0.006460552103817463, -0.045176271349191666, -0.077530637383461, 0.028516052290797234, -0.19588057696819305, -0.08440620452165604, 0.1452290564775467, -0.05151542276144028, 0.0883338451385498, -0.023124221712350845, -0.28660526871681213, -0.029246248304843903, 0.1650998443365097, -0.23416000604629517, -0.17157486081123352, 0.0031811227090656757, -0.06994794309139252, 0.14849059283733368, -0.00334716122597456, 0.14788004755973816, -0.04211405664682388, -0.06485753506422043, 0.0014205574989318848, 0.010779958218336105, -0.11538614332675934, 0.10836270451545715, 0.1574370265007019, -0.0860876739025116, -0.02224273793399334, -0.05498054623603821, -0.21624107658863068, -0.10313181579113007, 0.21358360350131989, -0.008019499480724335, 0.09375454485416412, -0.012208346277475357, -0.028220903128385544, 0.02463981881737709, -0.08572766929864883, -0.0012177331373095512, -0.08377669751644135, 0.14947453141212463, -0.027784058824181557, 0.03824600204825401, -0.006343401037156582, -0.04259985685348511, 0.13021698594093323, -0.03473720699548721, -0.06418409943580627, -0.0458257794380188, -0.07937954366207123, -0.058903053402900696, 0.012485237792134285, 0.08066768944263458, -0.006115550175309181, 0.09623602032661438, 0.18653881549835205, 0.17721842229366302, -0.044395580887794495, -0.051297012716531754, -0.02490614727139473, 0.001995513215661049, -0.17332389950752258, -0.120973601937294, -0.1370965838432312, 0.07016472518444061, 0.008835298009216785, -0.09596240520477295, 0.09000053256750107, 0.035081151872873306, 0.050498947501182556, -0.05375180020928383, -0.02104383520781994, 0.2304411232471466, 0.1324245184659958, 0.0008701621554791927, 0.2514672577381134, -0.07021267712116241, 0.07986177504062653, -0.16655901074409485, -0.004032457247376442, 0.13725432753562927, -0.03955621272325516, 0.23577961325645447, -0.024807006120681763, 0.1745363473892212, -0.02923843450844288, -0.008986309170722961, -0.1804075986146927, 0.22733622789382935, -0.06120685860514641, 0.1180635392665863, -0.008252877742052078, -0.18238948285579681, -0.01146015152335167, -0.10623335093259811, 0.19773338735103607, 0.16635116934776306, -0.11703815311193466, -0.1544368863105774, -0.03391765430569649, -0.029165063053369522, 0.13987146317958832, 0.06727543473243713, 0.129022017121315, -0.22903715074062347, -0.1638384461402893, -0.019929463043808937, -0.11761412769556046, -0.08011654019355774, 0.0513710156083107, 0.10710613429546356, -0.026897858828306198, 0.051657576113939285, 0.01896003820002079, 0.03228425234556198, 0.019675586372613907, -0.17312678694725037, -0.200541153550148, -0.022682812064886093, 0.045932620763778687, -0.24435296654701233, -0.09943630546331406, -0.012074969708919525, 0.17408841848373413, 0.015331978909671307, -0.12002827227115631, 0.20320099592208862, 0.040506791323423386, -0.041253119707107544, -0.0005204256158322096, -0.002215433167293668, 0.05948365107178688, 0.14551304280757904, 0.1432688981294632, 0.015394298359751701, 0.13347968459129333, -0.09810088574886322, -0.16615472733974457, 0.10059801489114761, -0.15934763848781586, -0.07121602445840836, 0.05180668830871582, -0.028881236910820007, 0.06115993857383728, -0.0374736450612545, -0.18726494908332825, -0.014110620133578777, 0.27073153853416443, 0.06837049126625061, -0.04773072525858879, -0.14047954976558685, -0.3240160346031189, 0.15680579841136932, -0.16011759638786316, -0.047813091427087784, 0.06442025303840637, 0.08037417382001877, -0.13716073334217072, -0.055412255227565765, 0.09401310980319977, -0.2671716809272766, 0.02468816004693508, -0.08619595319032669, -0.052338555455207825, -0.06519456207752228, -0.027337515726685524, 0.20748543739318848, 0.05128898471593857, 0.09533008933067322, -0.02205478772521019, 0.14234548807144165, 0.060073550790548325, -0.015455689281225204, 0.08396293967962265, -0.08127423375844955, -0.045813627541065216, 0.10710307210683823, -0.07849699258804321, -0.026369132101535797, 0.0968327671289444, -0.023970017209649086, 0.013039845041930676, 0.15183566510677338, -0.03366183489561081, 0.043506916612386703, 0.12019302695989609, 0.04813354089856148, 0.00907445140182972, 0.014973045326769352, 0.020420264452695847, 0.15663400292396545, -0.11533457785844803, 0.18221232295036316, 0.024482540786266327, 0.09670112282037735, -0.20221969485282898, -0.1612357646226883, 0.0352051816880703, -0.23874081671237946, -0.003653857856988907, -0.08546843379735947, -0.013452558778226376, -0.0874602273106575, 0.09915891289710999, -0.004110288806259632, 0.03080357052385807, -0.2661422789096832, -0.02561485953629017, 0.06261800229549408, -0.10815069079399109, 0.17686276137828827, 0.1789398342370987, 0.1637725830078125, -0.01994103193283081, -0.015057726763188839, -0.03015207126736641, 0.043080784380435944, -0.06592223048210144, 0.05327476188540459, -0.1161688044667244, 0.0037279585376381874, -0.07178141921758652, 0.27025020122528076, 0.10059184581041336, 0.0802345797419548, -0.06771792471408844, 0.009547922760248184, -0.1844988614320755, 0.03158934414386749, 0.0022139595821499825, -0.19793571531772614, 0.1259700357913971, 0.00204542838037014, -0.21552948653697968, 0.008244816213846207, 0.005406554788351059, -0.06840705871582031, 0.15365228056907654, 0.008049080148339272, 0.03428403660655022, 0.13327862322330475, -0.10115689784288406, -0.03813410922884941, 0.07578864693641663, 0.09202929586172104, 0.08324770629405975, -0.07645031064748764, 0.22759447991847992, 0.1253184676170349, 0.03609023243188858, 0.20969274640083313, -0.10133212804794312, 0.0772019550204277, -0.10926959663629532, -0.08305244147777557, 0.0053003099747002125, 0.20638629794120789, 0.013071483932435513, -0.02603251114487648, -0.0010909494012594223, 0.048687681555747986, -0.14147868752479553, -0.03356502577662468, 0.13808035850524902, 0.011179936118423939, -0.023007726296782494, 0.07033704966306686, 0.023740604519844055, -0.10952219367027283, 0.05653464049100876, -0.11781007051467896, 0.04918794333934784, -0.07492750138044357, 0.06757114082574844, -0.0740751177072525, 0.09359855949878693, -0.04921329766511917, -0.03572194278240204, 0.09814200550317764, -0.08418608456850052, -0.029215240851044655, -0.04426766186952591, 0.015376858413219452, -0.08673924207687378, 0.16764433681964874, -0.06172362342476845, -0.04700856655836105, -4.2490195482969284e-05, 0.0662449449300766, -0.08918340504169464, 0.050533052533864975, 0.18818439543247223, -0.020434709265828133, -0.047963470220565796, -0.03455457091331482, 0.03858073800802231, -0.12573307752609253, -0.08030145615339279, 0.08336354792118073, 0.011746369302272797, 0.011608033441007137, -0.2537524700164795, 0.1491772085428238, 0.056725434958934784, 0.02354074828326702, -0.06354258209466934, -0.013829282484948635, 0.1394830197095871, -0.12777668237686157, -0.03524807468056679, 0.30490174889564514, 0.09251999109983444, 0.14224041998386383, 0.009457651525735855, -0.18102753162384033, -0.0802139863371849, 0.05826264247298241, 0.10141811519861221, 0.046970710158348083, -0.1343904733657837, -0.0305483378469944, -0.005366350524127483, 0.22807146608829498, 0.2814808487892151, -0.1359826773405075, -0.15736186504364014, 0.12435543537139893, 0.03974460810422897, -0.1083797737956047, 0.0009696595370769501, 0.060405198484659195, -0.02511276677250862, -0.13688050210475922, -0.33359116315841675, 0.006149036809802055, 0.08431729674339294, 0.012819594703614712, -0.02960110642015934, -0.13285930454730988, -0.059695206582546234, 0.011799825355410576, -0.26512062549591064, 0.06604254990816116, -0.15918183326721191, 0.040937457233667374, 0.06338082998991013, -0.0746971070766449, 0.04334799572825432, 0.08680085837841034, -0.0672890692949295, 0.05367112532258034, -0.08114293217658997, -0.15263614058494568, -0.03338785469532013, -0.29024454951286316, -0.06687305122613907, -0.07573768496513367, 0.04403703287243843, 0.1789495050907135, -0.03888631612062454, 0.020894493907690048, 0.0837164968252182, 0.03282959759235382, 0.08870690315961838, -0.08111102133989334, -0.006792169995605946, -0.14082886278629303, -0.1888609081506729, 0.013757044449448586, 0.18001902103424072, -0.0841820165514946, 0.0778920128941536, 0.17839279770851135, 0.12280214577913284, -0.09143621474504471, -0.21016934514045715, 0.02069222182035446, 0.163554385304451, -0.13516244292259216, 0.09872078150510788, -0.01611771062016487, 0.048434846103191376, 0.1531039923429489, -0.08427519351243973, 0.007152508944272995, -0.03828828036785126, 0.107113778591156, 0.07425888627767563, -0.040784478187561035, -0.14192728698253632, -0.04196391999721527, -0.18208065629005432, 0.11229119449853897, -0.13986514508724213, 0.05736330524086952, -0.05945307016372681, 0.135542094707489, 0.22738736867904663, -0.10508545488119125, 0.07858192920684814, 0.11618054658174515, -0.012739717029035091, -0.07435276359319687, 0.05501433089375496, -0.13243447244167328, 0.1186375617980957, -0.12638172507286072, -0.14162833988666534, 0.11697336286306381, -0.012303200550377369, 0.041289087384939194, 0.1493605375289917, -0.024713436141610146, 0.023284588009119034, 0.008547918871045113, -0.11271359026432037, -0.08635642379522324, -0.14874784648418427, -0.1730935126543045, -0.14518918097019196, 0.17920997738838196, 0.015337370336055756, 0.02992057614028454, -0.08689624071121216, 0.06298191100358963, -0.14969268441200256, 0.08716732263565063, 0.046284232288599014, 0.012932888232171535, -0.11124318838119507, 0.11746605485677719, -0.01995662786066532, 0.09640970081090927, -0.027961615473031998, 0.07249338179826736, 0.07451427727937698, 0.0351245179772377, 0.05816468968987465, -0.07707513123750687, -0.0025188347790390253, 0.14107798039913177, -0.05874915048480034, 0.10314889997243881, 0.05717873573303223, 0.0014326380332931876, -0.14538796246051788, -0.08624348789453506, 0.03414371237158775, -0.22500862181186676, 0.08170632272958755, 0.0027318564243614674, 0.03659900650382042, 0.11527176201343536, 0.1781398355960846, 0.1031903475522995, 0.061983395367860794, -0.10131440311670303, -0.05065620690584183, -0.06536786258220673, -0.20986683666706085, -0.1231568232178688, 0.26389944553375244, -0.19016823172569275, 0.10162695497274399, -0.04495685547590256, 0.09603741019964218, -0.17062798142433167, -0.014744319021701813, -0.08121450990438461, -0.16542868316173553, 0.03502148389816284, -0.048926521092653275, 0.10440832376480103, -0.010654982179403305, -0.25803637504577637, 0.13550516963005066, -0.0796736627817154, 0.07437033206224442, 0.14292073249816895, -0.1760033816099167, -0.0028506277594715357, -0.14521147310733795, 0.054098162800073624, 0.06066712737083435, 0.0534161701798439, 0.16046567261219025, -0.15452685952186584, 0.03192763775587082, -0.03370606154203415, 0.1672661304473877, 0.05788798630237579, 0.06234251707792282, -0.05377647280693054, -0.06036440283060074, 0.1514931321144104, -0.03803554177284241, -0.09346301108598709, 0.21202555298805237, -0.0953897014260292, 0.02508886717259884, 0.07484064996242523, -0.017799844965338707, -0.0033561144955456257, 0.03936188295483589, 0.12688414752483368, -0.23712463676929474, -0.06368424743413925, -0.1072988361120224, 0.21349075436592102, 0.004205506294965744, -0.01602688990533352, -0.034961361438035965, 0.055904265493154526, -0.1381993591785431, 0.039825860410928726, -0.17884737253189087, 0.023913659155368805, 0.03310517221689224, -0.17664073407649994, -0.05628672614693642, 0.06749235838651657, 0.12336194515228271, -0.059660766273736954, -0.05267438665032387, 0.06276062875986099, -0.09453067928552628, 0.05029949173331261, -0.08257634937763214, -0.03186134994029999, -0.048456043004989624, 0.16687338054180145, 0.06323418021202087, 0.11200258880853653, 0.030529620125889778, -0.012838039547204971, -0.25077369809150696, 0.16861732304096222, 0.06339862197637558, -0.11031185835599899, -0.1251138597726822, -0.18165019154548645, -0.2093997597694397, -0.2754686176776886, -0.0726805180311203, -0.1004934310913086, 0.19624076783657074, -0.13834518194198608, 0.07313735783100128, 0.10978502780199051, -0.025893056765198708, 0.14647319912910461, 0.0013948073610663414, 0.14237043261528015, 0.0711875632405281, -0.04891844466328621, 0.01477181538939476, 0.006269512698054314, -0.009324884973466396, -0.21805070340633392, -0.0860060527920723, -0.17660921812057495, -0.16139626502990723, -0.2149805873632431, 0.06617458909749985, -0.030782025307416916, 0.004761356860399246, 0.007420339621603489, -0.06045521795749664, 0.008938657119870186, -0.008681208826601505, 0.0749245136976242, -0.06896055489778519, 0.07548030465841293, 0.08694318681955338, -0.03177490085363388, 0.07722905278205872, -0.07176273316144943, -0.17754854261875153, 0.03767528012394905, -0.1462715119123459, -0.0059214504435658455, -0.06361173093318939, -0.13631631433963776, -0.07412757724523544, 0.024174313992261887, 0.23844657838344574, -0.10393599420785904, 0.1632453352212906, 0.01187852956354618, 0.011727282777428627, -0.11048611998558044};

const float lstm_cell_bias[4 * HUNIT] = {0.22922788560390472, 0.05644756183028221, 0.1312311589717865, 0.1595391482114792, 0.10068494826555252, 0.1460975557565689, 0.1904604583978653, 0.07998232543468475, 0.15576396882534027, 0.08906935900449753, 0.12097056210041046, 0.1986064612865448, 0.07123701274394989, 0.09139721840620041, 0.07116476446390152, 0.1699884682893753, 0.0807347446680069, 0.12146088480949402, 0.2406930923461914, 0.203354611992836, 1.0, 1.0, 1.0, 1.0, 1.0, 1.0, 1.0, 1.0, 1.0, 1.0, 1.0, 1.0, 1.0, 1.0, 1.0, 1.0, 1.0, 1.0, 1.0, 1.0, -0.13415594398975372, -0.14435571432113647, -0.16654951870441437, 0.13706134259700775, 0.13226057589054108, 0.12721209228038788, 0.14236727356910706, -0.15312537550926208, -0.147784024477005, -0.1444774568080902, -0.15395934879779816, 0.1499202847480774, -0.1444764882326126, -0.13823334872722626, -0.1693393439054489, -0.1404336839914322, -0.14435124397277832, -0.15094926953315735, -0.12434548139572144, -0.13586612045764923, 0.22586677968502045, 0.05085887759923935, 0.13313546776771545, 0.14953607320785522, 0.10098433494567871, 0.14884372055530548, 0.18099401891231537, 0.09860119968652725, 0.13161805272102356, 0.08085701614618301, 0.12327077984809875, 0.1985061764717102, 0.05643633380532265, 0.10870619863271713, 0.05972054600715637, 0.17166826128959656, 0.08989489823579788, 0.11909444630146027, 0.24083788692951202, 0.20440228283405304};

float lstm_cell_hidden_layer[HUNIT] = {0.03134598582983017, -0.3839738667011261, -0.18242748081684113, 0.09871406108140945, 0.11876595765352249, 0.25825047492980957, -0.015528770163655281, -0.20952153205871582, -0.18294383585453033, -0.0586029477417469, -0.16493633389472961, 0.07639078795909882, -0.2540363073348999, -0.07379617542028427, -0.17653189599514008, -0.07713804394006729, -0.22036296129226685, -0.23661857843399048, -0.1310693770647049, -0.17589451372623444};
float lstm_cell_cell_states[HUNIT] = {0.057247377932071686, -0.8095061182975769, -0.3604618310928345, 0.19448642432689667, 0.220690056681633, 0.5134643912315369, -0.029202312231063843, -0.40713369846343994, -0.38627156615257263, -0.12031339854001999, -0.32958871126174927, 0.13798464834690094, -0.5213935971260071, -0.1397014558315277, -0.3944137692451477, -0.14053720235824585, -0.4484705924987793, -0.5124335289001465, -0.2097046971321106, -0.32976454496383667};

const float dense_weights[HUNIT] = {-0.538907527923584, -0.34273773431777954, -0.19575518369674683, 0.6173774003982544, 0.4988917112350464, 0.5799086093902588, 0.7055017948150635, -0.17564399540424347, -0.2177555412054062, -0.560541033744812, -0.477854460477829, 0.30820515751838684, -0.5400522351264954, -0.5883929133415222, -0.4367462396621704, -0.3515482544898987, -0.1906457543373108, -0.46892738342285156, -0.3082610070705414, -0.6040849685668945};
const float dense_bias = 0.1396874189376831;
