//
// Generated by spiderweak using Python.
//

#ifndef CPP_PARAMETERS_H
#define CPP_PARAMETERS_H

#define HUNIT 20

#endif //CPP_PARAMETERS_H

const int hunit = HUNIT;

const float lstm_cell_input_weights[4 * HUNIT] = {0.3480355441570282, 0.38875630497932434, -0.15045705437660217, -0.14832983911037445, -0.08697009831666946, -0.1455138921737671, 0.38721174001693726, -0.04975006729364395, 0.11425614356994629, -0.05836394801735878, 0.21798504889011383, -0.1401105374097824, 0.2556544244289398, 0.29027998447418213, -0.036706309765577316, 0.24600619077682495, 0.015106214210391045, 0.16154630482196808, -0.047590747475624084, -0.028846830129623413, 0.05923181772232056, -0.03079971671104431, -0.18609978258609772, -0.05109119415283203, 0.17799502611160278, -0.003503173589706421, -0.08795754611492157, -0.20125247538089752, 0.19868481159210205, -0.0840097963809967, -0.06998014450073242, -0.2611224055290222, 0.0572180449962616, 0.18519073724746704, -0.20906293392181396, 0.17132389545440674, 0.1137520968914032, 0.07357844710350037, 0.04227590560913086, -0.1816917210817337, 0.1668996810913086, -0.16274142265319824, -0.06058647111058235, 0.299210786819458, 0.18748751282691956, -0.07530603557825089, 0.2180403620004654, 0.09527017921209335, 0.13222427666187286, -0.14729690551757812, 0.03170252591371536, 0.22014257311820984, -0.1274958997964859, -0.15727728605270386, 0.19350840151309967, -0.14373022317886353, 0.12774182856082916, -0.2832384407520294, -0.24952782690525055, 0.04988839849829674, 0.06904096901416779, -0.013392424210906029, 0.34758371114730835, 0.15353752672672272, -0.04862251877784729, -0.0034125910606235266, 0.208222433924675, -0.06386145204305649, 0.050028394907712936, 0.012838580645620823, 0.03463879972696304, -0.09419393539428711, 0.14214447140693665, 0.35120925307273865, 0.1400138884782791, -0.1313304305076599, -0.016299668699502945, -0.10122406482696533, 0.19441179931163788, 0.018680445849895477};

const float lstm_cell_hidden_weights[4 * HUNIT * HUNIT] = {-0.12808620929718018, -0.22197963297367096, 0.14329519867897034, 0.056544020771980286, -0.02903013490140438, 0.039461228996515274, -0.057737819850444794, -0.006351968739181757, 0.1778068095445633, -0.02922726236283779, -0.25683584809303284, -0.06145899370312691, -0.16856732964515686, 0.15229317545890808, -0.10438532382249832, -0.19667889177799225, -0.03714308142662048, -0.12177827954292297, 0.2074577957391739, -0.08970413357019424, 0.04524767026305199, 0.030293338000774384, 0.03738643601536751, 0.073244109749794, 0.05742986872792244, -0.1455824077129364, -0.1104087233543396, -0.21990014612674713, -0.004221098963171244, -0.2611004710197449, 0.013433250598609447, -0.10161799937486649, -0.02584272250533104, 0.15161260962486267, 0.2806452810764313, -0.04301692545413971, -0.11241905391216278, -0.16377338767051697, -0.010990110225975513, 0.002789239166304469, 0.15822124481201172, 0.04688095301389694, -0.004841728135943413, -0.015466475859284401, 0.029843980446457863, -0.09190043807029724, 0.08892181515693665, 0.13476108014583588, 0.14219845831394196, 0.04092266038060188, 0.030568383634090424, -0.18518023192882538, 0.04538411274552345, 0.10283178091049194, -0.12732377648353577, -0.03431105613708496, -0.07981839030981064, 0.037222567945718765, 0.05791407823562622, -0.0413723886013031, -0.016464948654174805, -0.1771499216556549, 0.09794715791940689, -0.02726111002266407, 0.05616316571831703, -0.06564784795045853, -0.03619871661067009, 0.02923201210796833, 0.11760915815830231, 0.03946975991129875, -0.04776875674724579, -0.10334596037864685, -0.06654691696166992, 0.045626088976860046, 0.0304974764585495, -0.18859808146953583, -0.10083983093500137, 0.09810580313205719, 0.09535026550292969, 0.045518066734075546, -0.1279001235961914, 0.10817955434322357, -0.040667880326509476, 0.08922567963600159, 0.06584322452545166, 0.12712542712688446, 0.06423625349998474, -0.15157994627952576, -0.07739022374153137, 0.10831927508115768, 0.09932831674814224, 0.11637294292449951, -0.0027641523629426956, 0.019995877519249916, 0.07140149176120758, 0.1627139151096344, 0.17428117990493774, -0.2721520662307739, 0.053820233792066574, 0.23579299449920654, -0.042424291372299194, 0.06891293823719025, 0.0264449380338192, -0.256252646446228, -0.13075239956378937, -0.12225561589002609, -0.033659763634204865, 0.06680931895971298, 0.009167279116809368, -0.044574759900569916, -0.027781445533037186, -0.059691496193408966, -0.07275807112455368, -0.049709513783454895, -0.01218336820602417, 0.1363697052001953, -0.006383894477039576, 0.06359995901584625, -0.1531355381011963, -0.17040954530239105, -0.025559037923812866, 0.01878734678030014, -0.006072694901376963, 0.2124084234237671, 0.024717092514038086, -0.27960121631622314, 0.0815829411149025, -0.019034262746572495, 0.1233845204114914, 0.049648452550172806, 0.009471016936004162, -0.029213929548859596, 0.07756568491458893, -0.06377911567687988, -0.11166311800479889, 0.1861608326435089, -0.02314218133687973, -0.11122465878725052, 0.03692053258419037, -0.014017492532730103, 0.09737183898687363, -0.09241735935211182, 0.2822415232658386, -0.1399807333946228, -0.04630438983440399, -0.13721014559268951, 0.1452997922897339, 0.02745170332491398, 0.05172126740217209, -0.10514935851097107, -0.13280045986175537, 0.15354056656360626, -0.11573301255702972, 0.07848890125751495, -0.05743151903152466, -0.05102843418717384, -0.03075787052512169, -0.07711778581142426, -0.09459085017442703, -0.0024572117254137993, 0.14035607874393463, -0.04552160203456879, -0.060176290571689606, -0.0774153470993042, -0.11281314492225647, -0.23412269353866577, -0.0736372321844101, 0.02800961211323738, 0.02498176507651806, 0.16455817222595215, 0.02456594444811344, -0.06879168748855591, 0.06721828132867813, 0.04566939175128937, 0.06398116052150726, -0.026426566764712334, -0.2026546448469162, 0.13356058299541473, 0.03332141414284706, -0.05275977402925491, 0.14534424245357513, 0.08149516582489014, 0.07226692885160446, -0.09918928146362305, -0.07349584996700287, -0.16990387439727783, -0.004084083251655102, 0.08828940987586975, 0.030494192615151405, 0.08856667578220367, -0.09340821206569672, 0.22713427245616913, -0.0067400080151855946, 0.05733383446931839, 0.06555366516113281, -0.15674200654029846, 0.07200632989406586, -0.02241905778646469, 0.15662340819835663, -0.012319295667111874, 0.033604610711336136, 0.07306964695453644, 0.13956648111343384, 0.019715335220098495, 0.05738364905118942, -0.13589954376220703, -0.06283155083656311, 0.07218088209629059, -0.08855603635311127, -0.2077873796224594, -0.07659348100423813, -0.3088776469230652, 0.04311192035675049, 0.0006994158029556274, 0.08720817416906357, 0.025434546172618866, -0.05866947025060654, -0.09365486353635788, 0.019575603306293488, -0.03320947289466858, 0.1502203345298767, -0.08861640095710754, 0.12938353419303894, -0.24293814599514008, 0.09668575972318649, -0.04810834303498268, 0.03072378784418106, -0.1477462649345398, -0.014670340344309807, 0.06030372530221939, 0.030068423599004745, 0.2209690660238266, 0.0213373564183712, -0.0973305031657219, -0.04647429659962654, -0.025799743831157684, 0.0953080803155899, 0.0943627879023552, -0.06304582208395004, -0.3298417329788208, -0.04459765553474426, -0.08297337591648102, -0.30372393131256104, -0.1216033548116684, -0.09715690463781357, 0.06886716187000275, 0.03370441496372223, 0.12897498905658722, 0.0681462436914444, 0.16921156644821167, -0.2561182975769043, -0.02130092866718769, 0.11390762776136398, -0.0370236374437809, -0.035344503819942474, 0.1752118319272995, 0.02870173007249832, 0.045465171337127686, -0.0898391455411911, 0.017202652990818024, -0.09511666744947433, 0.07851458340883255, -0.0981544777750969, 0.07161195576190948, 0.031909793615341187, 0.14553751051425934, -0.15422450006008148, -0.14072206616401672, -0.07384748011827469, 0.04009775072336197, -0.08201078325510025, 0.012801475822925568, -0.08433769643306732, 0.04495840147137642, -0.03982266038656235, -0.03990360349416733, -0.10883164405822754, -0.036150917410850525, -0.08072838187217712, -0.0912431925535202, 0.13819493353366852, -0.049322448670864105, 0.15406200289726257, 0.027395717799663544, -0.046019211411476135, -0.22268174588680267, -0.10633667558431625, -0.06787264347076416, 0.09960170090198517, 0.0564517006278038, 0.03000541403889656, 0.0334465354681015, 0.010032372549176216, 0.10628325492143631, 0.0478251576423645, -0.05771263316273689, 0.19967691600322723, 0.08766380697488785, -0.15546123683452606, -0.03144072741270065, -0.11749832332134247, 0.04346378147602081, -0.059344787150621414, 0.032186027616262436, -0.0028616241179406643, -0.07891827076673508, 0.04361246898770332, 0.06545642018318176, 0.18167443573474884, -0.08686736226081848, 0.07986945658922195, -0.03656221926212311, -0.16254235804080963, -0.1825374960899353, -0.3003302812576294, -0.03681444004178047, 0.2209886610507965, -0.1297360211610794, 0.10978139936923981, -0.12960028648376465, 0.10340653359889984, 0.11179214715957642, 0.017345469444990158, 0.010587583296000957, -0.06659413874149323, 0.20881827175617218, -0.08306083083152771, 0.024059832096099854, 0.01567642018198967, -0.14405277371406555, -0.05437658354640007, -0.07381422817707062, -0.29545989632606506, 0.03056277707219124, -0.01676410809159279, 0.1041424423456192, 0.0032759858295321465, 0.17931072413921356, -0.19385214149951935, 0.22395043075084686, -0.15416193008422852, 0.00022319727577269077, 0.30989110469818115, 0.0823872834444046, 0.09512873739004135, 0.024352047592401505, 0.13803589344024658, 0.12558481097221375, -0.10444438457489014, -0.10466615110635757, -0.11334723979234695, -0.04901067167520523, -0.14207418262958527, -0.09575612843036652, 0.07633893936872482, -0.06399498134851456, 0.19948896765708923, -0.06389522552490234, -0.06649067997932434, 0.05416809394955635, 0.0827389657497406, 0.09835556149482727, 0.08057824522256851, 0.12585720419883728, -0.31825122237205505, 0.05001120641827583, 0.025744974613189697, -0.1020142063498497, 0.026290863752365112, 0.014861876145005226, -0.008469251915812492, -0.14220649003982544, 0.007980534806847572, 0.0484028160572052, 0.07312222570180893, -0.04882340133190155, -0.18423090875148773, -0.050562165677547455, -0.03769431263208389, 0.10945180058479309, -0.12281613051891327, -0.10127069056034088, -0.11311614513397217, -0.10095683485269547, 0.08186831325292587, -0.040393710136413574, 0.10760291665792465, 0.04142482951283455, 0.03486594185233116, 0.010448519140481949, 0.05801485478878021, 0.0898301973938942, 0.007834071293473244, -0.15006579458713531, -0.01299180369824171, -0.0994022935628891, -0.029330864548683167, -0.0040992856957018375, -0.12537764012813568, 0.08156958967447281, -0.03228503093123436, -0.0858328565955162, -0.005228891037404537, -0.02703016996383667, 0.18135853111743927, 0.009802107699215412, -0.1668195277452469, 0.008456490933895111, -0.07126370072364807, -0.03348607197403908, 0.09606048464775085, 0.2635550796985626, 0.21580642461776733, -0.04934737831354141, -0.03047259896993637, 0.039381712675094604, 0.006943627260625362, 0.10758332163095474, -0.011126883327960968, -0.08979271352291107, 0.040234602987766266, -0.12486512213945389, 0.09179025143384933, 0.095311738550663, 0.11060890555381775, -0.12329354137182236, -0.11345355957746506, 0.09798536449670792, -0.11817680299282074, 0.05838492885231972, -0.0008797168848104775, -0.13991358876228333, -0.016537262126803398, -0.18339602649211884, 0.02170063927769661, 0.13432273268699646, 0.2246224582195282, -0.03763456642627716, 0.16907109320163727, 0.03894977644085884, 0.12079543620347977, 0.043787818402051926, -0.11251316219568253, 0.16190649569034576, 0.04301870986819267, -0.2436489760875702, 0.0016001500189304352, 0.252476304769516, -0.14063899219036102, 0.011776155792176723, 0.03437438979744911, -0.03912990912795067, 0.18659915030002594, 0.19814430177211761, 0.07158481329679489, -0.006332930643111467, 0.05913902819156647, 0.007795808371156454, 0.06458567827939987, 0.007117801811546087, 0.0163203664124012, -0.10221714526414871, -0.0312802791595459, 0.09231491386890411, 0.22616411745548248, 0.05424373969435692, -0.03214506804943085, -0.04387202486395836, -0.024642497301101685, -0.04963250458240509, 0.1778116226196289, -0.16246244311332703, -0.16750599443912506, 0.026603003963828087, 0.0490112267434597, -0.010421670973300934, -0.048501159995794296, -0.23097217082977295, -0.019899310544133186, 0.045448675751686096, 0.18982648849487305, -0.03856581822037697, -0.19460274279117584, 0.039811212569475174, 0.02281295135617256, -0.04143497720360756, 0.008813386783003807, 0.1356615424156189, -0.06443308293819427, -0.09803198277950287, -0.16617938876152039, -0.01500131655484438, -0.18266570568084717, 0.03418385982513428, 0.0749242752790451, -0.13859206438064575, -0.08004554361104965, 0.020097946748137474, 0.025097213685512543, -0.01717536151409149, -0.0022044815123081207, -0.10772005468606949, -0.028515826910734177, 0.08337956666946411, -0.06857790052890778, -0.19851310551166534, 0.06066533178091049, 0.15878352522850037, 0.03471125289797783, 0.16858746111392975, 0.1700446456670761, 0.042708441615104675, -0.11713149398565292, -0.21932430565357208, -0.1388539969921112, 0.1288006454706192, -0.07355949282646179, -0.11757300049066544, 0.09463773667812347, 0.03328857198357582, 0.1331690400838852, -0.16721953451633453, -0.10475911945104599, -0.0805189236998558, 0.10212835669517517, -0.07318918406963348, -0.10844127088785172, 0.026438286527991295, 0.1690804362297058, 0.13232988119125366, -0.1351219117641449, -0.015741784125566483, -0.07003045827150345, -0.03560951352119446, -0.03830122575163841, 0.05820951983332634, -0.051167890429496765, 0.05238816887140274, 0.1792333424091339, -0.15672153234481812, -0.15268298983573914, -0.035490669310092926, 0.05919208750128746, -0.1228799968957901, -0.11267077177762985, -0.1188918873667717, -0.0031914440914988518, -0.10826833546161652, 0.14716795086860657, -0.10082991421222687, 0.12086361646652222, 0.17979784309864044, 0.15816202759742737, 0.08452386409044266, -0.09892501682043076, 0.06939686089754105, 0.007049483247101307, -0.1013922244310379, 0.08075999468564987, 0.24633747339248657, -0.008922773413360119, 0.06604526937007904, 0.11532355099916458, 0.02223837375640869, -0.13024938106536865, -0.03232035040855408, 0.11606465280056, 0.10356572270393372, -0.018487023189663887, -0.06957636028528214, -0.04593198373913765, 0.02153986692428589, 0.21390651166439056, -0.026152078062295914, -0.04598956182599068, -0.11417992413043976, -0.042703062295913696, 0.04803597927093506, -0.03439025580883026, -0.018999842926859856, -0.09252854436635971, -0.08232507109642029, -0.15787102282047272, -0.14744143187999725, -0.06229603663086891, -0.08693794161081314, 0.04991549625992775, 0.1472329944372177, -0.2057773619890213, -0.12632226943969727, -0.12737491726875305, -0.055944547057151794, 0.24526166915893555, -0.11904595792293549, -0.012985294684767723, -0.1539839804172516, -0.05081287398934364, 0.03391120210289955, -0.04370244964957237, -0.23685875535011292, -0.02736472338438034, -0.06863181293010712, -0.10559430718421936, 0.0030308414716273546, -0.004136858507990837, 0.06071154773235321, 0.06386328488588333, 0.025879409164190292, 0.12365303188562393, -0.11920100450515747, 0.0321909599006176, -0.08767744898796082, -0.03970946744084358, 0.08154036849737167, 0.04611203819513321, -0.039321109652519226, -0.1285124570131302, -0.12926846742630005, -0.16959704458713531, 0.06736359000205994, -0.014227581210434437, -0.07144797593355179, -0.2016223818063736, -0.09131809324026108, 0.03790628910064697, -0.11029112339019775, 0.11520007252693176, -0.21385544538497925, 0.1657165288925171, -0.12752921879291534, -0.0086373807862401, -0.11206526309251785, -0.11262375116348267, 0.061923280358314514, -0.19746968150138855, 0.24213749170303345, -0.2491588592529297, 0.08778338134288788, 0.12308342754840851, 0.07253808528184891, 0.044767800718545914, -0.006907586008310318, -0.09819480031728745, 0.0834445059299469, 0.24334387481212616, 0.06782492995262146, -0.04551032930612564, 0.11072171479463577, -0.012740055099129677, -0.013811592012643814, 0.04086851701140404, 0.05307479947805405, -0.011348770931363106, -0.2034815400838852, 0.14712585508823395, 0.0104006202891469, -0.08641751855611801, -0.04330488294363022, 0.004187879152595997, 0.13213886320590973, 0.1807997226715088, 0.02709188684821129, -0.07292268425226212, -0.015734918415546417, 0.06845197826623917, -0.25129434466362, -0.02489163912832737, -0.1462719440460205, 0.13788948953151703, -0.05030207335948944, 0.08795587718486786, 0.15848587453365326, 0.042694736272096634, -0.00016012322157621384, -0.13424590229988098, -0.039734404534101486, 0.14157848060131073, 0.0015437542460858822, 0.026264946907758713, 0.08503919839859009, 0.04078665003180504, 0.1973678022623062, 0.022362487390637398, 0.040208376944065094, -0.02569754421710968, 0.18501698970794678, 0.014064176008105278, 0.04979574680328369, -0.04656895995140076, -0.042521849274635315, 0.094334177672863, -0.0234738327562809, -0.03297052159905434, 0.1489129662513733, -0.053469009697437286, -0.11290698498487473, 0.13590970635414124, -0.012928048148751259, -0.051485709846019745, -0.11409959942102432, -0.15432192385196686, 0.2785116732120514, -0.05103735625743866, -0.2609046697616577, 0.06561192125082016, -0.13148508965969086, 0.18356773257255554, 0.052473284304142, -0.008225982077419758, -0.08317999541759491, -0.2870655059814453, -0.180482417345047, -0.0392061322927475, -0.0535229854285717, -0.10511541366577148, -0.12737907469272614, -0.06945641338825226, 0.09942222386598587, 0.04512796550989151, 0.09065896272659302, -0.14319196343421936, 0.04361215978860855, -0.004056256264448166, -0.06181851029396057, 0.08164985477924347, 0.14358624815940857, -0.3912871778011322, -0.06732349842786789, 0.046137548983097076, 0.2169727087020874, -0.08158223330974579, -0.06254447251558304, -0.09885485470294952, 0.03972449153661728, -0.06106739863753319, 0.01040344126522541, -0.08788038045167923, -0.09727192670106888, -0.025587547570466995, 0.05593818426132202, 0.0853075385093689, 0.16157349944114685, -0.07749705016613007, 0.040843211114406586, 0.21348129212856293, -0.04665026068687439, 0.17634046077728271, -0.041152987629175186, -0.180197075009346, 0.03663744777441025, -0.026532208546996117, -0.06767390668392181, -0.055685196071863174, -0.021986383944749832, 0.011304464191198349, -0.014286615885794163, 0.005072495900094509, -0.09723810106515884, -0.03945197910070419, 0.08943411707878113, -0.23425927758216858, -0.10335831344127655, -0.17283184826374054, 0.03680573031306267, 0.0683434009552002, -0.04903760552406311, 0.03269786015152931, 0.02474835515022278, -0.051043540239334106, 0.06893061101436615, 0.10035468637943268, 0.11236883699893951, -0.10679525136947632, 0.15799152851104736, -0.0754922553896904, 0.16193079948425293, -0.0034441333264112473, 0.15792568027973175, 0.04760000482201576, 0.01650081016123295, 0.06731615960597992, 0.14196202158927917, -0.24585816264152527, -0.10840111970901489, 0.0047875260934233665, -0.14899517595767975, -0.04486197233200073, -0.1360601782798767, 0.012445672415196896, 0.015098576433956623, 0.020929183810949326, 0.1942123919725418, 0.03086012974381447, 0.055363524705171585, 0.009062247350811958, 0.20948730409145355, -0.07952187955379486, 0.04217835143208504, -0.00370936281979084, -0.20883843302726746, -0.1011359840631485, 0.014082560315728188, 0.1162964254617691, 0.06627016514539719, -0.015623792074620724, 0.005138705484569073, 0.049961984157562256, 0.14934413135051727, -0.07332906126976013, -0.09059508144855499, -0.09468890726566315, -0.0955166295170784, -0.09600039571523666, -0.2449081391096115, -0.08471633493900299, -0.15361423790454865, 0.09215614199638367, 0.14560557901859283, 0.03961924463510513, 0.06234552338719368, -0.07458918541669846, -0.08664494007825851, 0.08768032491207123, -0.02015453204512596, 0.09905238449573517, -0.10445569455623627, -0.08736367523670197, 0.03274455666542053, 0.1128985583782196, -0.0035249274224042892, 0.07686101645231247, -0.04994082450866699, -0.10324470698833466, -0.031248673796653748, 0.12224989384412766, -0.011312752962112427, 0.06507739424705505, 0.07381796836853027, -0.10717616975307465, -0.26288866996765137, 0.15281260013580322, -0.09092525392770767, -0.039942916482686996, 0.05561775714159012, -0.09790218621492386, 0.020824167877435684, -0.11261697858572006, 0.20946000516414642, -0.16066408157348633, -0.00195887079462409, 0.07481661438941956, 0.055615659803152084, -0.07067503035068512, -0.1117531806230545, -0.057885754853487015, 0.12700140476226807, -0.07953261584043503, 0.06686271727085114, -0.12024614959955215, -0.0520932674407959, 0.12866781651973724, 0.2714366912841797, 0.01765613630414009, -0.02556173875927925, -0.1269119381904602, -0.008766302838921547, 0.06919515132904053, -0.0689486563205719, 0.06790390610694885, -0.09223025292158127, 0.12469420582056046, -0.13103699684143066, 0.0760655552148819, 0.24578797817230225, 0.03613714873790741, -0.03426988050341606, 0.22970038652420044, 0.011958947405219078, -0.11327237635850906, -0.30257585644721985, -0.00031893880805000663, -0.03018290363252163, 0.018338318914175034, -0.1577209085226059, 0.027739129960536957, -0.05059652030467987, -0.0556413009762764, 0.03651932254433632, -0.018688416108489037, -0.17146867513656616, 0.053698260337114334, -0.09544199705123901, 0.04661998525261879, -0.1925366073846817, -0.17051681876182556, 0.06806854158639908, -0.21835294365882874, -0.014360168017446995, -0.14547720551490784, -0.08326543122529984, -0.09532910585403442, -0.1417291909456253, -0.04598062485456467, -0.03927177935838699, -8.940896805142984e-07, 0.03980277478694916, -0.015717562288045883, -0.11569087952375412, 0.11980123072862625, -0.08525002002716064, -0.22484196722507477, 0.07506871223449707, -0.24240608513355255, 0.08240703493356705, 0.044697877019643784, 0.017728306353092194, 0.07710445672273636, 0.03776710480451584, 0.2855302393436432, -0.09222475439310074, -0.06821611523628235, -0.07291952520608902, 0.057669878005981445, 0.09041889756917953, -0.1197352260351181, -0.11089381575584412, 0.003496011719107628, -0.06272689998149872, 0.11891495436429977, 0.044645581394433975, 0.15136268734931946, 0.0642101839184761, -0.1147817075252533, 0.052466701716184616, 0.13590335845947266, 0.04077347368001938, 0.05450228974223137, 0.2041344940662384, 0.26755842566490173, -0.07836361974477768, 0.08576720207929611, -0.06949996203184128, 0.13192281126976013, 0.03462358936667442, -0.24538694322109222, 0.05611705780029297, 0.16442829370498657, -0.06992966681718826, -0.001177723053842783, 0.05760429427027702, -0.14703930914402008, -0.023395637050271034, -0.11151481419801712, 0.060209229588508606, -0.03412323445081711, 0.09867841005325317, -0.16473963856697083, 0.10495133697986603, -0.0844973623752594, 0.08272013813257217, -0.05584841966629028, 0.09249649196863174, -0.05098177492618561, -0.08028440177440643, 0.1357235461473465, 0.028288638219237328, 0.09173613786697388, -0.0017713482957333326, -0.053329672664403915, 0.07233648002147675, 0.033042289316654205, -0.06896091997623444, -0.05540904402732849, 0.012875407934188843, 0.025432448834180832, -0.10829122364521027, -0.08649171888828278, 0.2776780426502228, 0.19526314735412598, -0.08961773663759232, 0.028302690014243126, -0.13501396775245667, -0.08070029318332672, -0.10632771998643875, -0.052546240389347076, -0.10528844594955444, 0.04323730617761612, 0.02083839848637581, -0.05419720336794853, -0.08336289972066879, -0.002201113849878311, -0.0505405068397522, -0.0343557707965374, -0.028596658259630203, 0.1387118697166443, 0.13154305517673492, -0.09091509133577347, 0.24754658341407776, 0.06438977271318436, 0.0704682320356369, -0.06739432364702225, 0.004067764151841402, 0.006640792358666658, -0.07661791890859604, -0.07341242581605911, -0.12183340638875961, 0.03777831047773361, -0.0781426653265953, 0.20779699087142944, -0.0747077539563179, -0.04350890964269638, 0.07841336727142334, -0.046352554112672806, -0.011153748258948326, 0.13842326402664185, 0.01870931312441826, -0.02397291548550129, 0.33312150835990906, -0.22063559293746948, 0.22861361503601074, -0.10117785632610321, 0.07450118660926819, 0.03980007767677307, -0.18376144766807556, 0.21687188744544983, -0.06148315593600273, -0.21646954119205475, 0.17736417055130005, -0.10606067627668381, 0.07840822637081146, -0.06739995628595352, 0.05606503039598465, -0.09202063828706741, 0.14505353569984436, -0.0912201926112175, -0.0507127083837986, 0.029927579686045647, -0.05817689374089241, -0.16376809775829315, 0.0504891537129879, 0.052535537630319595, -0.026900306344032288, 0.17504015564918518, 0.16468508541584015, 0.017834361642599106, 0.09945087879896164, -0.0035771438851952553, 0.07239832729101181, -0.15174905955791473, 0.016258833929896355, -0.17871464788913727, 0.08211425691843033, 0.10835359245538712, 0.1373618245124817, -0.08919182419776917, 0.053183894604444504, 0.024405349045991898, 0.013459296897053719, 0.20037761330604553, -0.11491900682449341, -0.0013426648220047355, -0.10546226799488068, 0.015328577719628811, 0.10376956313848495, 0.09106486290693283, 0.049048423767089844, -0.12016788870096207, 0.09540938585996628, 0.04975452274084091, 0.07289931178092957, -0.06308066099882126, -0.09197555482387543, -0.17308025062084198, -0.07173354178667068, -0.17757074534893036, 0.019569156691432, -0.142288476228714, 0.01743742823600769, -0.27444106340408325, 0.11769798398017883, -0.2107626497745514, 0.19467048346996307, 0.03843381628394127, -0.11140985786914825, -0.21581588685512543, -0.05504807457327843, -0.04536985605955124, 0.22982244193553925, 0.10871362686157227, -0.035440657287836075, -0.05781194940209389, 0.03381427749991417, 0.06227977201342583, -0.06277312338352203, 0.350497305393219, 0.015064643695950508, 0.07649176567792892, 0.05287116393446922, 0.019825613126158714, -0.062410566955804825, 0.03984840586781502, 0.029463186860084534, 0.07415426522493362, -0.061233945190906525, -0.0020510591566562653, -0.03565943241119385, 0.14758551120758057, -0.16093400120735168, -0.03344918042421341, 0.00305934133939445, -0.15819452702999115, 0.03149256110191345, 0.08136487752199173, -0.15489095449447632, 0.09953407943248749, 0.04269179329276085, -0.024477971717715263, 0.10450360178947449, 0.07357345521450043, -0.05741789937019348, 0.14714708924293518, 0.10466218739748001, 0.08392791450023651, -0.03610174357891083, -0.02649153396487236, 0.03153763711452484, 0.03086894005537033, 0.08653368055820465, 0.23823024332523346, 0.19088946282863617, -0.06535656750202179, 0.15516240894794464, -0.08391857147216797, 0.01530585065484047, 0.06422573328018188, -0.13662289083003998, 0.08344470709562302, 0.043379053473472595, -0.16505542397499084, 0.0638311430811882, -0.07623089104890823, -0.0007464527152478695, -0.13770528137683868, 0.04181821644306183, -0.1543087661266327, -0.11101624369621277, -0.08952951431274414, 0.13639214634895325, 0.03285235911607742, -0.03970715031027794, -0.009439721703529358, -0.03106089122593403, -0.024289879947900772, -0.014296258799731731, 0.02784213051199913, 0.04510974511504173, 0.1432216763496399, 0.131191223859787, 0.08608797937631607, 0.10328716784715652, -0.14593806862831116, 0.0654379278421402, 0.08989138901233673, 0.1252291351556778, 0.08520963788032532, -0.10552730411291122, -0.11975199729204178, 0.09303209185600281, 0.026505379006266594, 0.055268701165914536, 0.07531528919935226, -0.044858235865831375, 0.09415412694215775, -0.17371639609336853, -0.1650848537683487, 0.03617524355649948, -0.06759937852621078, 0.20063936710357666, 0.01739552617073059, 0.1847676932811737, -0.1035575345158577, 0.10954037308692932, -0.06865065544843674, 0.12430724501609802, -0.0023566875606775284, 0.2058231383562088, 0.14408794045448303, -0.06604868918657303, 0.10137026757001877, 0.07167719304561615, -0.07701350003480911, 0.08239983767271042, -0.167550727725029, -0.008924249559640884, 0.16107027232646942, 0.00012290291488170624, 0.1148325651884079, 0.21036745607852936, 0.32339438796043396, 0.03255699574947357, 0.12973596155643463, 0.012995528057217598, 0.22435329854488373, -0.05074199289083481, 0.11803582310676575, 0.15113838016986847, -0.19908496737480164, -0.0722552090883255, 0.07205228507518768, 0.038519974797964096, -0.0082896389067173, 0.055103596299886703, -0.03373241424560547, -0.04087287560105324, 0.16537995636463165, -0.20016039907932281, -0.03911697492003441, 0.0475265271961689, -0.05291615054011345, 0.06569118797779083, 0.09004893898963928, -0.00344602158293128, -0.13392899930477142, -0.13541671633720398, -0.10141245275735855, 0.1707751452922821, -0.05371684953570366, 0.054268255829811096, -0.05073206499218941, -0.1200171411037445, -0.15125390887260437, 0.017602328211069107, -0.06831437349319458, 0.13655298948287964, -0.24908797442913055, -0.09411068260669708, -0.11379591375589371, 0.237284317612648, 0.007630562875419855, -0.007217453792691231, 0.11603129655122757, -0.28082820773124695, -0.021186482161283493, -0.13097724318504333, -0.16499939560890198, -0.007354886271059513, 0.04778386279940605, -0.04984129220247269, -0.13357385993003845, 0.03587714955210686, 0.11312312632799149, 0.09708474576473236, -0.019531045109033585, 0.009944144636392593, 0.019214224070310593, -0.07787832617759705, -0.07558301091194153, -0.027771979570388794, 0.09646008908748627, -0.10791006684303284, -0.09461947530508041, -0.08274421840906143, 0.17372539639472961, -0.07096129655838013, 0.1242813840508461, -0.101292185485363, 0.028781548142433167, -0.08978554606437683, -0.043918296694755554, -0.05208498612046242, 0.13778901100158691, -0.039051033556461334, 0.01951856166124344, -0.01277851965278387, 0.06874797493219376, -0.21515582501888275, -0.016952339559793472, -0.20247124135494232, 0.17962773144245148, -0.10286474972963333, -0.07868614047765732, 0.07959984987974167, -0.3162306845188141, -0.10783515125513077, -0.026841778308153152, 0.027975259348750114, 0.20333175361156464, 0.12415962666273117, -0.06590347737073898, 0.07540079206228256, -0.13092713057994843, -0.20956078171730042, 0.024787208065390587, -0.05280551686882973, -0.08642414212226868, -0.09910641610622406, 0.08423743396997452, -0.18464109301567078, -0.008384325541555882, 0.07631674408912659, 0.1645267754793167, -0.1108357161283493, -0.033960454165935516, -0.03006945550441742, 0.018134772777557373, -0.09922899305820465, -0.010078336112201214, 0.08979560434818268, 0.08577396720647812, -0.2066594958305359, -0.1723274290561676, 0.04103070870041847, 0.02712349407374859, -0.04424881190061569, 0.06271494925022125, 0.14813365042209625, -0.015476172789931297, 0.04520025476813316, -0.06442270427942276, 0.2932804822921753, -0.008313745260238647, 0.017245113849639893, 0.058250702917575836, 0.003516844706609845, -0.030597839504480362, 0.12928961217403412, -0.07817249000072479, 0.12149287015199661, -0.16998979449272156, 0.06545183062553406, 0.2521342635154724, 0.043928928673267365, -0.027520356699824333, -0.07258284091949463, 0.05401759222149849, 0.0852847546339035, -0.03660684823989868, -0.10072155296802521, 0.088838130235672, 0.05632287263870239, 0.01067330501973629, -0.12476775795221329, 0.09705355018377304, 0.1271614283323288, 0.23216186463832855, -0.010560236871242523, 0.10606107115745544, 0.06674522161483765, -0.05108874663710594, 0.09647268801927567, 0.1786680966615677, -0.009609818458557129, 0.14081768691539764, -0.010016362182796001, -0.10153955221176147, 0.12397146224975586, -0.16895030438899994, -0.02581356093287468, 0.03726308420300484, -0.07506270706653595, 0.08858733624219894, 0.033170685172080994, 0.10540878027677536, 0.0880107507109642, -0.0950682982802391, 0.0038886559195816517, -0.030106784775853157, 0.2286970317363739, -0.09617068618535995, -0.06771187484264374, -0.02378520555794239, -0.02089565247297287, -0.019876260310411453, -0.20574134588241577, -0.03174832835793495, -0.10462011396884918, 0.15853476524353027, 0.017320189625024796, 0.2324088215827942, 0.1990327686071396, -0.09146448224782944, -0.05720346421003342, -0.03302321210503578, 0.04545506834983826, 0.10753681510686874, 0.20162536203861237, 0.00751503836363554, 0.08913791924715042, -0.12203198671340942, 0.08900610357522964, -0.2023153007030487, -0.04037141427397728, 0.2182924747467041, 0.08583533763885498, 0.041524991393089294, -0.004450325854122639, -0.09661474078893661, 0.04893098771572113, 0.11695658415555954, 0.17005470395088196, 0.07649657875299454, 0.24954640865325928, 0.05789976567029953, -0.09895683825016022, 0.1809961199760437, -0.0519273579120636, -0.06562279909849167, -0.09985684603452682, -0.04724487289786339, 0.07314741611480713, -0.008281869813799858, -0.015833284705877304, -0.14986856281757355, 0.1534043699502945, -0.19368427991867065, -0.009669432416558266, -0.021486686542630196, 0.10031160712242126, 0.13511034846305847, -0.0879872590303421, 0.1449357569217682, 0.008851380087435246, 0.09023737907409668, 0.03779416158795357, 0.09482188522815704, -0.11534009873867035, 0.022234341129660606, -0.048502206802368164, -0.09299274533987045, -0.16666339337825775, -0.05718347057700157, 0.14342865347862244, -0.20694376528263092, -0.07310611754655838, 0.033314283937215805, 0.051622387021780014, 0.12725049257278442, 0.015928180888295174, -0.1351393759250641, 0.09019643068313599, -0.006257519591599703, 0.11306855827569962, -0.08962621539831161, 0.0969502404332161, -0.1914612054824829, 0.10922110825777054, 0.06989678740501404, -0.09207388013601303, 0.023955540731549263, -0.08462624996900558, -0.021410319954156876, 0.19931966066360474, -0.004058752208948135, -0.03928660601377487, 0.031602077186107635, -0.2733762562274933, 0.15766943991184235, 0.01258285902440548, -0.13101696968078613, 0.01859869994223118, 0.010664707981050014, 0.10776388645172119, -0.16517890989780426, 0.09945409744977951, -0.1734796166419983, 0.10842923820018768, 0.04567404463887215, -0.15672050416469574, 0.013791536912322044, 0.11560114473104477, 0.012902900576591492, 0.027617722749710083, -0.17246124148368835, 0.0932876318693161, -0.15803059935569763, 0.0684608742594719, 0.2029440701007843, -0.0332014225423336, 0.137799933552742, 0.025626083835959435, -0.06474032253026962, 0.10872349143028259, 0.045481689274311066, -0.10038749873638153, -0.0839424878358841, -0.01987091638147831, 0.07572171837091446, 0.10444045811891556, 0.12289857119321823, 0.07480821013450623, 0.06988854706287384, -0.23029671609401703, -0.07456234097480774, 0.16724947094917297, 0.1397392302751541, 0.16163943707942963, -0.07849977165460587, -0.018676336854696274, -0.1672036051750183, -0.1205822303891182, 0.23956650495529175, 0.08910524845123291, -0.001726871239952743, 0.1555640995502472, 0.11807185411453247, -0.052322544157505035, -0.19868862628936768, 0.015537308529019356, 0.08434384316205978, -0.009319269098341465, -0.03601616621017456, 0.02246367745101452, 0.11486505717039108, 0.10311930626630783, -0.10383810102939606, -0.07221217453479767, -0.13347838819026947, 0.0020026713609695435, -0.0748540461063385, -0.02974829263985157, 0.08737615495920181, -0.05855163186788559, -0.04221186414361, 0.22145654261112213, -0.02344627119600773, 0.19660599529743195, -0.09817739576101303, 0.19033338129520416, -0.08836588263511658, 0.09508974105119705, -0.016913454979658127, 0.19604606926441193, 0.14021578431129456, 0.07788766920566559, -0.08289925754070282, -0.13622017204761505, -0.0429111085832119, 0.04369151592254639, -0.10562244057655334, -0.008283738046884537, 0.1263372004032135, -0.02119874581694603, -0.10403944551944733, -0.16071230173110962, -0.07224051654338837, 0.08014938235282898, 0.16058963537216187, 0.027222681790590286, -0.055759821087121964, -0.19378268718719482, 0.12744168937206268, -0.0289901252835989, 2.4567358195781708e-05, 0.013324128463864326, 0.026402808725833893, 0.024157878011465073, -0.06513738632202148, -0.25003260374069214, 0.0848517194390297, 0.014242392964661121, 0.13028351962566376, 0.035014696419239044, 0.0663079246878624, 0.2308347076177597, -0.031088808551430702, 0.022886965423822403, -0.25365790724754333, -0.09963828325271606, -0.0854092538356781, 0.22030095756053925, -0.11828742921352386, 0.02957332134246826, -0.004883426241576672, -0.06119058281183243, 0.04834244027733803, -0.19167527556419373, -0.005821621976792812, 0.06587071716785431, -0.15663935244083405, 0.05491509661078453, 0.0013879459584131837, -0.04135282337665558, 0.17495252192020416, -0.05106613039970398, -0.205799400806427, -0.007736666593700647, -0.07931948453187943, 0.1308208554983139, -0.1346682608127594, -0.015268245711922646, -0.0036236399319022894, -0.019711777567863464, -0.009873777627944946, 0.003300462616607547, 0.09567286819219589, 0.1352228969335556, -0.1474536955356598, 0.07657277584075928, -0.0804145336151123, -0.16882570087909698};

const float lstm_cell_bias[4 * HUNIT] = {0.14192572236061096, 0.1399703472852707, 0.1428741067647934, 0.12143834680318832, 0.15317882597446442, 0.14399024844169617, 0.1509404480457306, -0.019584182649850845, 0.17223142087459564, 0.14704136550426483, 0.04250482842326164, 0.15080761909484863, 0.14819815754890442, 0.14675265550613403, 0.1772499680519104, 0.15039493143558502, -0.03391202166676521, 0.12407387048006058, 0.16809715330600739, 0.0173341054469347, 1.0, 1.0, 1.0, 1.0, 1.0, 1.0, 1.0, 1.0, 1.0, 1.0, 1.0, 1.0, 1.0, 1.0, 1.0, 1.0, 1.0, 1.0, 1.0, 1.0, 0.1098351702094078, -0.1071925014257431, -0.12562546133995056, 0.10792703181505203, 0.12489842623472214, -0.11213032156229019, 0.126417875289917, -0.09264039248228073, 0.13161733746528625, -0.11143780499696732, -0.09717708081007004, 0.12781111896038055, -0.10750912129878998, -0.11300003528594971, 0.15425707399845123, -0.11241529881954193, -0.09291788935661316, -0.10811051726341248, -0.15226414799690247, -0.09637521207332611, 0.1403980702161789, 0.1379212886095047, 0.1480349600315094, 0.12258463352918625, 0.1534031331539154, 0.14494171738624573, 0.14957363903522491, -0.019606944173574448, 0.1717008799314499, 0.14743411540985107, 0.04124761372804642, 0.15105591714382172, 0.14757558703422546, 0.14712531864643097, 0.1787542849779129, 0.14828252792358398, -0.03393945470452309, 0.12301451712846756, 0.16997867822647095, 0.017560556530952454};

float lstm_cell_hidden_layer[HUNIT] = {0.27916356921195984, -0.15074577927589417, -0.07031743228435516, 0.30530431866645813, 0.2129616141319275, -0.07793377339839935, 0.20195910334587097, -0.06608308106660843, 0.3488048315048218, -0.1390077769756317, -0.055990833789110184, 0.14470842480659485, -0.13795341551303864, -0.1857914924621582, 0.13770797848701477, -0.28359928727149963, 0.04227288439869881, -0.19256089627742767, -0.23035992681980133, -0.07414083927869797};
float lstm_cell_cell_states[HUNIT] = {0.660478949546814, -0.28806227445602417, -0.12883611023426056, 0.6428217887878418, 0.4469725787639618, -0.1436735987663269, 0.3520612418651581, -0.13015936315059662, 0.6859749555587769, -0.2610141932964325, -0.11285043507814407, 0.2983282804489136, -0.260775089263916, -0.35089829564094543, 0.26652082800865173, -0.636132001876831, 0.08507362008094788, -0.37129834294319153, -0.4093354344367981, -0.1353379637002945};

const float dense_weights[HUNIT] = {0.4415655732154846, -0.5975461006164551, -0.22593650221824646, 0.5103610754013062, 0.2388935387134552, -0.46619173884391785, 0.20411068201065063, -0.250382661819458, 0.22645696997642517, -0.45592454075813293, -0.17289645969867706, 0.2161710411310196, -0.6224678754806519, -0.345556378364563, 0.16333575546741486, -0.41213753819465637, -0.35369130969047546, -0.4962972104549408, -0.15198448300361633, -0.4217032194137573};
const float dense_bias = 0.09804487228393555;
