//
// Generated by spiderweak using Python.
//

#ifndef CPP_PARAMETERS_H
#define CPP_PARAMETERS_H

#define HUNIT 1

#endif //CPP_PARAMETERS_H

const int hunit = HUNIT;

const float lstm_cell_input_weights[4 * HUNIT] = {0.42958253622055054, 0.34230294823646545, -0.1927247941493988, -0.2507975399494171, 0.4361492097377777, 0.07651567459106445, 0.18540161848068237, 0.056664347648620605, -0.27209046483039856, -0.2142794132232666, 0.12393269687891006, 0.11603396385908127, -0.06554924696683884, 0.17964093387126923, -0.5904043316841125, 0.4389219284057617, 0.14537017047405243, 0.4542520344257355, 0.36522290110588074, -0.17149190604686737};

const float lstm_cell_hidden_weights[4 * HUNIT * HUNIT] = {0.2425776720046997, 0.15955501794815063, -0.0903133898973465, 0.3350990414619446, 0.04511791095137596, -0.08247341215610504, 0.3274514675140381, -0.09956078231334686, 0.16102144122123718, 0.0683550164103508, 0.17570658028125763, 0.06941699236631393, 0.25290796160697937, 0.11953947693109512, 0.1612919569015503, -0.08625296503305435, -0.07188878208398819, 0.48698943853378296, 0.49842408299446106, 0.022900350391864777, -0.25611406564712524, 0.14975669980049133, -0.34102219343185425, 0.40040355920791626, 0.16433987021446228, 0.06076386570930481, -0.10977780818939209, -0.1870824098587036, 0.009921867400407791, 0.11792173981666565, -0.1386624574661255, -0.19412775337696075, 0.33157879114151, -0.019104953855276108, -0.025753522291779518, 0.25082477927207947, -0.21207505464553833, -0.4816623032093048, 0.16458186507225037, -0.09351140260696411, 0.039579834789037704, 0.04488590732216835, -0.2591671645641327, -0.5820226073265076, 0.5018423199653625, -0.06192515045404434, 0.3520795702934265, -0.05210179090499878, -0.21399986743927002, -0.01475931704044342, 0.07362087815999985, 0.14634370803833008, 0.2498234063386917, -0.16438500583171844, 0.05629906803369522, 0.09628318250179291, 0.03768402338027954, -0.09668552130460739, 0.04252071678638458, 0.14437854290008545, 0.011798632331192493, 0.08076594024896622, -0.02527521923184395, -0.01804024539887905, 0.30238431692123413, -0.13760943710803986, -0.18621082603931427, -0.40297427773475647, 0.1801300346851349, 0.021618418395519257, -0.08622507750988007, -0.20613910257816315, 0.21363066136837006, 0.3390657901763916, -0.2080514281988144, -0.3892158269882202, 0.40760520100593567, 0.10170537233352661, -0.2633819282054901, -0.029354052618145943, 0.4266415238380432, 0.10529492795467377, -0.021083291620016098, -0.10431525856256485, 0.019831720739603043, 0.24367426335811615, -0.33554625511169434, 0.15943662822246552, 0.18495775759220123, 0.319449245929718, 0.011813178658485413, -0.24552521109580994, 0.2172931730747223, -0.36119675636291504, 0.13504989445209503, 0.3044232428073883, 0.25273850560188293, 0.16129642724990845, -0.08793972432613373, -0.1220024973154068};

const float lstm_cell_bias[4 * HUNIT] = {0.32885462045669556, 0.08715292811393738, 0.27965497970581055, 0.01834559068083763, 0.3574063777923584, 1.0, 1.0, 1.0, 1.0, 1.0, 0.2544732987880707, -0.19421203434467316, -0.2447153776884079, -0.1937713921070099, -0.3258270025253296, 0.32913103699684143, 0.08364775031805038, 0.2927299439907074, 0.02456100843846798, 0.34412336349487305};

float lstm_cell_hidden_layer[HUNIT] = {0.4499377906322479};
float lstm_cell_cell_states[HUNIT] = {0.7095444202423096};

const float dense_weights[HUNIT] = {0.6677358150482178, -0.2606336772441864, -0.7223912477493286, -0.8092444539070129, -0.33258211612701416};
const float dense_bias = 0.20184676349163055;
