//
// Generated by spiderweak using Python.
//

#ifndef CPP_PARAMETERS_H
#define CPP_PARAMETERS_H

#define HUNIT 6

#endif //CPP_PARAMETERS_H

const int hunit = HUNIT;

const float lstm_cell_input_weights[4 * HUNIT] = {-0.4130707085132599, -0.2190384715795517, 0.16814567148685455, 0.7071071267127991, 0.23532018065452576, -0.4043351411819458, -0.0009293854236602783, -0.37450146675109863, 0.4751954972743988, 0.027544409036636353, -0.03392547369003296, 0.023837536573410034, 0.23951998353004456, 0.0878884419798851, 0.3888097405433655, 0.42069190740585327, -0.41889840364456177, 0.06880585104227066, -0.2941875755786896, 0.04532218351960182, -0.5576459765434265, 1.076360821723938, -0.24155502021312714, 0.18163789808750153};

const float lstm_cell_hidden_weights[4 * HUNIT * HUNIT] = {-0.10590052604675293, 0.1209062784910202, 0.3162536323070526, -0.3611053228378296, -0.25638559460639954, 0.2562239170074463, -0.07166565209627151, -0.4468706548213959, 0.16880583763122559, 0.29750993847846985, -0.13857607543468475, -0.12790162861347198, -0.04547314718365669, -0.09500231593847275, -0.12688374519348145, -0.281019389629364, 0.2760090231895447, -0.15728284418582916, -0.06734729558229446, 0.09287622570991516, 0.08404336124658585, -0.04843751713633537, -0.1562056839466095, -0.030251674354076385, 0.184543177485466, 0.1718224436044693, -0.036388397216796875, -0.504166841506958, 0.2806645929813385, -0.03819475322961807, 0.06057911738753319, -0.13975992798805237, -0.08802132308483124, -0.14168091118335724, -0.2720620036125183, -0.20112180709838867, 0.09216763824224472, -0.08338700234889984, 0.08360324054956436, -0.0013640858232975006, -0.16595150530338287, 0.5115914940834045, -0.06772604584693909, -0.1552879959344864, -0.13627557456493378, 0.2641773521900177, -0.07992646843194962, 0.005818809382617474, -0.09994152188301086, 0.19090868532657623, 0.16360974311828613, -0.012990374118089676, -0.09468511492013931, 0.13501404225826263, -0.23256124556064606, -0.036980289965867996, -0.1600312739610672, -0.39117950201034546, 0.16589976847171783, -0.20676495134830475, -0.20917165279388428, 0.27382171154022217, 0.02661971002817154, -0.0893670991063118, -0.14552588760852814, 0.07842585444450378, 0.3623371422290802, 0.06310469657182693, 0.3690689504146576, 0.11034565418958664, 0.08809109777212143, -0.3858798146247864, 0.2847232222557068, -0.10622510313987732, 0.09288003295660019, 0.10591129213571548, -0.2089005708694458, -0.001408688724040985, -0.3222080171108246, -0.22894564270973206, -0.2894417643547058, -0.013527236878871918, -0.034568604081869125, -0.012576259672641754, -0.05971293896436691, -0.19545283913612366, 0.27389734983444214, 0.2402580976486206, 0.27263158559799194, -0.0854284018278122, 0.37725648283958435, -0.1867329478263855, -0.3918112516403198, 0.11643806844949722, 0.03671792894601822, 0.02942686155438423, -0.3956119120121002, 0.12404914945363998, -0.3569640815258026, -0.09449984133243561, -0.10357104241847992, 0.2123909592628479, 0.32721710205078125, -0.2134256809949875, -0.0026255138218402863, -0.26317012310028076, 0.3943692147731781, 0.07490421831607819, -0.09064733982086182, -0.26741406321525574, 0.11247187852859497, 0.220508873462677, 0.1908828318119049, 0.014442723244428635, -0.0030202846974134445, -0.1454085409641266, 0.03663221001625061, 0.12312500178813934, -0.17324523627758026, 0.08702300488948822, -0.16991251707077026, -0.33157628774642944, 0.2495005875825882, 0.062264297157526016, -0.08567400276660919, 0.171747088432312, -0.20010556280612946, 0.04503243416547775, 0.18057125806808472, -0.11386558413505554, 0.18280039727687836, 0.00038826465606689453, 0.24821679294109344, -0.11697995662689209, 0.41726845502853394, -0.12821519374847412, -0.21668614447116852, 0.3149532675743103, -0.08764725923538208, -0.018503576517105103, -0.11166980862617493, -0.32416123151779175, -0.30805492401123047, -0.06852546334266663};

const float lstm_cell_bias[4 * HUNIT] = {0.3155606985092163, 0.2850906252861023, 0.15763776004314423, 0.8820923566818237, 0.11578668653964996, 0.24322398006916046, 1.0, 1.0, 1.0, 1.0, 1.0, 1.0, -0.2540280222892761, -0.2655086815357208, 0.2924676239490509, -0.17526547610759735, -0.2622995376586914, -0.2273872047662735, 0.3255058228969574, 0.3085119128227234, 0.08902691304683685, 0.8735224008560181, 0.06331057846546173, 0.293113648891449};

static float lstm_cell_hidden_layer[HUNIT] = {-0.19286274909973145, 0.062152136117219925, 0.33967068791389465, -0.19748470187187195, -0.43490761518478394, -0.1270136684179306};
static float lstm_cell_cell_states[HUNIT] = {-0.354158878326416, 0.10324221849441528, 0.8110857009887695, -0.25370121002197266, -1.1562683582305908, -0.23393572866916656};

const float dense_weights[HUNIT] = {-0.7389451265335083, -0.37232476472854614, 0.4861648678779602, -1.3659932613372803, -0.8324695825576782, -0.8484230637550354};
const float dense_bias = 0.19747863709926605;
