//
// Generated by spiderweak using Python.
//

#ifndef CPP_PARAMETERS_H
#define CPP_PARAMETERS_H

#define HUNIT 4

#endif //CPP_PARAMETERS_H

const int hunit = HUNIT;

const float lstm_cell_input_weights[4 * HUNIT] = {-0.45626118779182434, -0.49555444717407227, 0.6371418833732605, 0.38149207830429077, -0.3363746404647827, -0.04128742218017578, 0.3292841911315918, -0.06418877840042114, 0.2763083875179291, 0.09935189038515091, 0.49929967522621155, -0.5054923892021179, -0.15293720364570618, 0.04914961755275726, 0.39595338702201843, -0.15659786760807037};

const float lstm_cell_hidden_weights[4 * HUNIT * HUNIT] = {0.20125436782836914, -0.26792964339256287, 0.38742581009864807, -0.23855464160442352, -0.11930747330188751, -0.015146428719162941, -0.15277647972106934, 0.0600891038775444, -0.4384074807167053, 0.2936643362045288, 0.19070570170879364, 0.3575839400291443, -0.3535708487033844, 0.16320404410362244, -0.17804856598377228, -0.11517073214054108, -0.07249036431312561, -0.3907191753387451, -0.250777006149292, 0.01987319625914097, 0.18501465022563934, -0.15489906072616577, -0.061817895621061325, -0.1206059530377388, -0.2658941447734833, -0.2639143466949463, -0.15572643280029297, 0.21063894033432007, 0.1289636790752411, -0.09478612244129181, 0.3485141694545746, -0.5883537530899048, 0.09088880568742752, 0.13516470789909363, 0.025210443884134293, -0.39543598890304565, 0.09255057573318481, 0.3303181231021881, 0.2625200152397156, -0.3612441420555115, 0.013723582029342651, 0.1559510976076126, -0.2713909447193146, -0.10151618719100952, 0.128806009888649, -0.21416208148002625, -0.4356068968772888, -0.37242111563682556, -0.16047857701778412, -0.05949413403868675, -0.45320239663124084, -0.2273479700088501, 0.09656135737895966, 0.22608250379562378, -0.11875161528587341, 0.320566862821579, -0.20282571017742157, 0.21500808000564575, 0.473060667514801, -0.4408015310764313, 0.015690062195062637, 0.07190651446580887, -0.036627817898988724, -0.15526703000068665};

const float lstm_cell_bias[4 * HUNIT] = {0.28857505321502686, 0.28506168723106384, 0.9213842749595642, 0.14800536632537842, 1.0, 1.0, 1.0, 1.0, -0.24161195755004883, -0.25784316658973694, -0.23191960155963898, -0.2738175690174103, 0.3077550232410431, 0.3277609050273895, 0.9331778883934021, 0.08784446865320206};

static float lstm_cell_hidden_layer[HUNIT] = {0.013549122028052807, -0.2545940577983856, -0.21276117861270905, -0.37257105112075806};
static float lstm_cell_cell_states[HUNIT] = {0.024957118555903435, -0.4557206928730011, -0.29067516326904297, -0.7707076668739319};

const float dense_weights[HUNIT] = {-1.2205709218978882, -0.7992744445800781, -1.2123606204986572, -1.0784966945648193};
const float dense_bias = 0.20086975395679474;
