//
// Generated by spiderweak using Python.
//

#ifndef CPP_PARAMETERS_H
#define CPP_PARAMETERS_H

#define HUNIT 10

#endif //CPP_PARAMETERS_H

const int hunit = HUNIT;

const float lstm_cell_input_weights[4 * HUNIT] = {0.8579711318016052, 0.04680125042796135, 0.5218916535377502, -0.21741294860839844, 0.2298680692911148, 0.49653360247612, -0.06940770894289017, -0.19075143337249756, 0.7622165679931641, 0.0854131206870079, -0.2833321690559387, 0.3095097839832306, -0.3463110327720642, 0.13311389088630676, 0.31138095259666443, -0.1715695858001709, -0.002865135669708252, 0.05683991312980652, -0.2883424758911133, -0.3420777916908264, -0.37105700373649597, -0.3520543575286865, -0.37231066823005676, 0.10164110362529755, -0.05997089296579361, -0.309733122587204, -0.12282217293977737, 0.4670926630496979, -0.3176983594894409, 0.31690558791160583, 0.4571213722229004, 0.35350731015205383, 0.47161322832107544, -0.20063799619674683, 0.24913935363292694, 0.7080754637718201, -0.002147229388356209, -0.028715671971440315, 0.7676272988319397, 0.15236115455627441};

const float lstm_cell_hidden_weights[4 * HUNIT * HUNIT] = {-0.002542853355407715, 0.07696310430765152, -0.35214096307754517, -0.11007222533226013, 0.07331398129463196, -0.07411424815654755, -0.3140473961830139, -0.13218805193901062, 0.03260183706879616, 0.07407400757074356, -0.25194087624549866, -0.1565776914358139, -0.01847536861896515, -0.12460482120513916, 0.07749215513467789, 0.0251635555177927, 0.08395861089229584, 0.06426897644996643, 0.024800149723887444, 0.019031420350074768, -0.1786252111196518, 0.29295945167541504, 0.20827241241931915, 0.004157099407166243, 0.08164742588996887, -0.06343002617359161, -0.048459287732839584, 0.10759185254573822, 0.19247448444366455, -0.3378698527812958, -0.016061415895819664, 0.24435250461101532, 0.013994689099490643, -0.0612209290266037, -0.18196658790111542, 0.08166641741991043, -0.15282949805259705, 0.3160220980644226, 0.19217604398727417, 0.031420107930898666, 0.15661078691482544, -0.03327459841966629, -0.22020062804222107, -0.0009107869118452072, -0.13461431860923767, -0.011155345477163792, 0.20927837491035461, 0.29519349336624146, 0.17436613142490387, 0.028305821120738983, -0.06365625560283661, -0.013578744605183601, 0.06694971770048141, 0.004821930080652237, -0.07671288400888443, 0.5180726647377014, 0.07022327184677124, -0.0612531378865242, 0.1481260508298874, -0.09309012442827225, 0.13161081075668335, 0.10826973617076874, 0.08610115945339203, -0.08725743740797043, -0.12326600402593613, -0.11255034804344177, -0.0770532488822937, 0.11597800254821777, 0.0011163316667079926, 0.025537138804793358, -0.3063492178916931, 0.34017932415008545, 0.1516912877559662, -0.06308697164058685, 0.16513627767562866, -0.04121255874633789, 0.13690263032913208, -0.16322943568229675, -0.09406228363513947, 0.10693199932575226, 0.1691220998764038, -0.015445312485098839, 0.07039105892181396, -0.4714033305644989, 0.1935465782880783, -0.10947908461093903, -0.12981073558330536, 0.16173522174358368, -0.11070819199085236, 0.18152675032615662, -0.18000680208206177, -0.0063058361411094666, -0.17249713838100433, 0.043565500527620316, 0.09439720213413239, 0.06783131510019302, -0.17110629379749298, 0.16764414310455322, -0.11923623085021973, -0.257840633392334, -0.12547682225704193, -0.1628548502922058, -0.2483992576599121, 0.1635688990354538, 0.028855420649051666, -0.03825490176677704, 0.08430162072181702, 0.007999712601304054, -0.16162091493606567, -0.127421572804451, -0.24285443127155304, -0.14240595698356628, 0.1537254899740219, 0.05305510386824608, 0.03556174039840698, -0.18236100673675537, -0.16582106053829193, -0.06135070323944092, -0.07274718582630157, 0.1769384741783142, 0.020149914547801018, 0.24706417322158813, -0.15443621575832367, 0.04595348238945007, 0.14571990072727203, 0.24195639789104462, 0.210623636841774, 0.20925089716911316, -0.0540546216070652, 0.020580599084496498, -0.0485956147313118, 0.14260007441043854, -0.04645881429314613, 0.33619800209999084, 0.22599786520004272, -0.07859911024570465, -0.17728282511234283, -0.010771196335554123, -0.060690369457006454, -0.11849051713943481, -0.11864371597766876, -0.2714877128601074, 0.34839168190956116, -0.1634349524974823, 0.10291967540979385, 0.17857353389263153, 0.05125412717461586, 0.11973562836647034, 0.08705016225576401, -0.06301949173212051, 0.07087336480617523, -0.066510409116745, 0.10307871550321579, -0.004890121053904295, 0.0874033272266388, 0.13915713131427765, 0.23426268994808197, 0.242244154214859, 0.015268382616341114, 0.1707553267478943, -0.2123824656009674, 0.06770723313093185, -0.2621122896671295, 0.2069430649280548, 0.04710577428340912, 0.06173677369952202, -0.19955182075500488, -0.18058079481124878, -0.11069747805595398, 0.2149433195590973, 0.06125211715698242, -0.23330184817314148, -0.024564294144511223, -0.22583141922950745, -0.1419222503900528, 0.34598225355148315, -0.2598207890987396, -0.038676388561725616, -0.11435651034116745, -0.23345519602298737, 0.10835133492946625, -0.1746140569448471, -0.12438682466745377, -0.05571591854095459, 0.025574838742613792, 0.12799134850502014, 0.10526753962039948, 0.01621689647436142, 0.040389712899923325, 0.17726847529411316, 0.1876218318939209, -0.08408401161432266, 0.07566782087087631, 0.05804884433746338, -0.169989213347435, 0.06332491338253021, 0.12413330376148224, -0.1675313264131546, 0.12582966685295105, 0.22322489321231842, -0.014265980571508408, -0.30958476662635803, -0.14648719131946564, -0.0024018692784011364, 0.1384630650281906, -0.08658389747142792, 0.22701001167297363, -0.205516517162323, 0.10076166689395905, -0.22001606225967407, -0.17575904726982117, -0.1530134677886963, 0.06524033844470978, 0.03700859844684601, 0.11202536523342133, -0.23144006729125977, -0.11789792776107788, 0.2566271722316742, -0.08796592056751251, -0.16535252332687378, -0.014487055130302906, 0.15355676412582397, -0.0976046621799469, 0.09997998923063278, 0.026222115382552147, -0.11685600876808167, 0.2815350294113159, 0.1338522732257843, 0.013938011601567268, 0.28354597091674805, -0.16796475648880005, 0.04637664929032326, -0.0453624427318573, -0.10626568645238876, 0.113716259598732, 0.06501040607690811, 0.315656840801239, -0.013376694172620773, 0.25750964879989624, -0.013501957058906555, 0.018109243363142014, 0.15789569914340973, -0.11653612554073334, -0.02237437106668949, 0.030834604054689407, 0.0438050739467144, 0.2953692078590393, -0.1920400708913803, 0.04709868133068085, -0.08081849664449692, -0.10548873990774155, 0.027135882526636124, -0.18135058879852295, -0.11874081939458847, -0.05996284261345863, 0.10267813503742218, 0.15631859004497528, 0.03624633327126503, -0.03583168983459473, 0.12802141904830933, 0.038398388773202896, -0.23036685585975647, -0.29548516869544983, 0.40950706601142883, -0.09051584452390671, 0.0036807083524763584, -0.1779123842716217, 0.4348662495613098, 0.0042402963154017925, -0.07017461955547333, 0.15122288465499878, -0.008963355794548988, -0.05047919601202011, -0.12898734211921692, -0.09057209640741348, 0.09478554874658585, 0.078152596950531, 0.1846974641084671, -0.2555457353591919, -0.014031878672540188, 0.012182817794382572, -0.2036154717206955, 0.07651583850383759, 0.08164548873901367, -0.10427335649728775, 0.20966318249702454, -0.24673476815223694, 0.1012318879365921, -0.015074001625180244, -0.062311336398124695, -0.35624364018440247, -0.0689370259642601, -0.11115286499261856, 0.03935741260647774, -0.10540784150362015, -0.00425358721986413, -0.02479013055562973, -0.0852973535656929, 0.05237919092178345, -0.20397773385047913, -0.06295878440141678, -0.3600764274597168, 0.0009379042312502861, -0.06055692955851555, -0.03714747726917267, -0.18915919959545135, -0.21771228313446045, 0.13817854225635529, 0.15882940590381622, 0.06578521430492401, 0.16661721467971802, 0.043715950101614, -0.16642093658447266, -0.16461330652236938, 0.3566890060901642, -0.0024682211223989725, -0.1712820827960968, -0.06213085353374481, 0.19827276468276978, -0.228397399187088, -0.015633823350071907, -0.11821345239877701, 0.018554463982582092, -0.22477616369724274, -0.30977848172187805, 0.08699969947338104, 0.021602235734462738, 0.1723192036151886, 0.11131629347801208, 0.2082783579826355, 0.0229719839990139, -0.14303641021251678, 0.3240925967693329, 0.0661158338189125, 0.045190662145614624, -0.08467923104763031, 0.13256166875362396, -0.06501448154449463, -0.44808799028396606, -0.11856267601251602, 0.09137468039989471, 0.0327465683221817, 0.022593893110752106, 0.12457320839166641, -0.10748632997274399, 0.011606886982917786, -0.08176108449697495, 0.007884977385401726, -0.07416091859340668, 0.11067156493663788, 0.3050908148288727, 0.05075922608375549, 0.28502312302589417, -0.10735020041465759, -0.13509167730808258, -0.18454046547412872, 0.08899132907390594, 0.20455090701580048, 0.08142343163490295, -0.10224742442369461, 0.18120898306369781, -0.07664796710014343, 0.19253937900066376, 0.21257565915584564, -0.14532773196697235, 0.3364076614379883, 0.1421600878238678, -0.08875338733196259, -0.27754998207092285, 0.2020723670721054, -0.03700906038284302, -0.07614047825336456, 0.1635417938232422, -0.12158755958080292, -0.12948231399059296, -0.015352290123701096, 0.016005508601665497, -0.04341784492135048, 0.0534246452152729, 0.09419120848178864, -0.38942474126815796, -0.03260666877031326, 0.03572138026356697, 0.31328079104423523, 0.04222792014479637, 0.17327196896076202, 0.054452549666166306, 0.05238322541117668, 0.06167909875512123, -0.013097375631332397, -0.31246304512023926, 0.0875607505440712, 0.21025682985782623, 0.18414244055747986, -0.020826265215873718, 0.056698281317949295, -0.02455122210085392, -0.02928093634545803, 0.18543754518032074, -0.0517691932618618};

const float lstm_cell_bias[4 * HUNIT] = {0.49755600094795227, 0.31345340609550476, 0.2441299557685852, 0.2723543643951416, 0.24591003358364105, 0.28768569231033325, 0.2672117352485657, 0.1565106064081192, 0.3454163372516632, 0.32162395119667053, 1.0, 1.0, 1.0, 1.0, 1.0, 1.0, 1.0, 1.0, 1.0, 1.0, 0.17016631364822388, 0.19514933228492737, 0.09735581278800964, 0.24968625605106354, 0.19193263351917267, 0.16095514595508575, -0.25274351239204407, 0.24434411525726318, 0.15265366435050964, -0.18788951635360718, 0.5316587686538696, 0.3037777543067932, 0.24884715676307678, 0.27204352617263794, 0.24675236642360687, 0.282615065574646, 0.2691686451435089, 0.1593884527683258, 0.34485697746276855, 0.3206978738307953};

static float lstm_cell_hidden_layer[HUNIT] = {-0.09805476665496826, -0.21825388073921204, 0.0015852067153900862, 0.23577870428562164, 0.2915191948413849, 0.10571001470088959, -0.22812245786190033, 0.33813726902008057, 0.1083802804350853, 0.09965494275093079};
static float lstm_cell_cell_states[HUNIT] = {-0.1399606466293335, -0.3912980556488037, 0.002585762180387974, 0.45990434288978577, 0.5215909481048584, 0.16497814655303955, -0.41851863265037537, 0.7588498592376709, 0.15407340228557587, 0.17006449401378632};

const float dense_weights[HUNIT] = {0.5965477228164673, 0.9140673279762268, 0.27005794644355774, 0.5636065006256104, 0.9406490921974182, 0.7947519421577454, -0.4028758406639099, 0.7779353857040405, 0.5753107666969299, -0.47996580600738525};
const float dense_bias = 0.18821977078914642;
