//
// Generated by spiderweak using Python.
//

#ifndef CPP_PARAMETERS_H
#define CPP_PARAMETERS_H

#define HUNIT 9

#endif //CPP_PARAMETERS_H

const int hunit = HUNIT;

const float lstm_cell_input_weights[4 * HUNIT] = {0.3010346293449402, 0.29492202401161194, 0.4124097526073456, -0.03744316101074219, -0.03572116047143936, 0.3912580609321594, 0.4467245042324066, -0.05150610953569412, -0.12068423628807068, -0.12133169174194336, 0.32080698013305664, -0.29684048891067505, -0.36678197979927063, 0.12554556131362915, 0.07528576254844666, 0.1603218913078308, 0.2542107105255127, -0.25608909130096436, -0.16487853229045868, 0.2512115240097046, -0.2099960744380951, 0.17441706359386444, 0.41528183221817017, -0.3550555408000946, 0.3296305537223816, 0.08899098634719849, -0.30819711089134216, -0.21695935726165771, 0.2771383225917816, -0.07229528576135635, -0.2965541183948517, -0.23231881856918335, 0.9145399332046509, 0.663509726524353, -0.3242301046848297, -0.15248264372348785};

const float lstm_cell_hidden_weights[4 * HUNIT * HUNIT] = {0.07486331462860107, -0.12717698514461517, 0.2848472595214844, -0.3036315143108368, -0.020276067778468132, -0.30780303478240967, -0.031425416469573975, 0.22657059133052826, -0.056627340614795685, 0.16357888281345367, -0.15612635016441345, -0.19671878218650818, 0.1156712993979454, -0.009660917334258556, -0.012067427858710289, 0.1236223354935646, -0.13171640038490295, 0.14673054218292236, -0.01197880320250988, -0.1613093912601471, 0.16856786608695984, -0.15689902007579803, 0.042070161551237106, -0.30822432041168213, 0.20339787006378174, -0.0762631818652153, 0.16615928709506989, -0.131088525056839, 0.22789756953716278, -0.08803422003984451, -0.1519823670387268, 0.17022401094436646, -0.20340095460414886, -0.003330778796225786, 0.27324363589286804, 0.029001209884881973, -0.1074434295296669, -0.0019503580406308174, -0.04606468230485916, 0.022405508905649185, -0.0062737837433815, -0.11951170861721039, 0.12192966789007187, -0.29069212079048157, 0.09472233802080154, -0.0864461362361908, -0.18581245839595795, -8.377805352210999e-05, 0.2260303944349289, -0.01744845137000084, -0.18464046716690063, -0.3362395763397217, 0.35539478063583374, -0.06707270443439484, 0.16297970712184906, 0.07703810930252075, -0.17513850331306458, -0.16639316082000732, -0.05974398925900459, -0.2077876478433609, 0.051988933235406876, -0.06419260054826736, -0.3099592328071594, -0.1849689781665802, 0.11498995125293732, -0.1154526025056839, 0.04528172314167023, 0.06432352215051651, -0.023180654272437096, 0.34062427282333374, 0.14025969803333282, 0.21938283741474152, -0.08647558093070984, 0.04955779388546944, 0.053936250507831573, 0.16188551485538483, 0.36564576625823975, 0.012414339929819107, 0.10804819315671921, -0.12227356433868408, -0.06912214308977127, 0.2194586843252182, -0.36407479643821716, -0.20293007791042328, -0.17755082249641418, 0.10411528497934341, 0.14450833201408386, -0.0008202670142054558, 0.02059173956513405, 0.22757455706596375, 0.11342152208089828, 0.16301332414150238, 0.026295995339751244, -0.29546159505844116, -0.05277447775006294, -0.08682829141616821, -0.11702369153499603, 0.010032467544078827, -0.04901900142431259, 0.2717307507991791, -0.24995921552181244, -0.14461982250213623, -0.008836725726723671, 0.29493263363838196, 0.1340124011039734, -0.19710153341293335, -0.05254403501749039, -0.022955233231186867, 0.0989176407456398, 0.12452837079763412, -0.09843376278877258, -0.06782974302768707, 0.09716067463159561, 0.028041193261742592, -0.1232743188738823, -0.0990830808877945, 0.1409056931734085, -0.13630150258541107, 0.2417537122964859, -0.1802486777305603, -0.17394930124282837, 0.32717666029930115, -0.14702904224395752, -0.1244363859295845, -0.2851177453994751, 0.08150344341993332, -0.031380411237478256, 0.022940605878829956, 0.11414600908756256, -0.06477578729391098, -0.22166766226291656, 0.02569214254617691, 0.12419433146715164, 0.02786044403910637, -0.023327622562646866, -0.08733491599559784, 0.0736667662858963, 0.08117402344942093, 0.2824321985244751, 0.21611638367176056, -0.20090043544769287, -0.12251823395490646, -0.12185533344745636, 0.4815130829811096, 0.017690014094114304, -0.01863539032638073, -0.04134293645620346, -0.013505332171916962, 0.1892777979373932, 0.2302922159433365, -0.33833029866218567, 0.05742055922746658, -0.14405809342861176, 0.015340762212872505, -0.3032483160495758, 0.187705397605896, 0.024669315665960312, -0.07810165733098984, -0.07196399569511414, 0.11942702531814575, 0.03661695122718811, -0.27957916259765625, -0.42734190821647644, -0.053632378578186035, 0.016272103413939476, -0.08708856999874115, -0.01862870715558529, 0.15079014003276825, 0.26471465826034546, -0.10203396528959274, -0.02576763927936554, -0.1401638686656952, -0.08959680050611496, 0.031372591853141785, 0.028889041393995285, 0.1709282100200653, 0.3012091815471649, 0.010453421622514725, 0.2024271935224533, 0.22109927237033844, -0.3138611912727356, 0.1688646525144577, 0.13007467985153198, 0.10354527831077576, -0.05122080072760582, -0.2558153569698334, -0.07921542972326279, 0.13927017152309418, 0.0699797198176384, -0.08945437520742416, 0.21101967990398407, -0.010058488696813583, 0.012804131954908371, 0.230174720287323, 0.1984284669160843, -0.20170018076896667, 0.1333983689546585, 0.10411149263381958, -0.2801511883735657, -0.3446742594242096, -0.12808392941951752, -0.07151012122631073, 0.054368168115615845, 0.048467013984918594, -0.2023170441389084, -0.0021494217216968536, 0.11231306195259094, -0.19392496347427368, -0.017674647271633148, -0.27384939789772034, -0.149241104722023, 0.07139899581670761, 0.29288434982299805, -0.0651550367474556, -0.11744195222854614, 0.10232583433389664, -0.16701354086399078, -0.09986728429794312, 0.3488866984844208, 0.04122617840766907, -0.162146657705307, 0.0651441365480423, 0.28787022829055786, 0.13344068825244904, 0.019884344190359116, -0.04474374279379845, 0.035173818469047546, 0.02452685311436653, -0.17564640939235687, -0.08456192165613174, 0.059141628444194794, -0.1498030126094818, -0.25420665740966797, -0.17233426868915558, -0.13582517206668854, 0.07160088419914246, 0.11670893430709839, 0.02808292582631111, 0.20603372156620026, 0.22889980673789978, -0.19318221509456635, -0.16482125222682953, -0.40908071398735046, 0.13344204425811768, 0.15785901248455048, 0.07734961807727814, 0.048116203397512436, 0.3131980299949646, -0.04185522720217705, 0.06730134785175323, 0.1539468914270401, 0.03524944931268692, -0.037885360419750214, 0.40563294291496277, 0.10955837368965149, -0.18608830869197845, 0.09600646793842316, 0.17762766778469086, 0.026612769812345505, -0.016056418418884277, -0.32922226190567017, -0.1106889545917511, 0.029114484786987305, -0.04856928437948227, 0.13675592839717865, -0.08366955071687698, -0.06489594280719757, 0.043190859258174896, -0.06456734240055084, 0.11762654781341553, 0.1308465301990509, 0.09376505762338638, 0.22106948494911194, 0.30859071016311646, -0.031921837478876114, -0.08560138195753098, 0.08328501135110855, -0.08432944118976593, -0.07736508548259735, 0.15354713797569275, 0.2736261785030365, -0.2000955194234848, -0.19858123362064362, 0.02267036773264408, 0.2958565056324005, 0.15300601720809937, -0.2595820426940918, 0.129913330078125, -0.19733139872550964, -0.12100739777088165, 0.21525385975837708, -0.07902374863624573, -0.022869117558002472, 0.060371190309524536, 0.02090371772646904, -0.15894962847232819, 0.1256481260061264, 0.22572356462478638, 0.012098023667931557, 0.060671381652355194, -0.36180001497268677, 0.2817267179489136, -0.08083668351173401, 0.019020643085241318, 0.20941706001758575, -0.17296448349952698, -0.06032468378543854, 0.11338399350643158, 0.08458882570266724, -0.008203955367207527, 0.29774805903434753, -0.01001601293683052, 0.4124835133552551, 0.12454764544963837, -0.01580147258937359, 0.10269325971603394, 0.14215397834777832, -0.20340679585933685, -0.0656018853187561, -0.301302045583725, -0.0437362901866436, -0.07553211599588394, -0.16276565194129944, 0.05256958305835724};

const float lstm_cell_bias[4 * HUNIT] = {0.24870549142360687, 0.26716578006744385, 0.25799039006233215, 0.24241586029529572, 0.14787550270557404, 0.5117345452308655, 0.43091684579849243, 0.26828569173812866, 0.21013912558555603, 1.0, 1.0, 1.0, 1.0, 1.0, 1.0, 1.0, 1.0, 1.0, -0.2605237066745758, -0.17023766040802002, 0.1809191107749939, -0.21362102031707764, 0.2551335394382477, 0.17150263488292694, -0.16782940924167633, 0.2665124237537384, -0.29226773977279663, 0.2062300741672516, 0.2664875090122223, 0.22912181913852692, 0.2275291383266449, 0.12834784388542175, 0.4974251985549927, 0.4303947389125824, 0.24778060615062714, 0.20226068794727325};

static float lstm_cell_hidden_layer[HUNIT] = {-0.3705565333366394, -0.23586061596870422, 0.0459010973572731, -0.01846650242805481, 0.29686591029167175, 0.32871562242507935, -0.22683338820934296, 0.28497958183288574, -0.26730626821517944};
static float lstm_cell_cell_states[HUNIT] = {-0.8791377544403076, -0.4515327215194702, 0.08562755584716797, -0.03600076213479042, 0.6607344150543213, 0.449747234582901, -0.35956278443336487, 0.676965057849884, -0.5367240905761719};

const float dense_weights[HUNIT] = {-0.28413063287734985, -0.7765761613845825, 0.8326123356819153, -0.7263020277023315, 0.6850998401641846, 1.0788089036941528, -0.9045426845550537, 0.39147815108299255, -0.25202497839927673};
const float dense_bias = 0.19098351895809174;
